svm_type nu_svc
kernel_type polynomial
degree 3
gamma 0.0322581
coef0 0
nr_class 2
total_sv 2
rho -1
label -1 1
probA -6.26453
probB 0.0394696
nr_sv 1 1
SV
0.2308029509780646 0:0.0001 1:0.0001 2:0.0001 3:0.0001 4:0.0001 5:0.0001 6:0.0001 7:0.0001 8:0.0001 9:0.0001 10:0.0001 11:0.0001 12:0.0001 13:0.0001 14:0.0001 15:0.0001 16:0.0001 17:0.0001 18:0.0001 19:0.0001 20:0.0001 21:0.0001 22:0.0001 23:0.0001 24:0.0001 25:0.0001 26:0.0001 27:0.0001 28:0.0001 29:0.0001 30:0.0001 31:0.0001
0.2308029509780646 0:0.0001 1:0.0001 2:0.0001 3:0.0001 4:0.0001 5:0.0001 6:0.0001 7:0.0001 8:0.0001 9:0.0001 10:0.0001 11:0.0001 12:0.0001 13:0.0001 14:0.0001 15:0.0001 16:0.0001 17:0.0001 18:0.0001 19:0.0001 20:0.0001 21:0.0001 22:0.0001 23:0.0001 24:0.0001 25:0.0001 26:0.0001 27:0.0001 28:0.0001 29:0.0001 30:0.0001 31:0.0001
