svm_type nu_svc
kernel_type polynomial
degree 3
gamma 0.0322581
coef0 0
nr_class 2
total_sv 512
rho -1
label 0 1
probA -6.26453
probB 0.0394696
nr_sv 256 256
SV
0.2308029509780646 0:0.0001 1:0.0001 2:0.0001 3:0.0001 4:0.0001 5:0.0001 6:0.0001 7:0.0001 8:0.0001 9:0.0001 10:0.0001 11:0.0001 12:0.0001 13:0.0001 14:0.0001 15:0.0001 16:0.0001 17:0.0001 18:0.0001 19:0.0001 20:0.0001 21:0.0001 22:0.0001 23:0.0001 24:0.0001 25:0.0001 26:0.0001 27:0.0001 28:0.0001 29:0.0001 30:0.0001 31:0.0001 
0.2308029509780646 0:0.0001 1:0.0001 2:0.0001 3:0.0001 4:0.0001 5:0.0001 6:0.0001 7:0.0001 8:0.0001 9:0.0001 10:0.0001 11:0.0001 12:0.0001 13:0.0001 14:0.0001 15:0.0001 16:0.0001 17:0.0001 18:0.0001 19:0.0001 20:0.0001 21:0.0001 22:0.0001 23:0.0001 24:0.0001 25:0.0001 26:0.0001 27:0.0001 28:0.0001 29:0.0001 30:0.0001 31:0.0001 
0.2308029509780646 0:0.0001 1:0.0001 2:0.0001 3:0.0001 4:0.0001 5:0.0001 6:0.0001 7:0.0001 8:0.0001 9:0.0001 10:0.0001 11:0.0001 12:0.0001 13:0.0001 14:0.0001 15:0.0001 16:0.0001 17:0.0001 18:0.0001 19:0.0001 20:0.0001 21:0.0001 22:0.0001 23:0.0001 24:0.0001 25:0.0001 26:0.0001 27:0.0001 28:0.0001 29:0.0001 30:0.0001 31:0.0001 
0.2308029509780646 0:0.0001 1:0.0001 2:0.0001 3:0.0001 4:0.0001 5:0.0001 6:0.0001 7:0.0001 8:0.0001 9:0.0001 10:0.0001 11:0.0001 12:0.0001 13:0.0001 14:0.0001 15:0.0001 16:0.0001 17:0.0001 18:0.0001 19:0.0001 20:0.0001 21:0.0001 22:0.0001 23:0.0001 24:0.0001 25:0.0001 26:0.0001 27:0.0001 28:0.0001 29:0.0001 30:0.0001 31:0.0001 
0.2308029509780646 0:0.0001 1:0.0001 2:0.0001 3:0.0001 4:0.0001 5:0.0001 6:0.0001 7:0.0001 8:0.0001 9:0.0001 10:0.0001 11:0.0001 12:0.0001 13:0.0001 14:0.0001 15:0.0001 16:0.0001 17:0.0001 18:0.0001 19:0.0001 20:0.0001 21:0.0001 22:0.0001 23:0.0001 24:0.0001 25:0.0001 26:0.0001 27:0.0001 28:0.0001 29:0.0001 30:0.0001 31:0.0001 
0.2308029509780646 0:0.0001 1:0.0001 2:0.0001 3:0.0001 4:0.0001 5:0.0001 6:0.0001 7:0.0001 8:0.0001 9:0.0001 10:0.0001 11:0.0001 12:0.0001 13:0.0001 14:0.0001 15:0.0001 16:0.0001 17:0.0001 18:0.0001 19:0.0001 20:0.0001 21:0.0001 22:0.0001 23:0.0001 24:0.0001 25:0.0001 26:0.0001 27:0.0001 28:0.0001 29:0.0001 30:0.0001 31:0.0001 
0.2308029509780646 0:0.0001 1:0.0001 2:0.0001 3:0.0001 4:0.0001 5:0.0001 6:0.0001 7:0.0001 8:0.0001 9:0.0001 10:0.0001 11:0.0001 12:0.0001 13:0.0001 14:0.0001 15:0.0001 16:0.0001 17:0.0001 18:0.0001 19:0.0001 20:0.0001 21:0.0001 22:0.0001 23:0.0001 24:0.0001 25:0.0001 26:0.0001 27:0.0001 28:0.0001 29:0.0001 30:0.0001 31:0.0001 
0.2308029509780646 0:0.0001 1:0.0001 2:0.0001 3:0.0001 4:0.0001 5:0.0001 6:0.0001 7:0.0001 8:0.0001 9:0.0001 10:0.0001 11:0.0001 12:0.0001 13:0.0001 14:0.0001 15:0.0001 16:0.0001 17:0.0001 18:0.0001 19:0.0001 20:0.0001 21:0.0001 22:0.0001 23:0.0001 24:0.0001 25:0.0001 26:0.0001 27:0.0001 28:0.0001 29:0.0001 30:0.0001 31:0.0001 
0.2308029509780646 0:0.0001 1:0.0001 2:0.0001 3:0.0001 4:0.0001 5:0.0001 6:0.0001 7:0.0001 8:0.0001 9:0.0001 10:0.0001 11:0.0001 12:0.0001 13:0.0001 14:0.0001 15:0.0001 16:0.0001 17:0.0001 18:0.0001 19:0.0001 20:0.0001 21:0.0001 22:0.0001 23:0.0001 24:0.0001 25:0.0001 26:0.0001 27:0.0001 28:0.0001 29:0.0001 30:0.0001 31:0.0001 
0.2308029509780646 0:0.0001 1:0.0001 2:0.0001 3:0.0001 4:0.0001 5:0.0001 6:0.0001 7:0.0001 8:0.0001 9:0.0001 10:0.0001 11:0.0001 12:0.0001 13:0.0001 14:0.0001 15:0.0001 16:0.0001 17:0.0001 18:0.0001 19:0.0001 20:0.0001 21:0.0001 22:0.0001 23:0.0001 24:0.0001 25:0.0001 26:0.0001 27:0.0001 28:0.0001 29:0.0001 30:0.0001 31:0.0001 
0.2308029509780646 0:0.0001 1:0.0001 2:0.0001 3:0.0001 4:0.0001 5:0.0001 6:0.0001 7:0.0001 8:0.0001 9:0.0001 10:0.0001 11:0.0001 12:0.0001 13:0.0001 14:0.0001 15:0.0001 16:0.0001 17:0.0001 18:0.0001 19:0.0001 20:0.0001 21:0.0001 22:0.0001 23:0.0001 24:0.0001 25:0.0001 26:0.0001 27:0.0001 28:0.0001 29:0.0001 30:0.0001 31:0.0001 
0.2308029509780646 0:0.0001 1:0.0001 2:0.0001 3:0.0001 4:0.0001 5:0.0001 6:0.0001 7:0.0001 8:0.0001 9:0.0001 10:0.0001 11:0.0001 12:0.0001 13:0.0001 14:0.0001 15:0.0001 16:0.0001 17:0.0001 18:0.0001 19:0.0001 20:0.0001 21:0.0001 22:0.0001 23:0.0001 24:0.0001 25:0.0001 26:0.0001 27:0.0001 28:0.0001 29:0.0001 30:0.0001 31:0.0001 
0.2308029509780646 0:0.0001 1:0.0001 2:0.0001 3:0.0001 4:0.0001 5:0.0001 6:0.0001 7:0.0001 8:0.0001 9:0.0001 10:0.0001 11:0.0001 12:0.0001 13:0.0001 14:0.0001 15:0.0001 16:0.0001 17:0.0001 18:0.0001 19:0.0001 20:0.0001 21:0.0001 22:0.0001 23:0.0001 24:0.0001 25:0.0001 26:0.0001 27:0.0001 28:0.0001 29:0.0001 30:0.0001 31:0.0001 
0.2308029509780646 0:0.0001 1:0.0001 2:0.0001 3:0.0001 4:0.0001 5:0.0001 6:0.0001 7:0.0001 8:0.0001 9:0.0001 10:0.0001 11:0.0001 12:0.0001 13:0.0001 14:0.0001 15:0.0001 16:0.0001 17:0.0001 18:0.0001 19:0.0001 20:0.0001 21:0.0001 22:0.0001 23:0.0001 24:0.0001 25:0.0001 26:0.0001 27:0.0001 28:0.0001 29:0.0001 30:0.0001 31:0.0001 
0.2308029509780646 0:0.0001 1:0.0001 2:0.0001 3:0.0001 4:0.0001 5:0.0001 6:0.0001 7:0.0001 8:0.0001 9:0.0001 10:0.0001 11:0.0001 12:0.0001 13:0.0001 14:0.0001 15:0.0001 16:0.0001 17:0.0001 18:0.0001 19:0.0001 20:0.0001 21:0.0001 22:0.0001 23:0.0001 24:0.0001 25:0.0001 26:0.0001 27:0.0001 28:0.0001 29:0.0001 30:0.0001 31:0.0001 
0.2308029509780646 0:0.0001 1:0.0001 2:0.0001 3:0.0001 4:0.0001 5:0.0001 6:0.0001 7:0.0001 8:0.0001 9:0.0001 10:0.0001 11:0.0001 12:0.0001 13:0.0001 14:0.0001 15:0.0001 16:0.0001 17:0.0001 18:0.0001 19:0.0001 20:0.0001 21:0.0001 22:0.0001 23:0.0001 24:0.0001 25:0.0001 26:0.0001 27:0.0001 28:0.0001 29:0.0001 30:0.0001 31:0.0001 
0.2308029509780646 0:0.0001 1:0.0001 2:0.0001 3:0.0001 4:0.0001 5:0.0001 6:0.0001 7:0.0001 8:0.0001 9:0.0001 10:0.0001 11:0.0001 12:0.0001 13:0.0001 14:0.0001 15:0.0001 16:0.0001 17:0.0001 18:0.0001 19:0.0001 20:0.0001 21:0.0001 22:0.0001 23:0.0001 24:0.0001 25:0.0001 26:0.0001 27:0.0001 28:0.0001 29:0.0001 30:0.0001 31:0.0001 
0.2308029509780646 0:0.0001 1:0.0001 2:0.0001 3:0.0001 4:0.0001 5:0.0001 6:0.0001 7:0.0001 8:0.0001 9:0.0001 10:0.0001 11:0.0001 12:0.0001 13:0.0001 14:0.0001 15:0.0001 16:0.0001 17:0.0001 18:0.0001 19:0.0001 20:0.0001 21:0.0001 22:0.0001 23:0.0001 24:0.0001 25:0.0001 26:0.0001 27:0.0001 28:0.0001 29:0.0001 30:0.0001 31:0.0001 
0.2308029509780646 0:0.0001 1:0.0001 2:0.0001 3:0.0001 4:0.0001 5:0.0001 6:0.0001 7:0.0001 8:0.0001 9:0.0001 10:0.0001 11:0.0001 12:0.0001 13:0.0001 14:0.0001 15:0.0001 16:0.0001 17:0.0001 18:0.0001 19:0.0001 20:0.0001 21:0.0001 22:0.0001 23:0.0001 24:0.0001 25:0.0001 26:0.0001 27:0.0001 28:0.0001 29:0.0001 30:0.0001 31:0.0001 
0.2308029509780646 0:0.0001 1:0.0001 2:0.0001 3:0.0001 4:0.0001 5:0.0001 6:0.0001 7:0.0001 8:0.0001 9:0.0001 10:0.0001 11:0.0001 12:0.0001 13:0.0001 14:0.0001 15:0.0001 16:0.0001 17:0.0001 18:0.0001 19:0.0001 20:0.0001 21:0.0001 22:0.0001 23:0.0001 24:0.0001 25:0.0001 26:0.0001 27:0.0001 28:0.0001 29:0.0001 30:0.0001 31:0.0001 
0.2308029509780646 0:0.0001 1:0.0001 2:0.0001 3:0.0001 4:0.0001 5:0.0001 6:0.0001 7:0.0001 8:0.0001 9:0.0001 10:0.0001 11:0.0001 12:0.0001 13:0.0001 14:0.0001 15:0.0001 16:0.0001 17:0.0001 18:0.0001 19:0.0001 20:0.0001 21:0.0001 22:0.0001 23:0.0001 24:0.0001 25:0.0001 26:0.0001 27:0.0001 28:0.0001 29:0.0001 30:0.0001 31:0.0001 
0.2308029509780646 0:0.0001 1:0.0001 2:0.0001 3:0.0001 4:0.0001 5:0.0001 6:0.0001 7:0.0001 8:0.0001 9:0.0001 10:0.0001 11:0.0001 12:0.0001 13:0.0001 14:0.0001 15:0.0001 16:0.0001 17:0.0001 18:0.0001 19:0.0001 20:0.0001 21:0.0001 22:0.0001 23:0.0001 24:0.0001 25:0.0001 26:0.0001 27:0.0001 28:0.0001 29:0.0001 30:0.0001 31:0.0001 
0.2308029509780646 0:0.0001 1:0.0001 2:0.0001 3:0.0001 4:0.0001 5:0.0001 6:0.0001 7:0.0001 8:0.0001 9:0.0001 10:0.0001 11:0.0001 12:0.0001 13:0.0001 14:0.0001 15:0.0001 16:0.0001 17:0.0001 18:0.0001 19:0.0001 20:0.0001 21:0.0001 22:0.0001 23:0.0001 24:0.0001 25:0.0001 26:0.0001 27:0.0001 28:0.0001 29:0.0001 30:0.0001 31:0.0001 
0.2308029509780646 0:0.0001 1:0.0001 2:0.0001 3:0.0001 4:0.0001 5:0.0001 6:0.0001 7:0.0001 8:0.0001 9:0.0001 10:0.0001 11:0.0001 12:0.0001 13:0.0001 14:0.0001 15:0.0001 16:0.0001 17:0.0001 18:0.0001 19:0.0001 20:0.0001 21:0.0001 22:0.0001 23:0.0001 24:0.0001 25:0.0001 26:0.0001 27:0.0001 28:0.0001 29:0.0001 30:0.0001 31:0.0001 
0.2308029509780646 0:0.0001 1:0.0001 2:0.0001 3:0.0001 4:0.0001 5:0.0001 6:0.0001 7:0.0001 8:0.0001 9:0.0001 10:0.0001 11:0.0001 12:0.0001 13:0.0001 14:0.0001 15:0.0001 16:0.0001 17:0.0001 18:0.0001 19:0.0001 20:0.0001 21:0.0001 22:0.0001 23:0.0001 24:0.0001 25:0.0001 26:0.0001 27:0.0001 28:0.0001 29:0.0001 30:0.0001 31:0.0001 
0.2308029509780646 0:0.0001 1:0.0001 2:0.0001 3:0.0001 4:0.0001 5:0.0001 6:0.0001 7:0.0001 8:0.0001 9:0.0001 10:0.0001 11:0.0001 12:0.0001 13:0.0001 14:0.0001 15:0.0001 16:0.0001 17:0.0001 18:0.0001 19:0.0001 20:0.0001 21:0.0001 22:0.0001 23:0.0001 24:0.0001 25:0.0001 26:0.0001 27:0.0001 28:0.0001 29:0.0001 30:0.0001 31:0.0001 
0.2308029509780646 0:0.0001 1:0.0001 2:0.0001 3:0.0001 4:0.0001 5:0.0001 6:0.0001 7:0.0001 8:0.0001 9:0.0001 10:0.0001 11:0.0001 12:0.0001 13:0.0001 14:0.0001 15:0.0001 16:0.0001 17:0.0001 18:0.0001 19:0.0001 20:0.0001 21:0.0001 22:0.0001 23:0.0001 24:0.0001 25:0.0001 26:0.0001 27:0.0001 28:0.0001 29:0.0001 30:0.0001 31:0.0001 
0.2308029509780646 0:0.0001 1:0.0001 2:0.0001 3:0.0001 4:0.0001 5:0.0001 6:0.0001 7:0.0001 8:0.0001 9:0.0001 10:0.0001 11:0.0001 12:0.0001 13:0.0001 14:0.0001 15:0.0001 16:0.0001 17:0.0001 18:0.0001 19:0.0001 20:0.0001 21:0.0001 22:0.0001 23:0.0001 24:0.0001 25:0.0001 26:0.0001 27:0.0001 28:0.0001 29:0.0001 30:0.0001 31:0.0001 
0.2308029509780646 0:0.0001 1:0.0001 2:0.0001 3:0.0001 4:0.0001 5:0.0001 6:0.0001 7:0.0001 8:0.0001 9:0.0001 10:0.0001 11:0.0001 12:0.0001 13:0.0001 14:0.0001 15:0.0001 16:0.0001 17:0.0001 18:0.0001 19:0.0001 20:0.0001 21:0.0001 22:0.0001 23:0.0001 24:0.0001 25:0.0001 26:0.0001 27:0.0001 28:0.0001 29:0.0001 30:0.0001 31:0.0001 
0.2308029509780646 0:0.0001 1:0.0001 2:0.0001 3:0.0001 4:0.0001 5:0.0001 6:0.0001 7:0.0001 8:0.0001 9:0.0001 10:0.0001 11:0.0001 12:0.0001 13:0.0001 14:0.0001 15:0.0001 16:0.0001 17:0.0001 18:0.0001 19:0.0001 20:0.0001 21:0.0001 22:0.0001 23:0.0001 24:0.0001 25:0.0001 26:0.0001 27:0.0001 28:0.0001 29:0.0001 30:0.0001 31:0.0001 
0.2308029509780646 0:0.0001 1:0.0001 2:0.0001 3:0.0001 4:0.0001 5:0.0001 6:0.0001 7:0.0001 8:0.0001 9:0.0001 10:0.0001 11:0.0001 12:0.0001 13:0.0001 14:0.0001 15:0.0001 16:0.0001 17:0.0001 18:0.0001 19:0.0001 20:0.0001 21:0.0001 22:0.0001 23:0.0001 24:0.0001 25:0.0001 26:0.0001 27:0.0001 28:0.0001 29:0.0001 30:0.0001 31:0.0001 
0.2308029509780646 0:0.0001 1:0.0001 2:0.0001 3:0.0001 4:0.0001 5:0.0001 6:0.0001 7:0.0001 8:0.0001 9:0.0001 10:0.0001 11:0.0001 12:0.0001 13:0.0001 14:0.0001 15:0.0001 16:0.0001 17:0.0001 18:0.0001 19:0.0001 20:0.0001 21:0.0001 22:0.0001 23:0.0001 24:0.0001 25:0.0001 26:0.0001 27:0.0001 28:0.0001 29:0.0001 30:0.0001 31:0.0001 
0.2308029509780646 0:0.0001 1:0.0001 2:0.0001 3:0.0001 4:0.0001 5:0.0001 6:0.0001 7:0.0001 8:0.0001 9:0.0001 10:0.0001 11:0.0001 12:0.0001 13:0.0001 14:0.0001 15:0.0001 16:0.0001 17:0.0001 18:0.0001 19:0.0001 20:0.0001 21:0.0001 22:0.0001 23:0.0001 24:0.0001 25:0.0001 26:0.0001 27:0.0001 28:0.0001 29:0.0001 30:0.0001 31:0.0001 
0.2308029509780646 0:0.0001 1:0.0001 2:0.0001 3:0.0001 4:0.0001 5:0.0001 6:0.0001 7:0.0001 8:0.0001 9:0.0001 10:0.0001 11:0.0001 12:0.0001 13:0.0001 14:0.0001 15:0.0001 16:0.0001 17:0.0001 18:0.0001 19:0.0001 20:0.0001 21:0.0001 22:0.0001 23:0.0001 24:0.0001 25:0.0001 26:0.0001 27:0.0001 28:0.0001 29:0.0001 30:0.0001 31:0.0001 
0.2308029509780646 0:0.0001 1:0.0001 2:0.0001 3:0.0001 4:0.0001 5:0.0001 6:0.0001 7:0.0001 8:0.0001 9:0.0001 10:0.0001 11:0.0001 12:0.0001 13:0.0001 14:0.0001 15:0.0001 16:0.0001 17:0.0001 18:0.0001 19:0.0001 20:0.0001 21:0.0001 22:0.0001 23:0.0001 24:0.0001 25:0.0001 26:0.0001 27:0.0001 28:0.0001 29:0.0001 30:0.0001 31:0.0001 
0.2308029509780646 0:0.0001 1:0.0001 2:0.0001 3:0.0001 4:0.0001 5:0.0001 6:0.0001 7:0.0001 8:0.0001 9:0.0001 10:0.0001 11:0.0001 12:0.0001 13:0.0001 14:0.0001 15:0.0001 16:0.0001 17:0.0001 18:0.0001 19:0.0001 20:0.0001 21:0.0001 22:0.0001 23:0.0001 24:0.0001 25:0.0001 26:0.0001 27:0.0001 28:0.0001 29:0.0001 30:0.0001 31:0.0001 
0.2308029509780646 0:0.0001 1:0.0001 2:0.0001 3:0.0001 4:0.0001 5:0.0001 6:0.0001 7:0.0001 8:0.0001 9:0.0001 10:0.0001 11:0.0001 12:0.0001 13:0.0001 14:0.0001 15:0.0001 16:0.0001 17:0.0001 18:0.0001 19:0.0001 20:0.0001 21:0.0001 22:0.0001 23:0.0001 24:0.0001 25:0.0001 26:0.0001 27:0.0001 28:0.0001 29:0.0001 30:0.0001 31:0.0001 
0.2308029509780646 0:0.0001 1:0.0001 2:0.0001 3:0.0001 4:0.0001 5:0.0001 6:0.0001 7:0.0001 8:0.0001 9:0.0001 10:0.0001 11:0.0001 12:0.0001 13:0.0001 14:0.0001 15:0.0001 16:0.0001 17:0.0001 18:0.0001 19:0.0001 20:0.0001 21:0.0001 22:0.0001 23:0.0001 24:0.0001 25:0.0001 26:0.0001 27:0.0001 28:0.0001 29:0.0001 30:0.0001 31:0.0001 
0.2308029509780646 0:0.0001 1:0.0001 2:0.0001 3:0.0001 4:0.0001 5:0.0001 6:0.0001 7:0.0001 8:0.0001 9:0.0001 10:0.0001 11:0.0001 12:0.0001 13:0.0001 14:0.0001 15:0.0001 16:0.0001 17:0.0001 18:0.0001 19:0.0001 20:0.0001 21:0.0001 22:0.0001 23:0.0001 24:0.0001 25:0.0001 26:0.0001 27:0.0001 28:0.0001 29:0.0001 30:0.0001 31:0.0001 
0.2308029509780646 0:0.0001 1:0.0001 2:0.0001 3:0.0001 4:0.0001 5:0.0001 6:0.0001 7:0.0001 8:0.0001 9:0.0001 10:0.0001 11:0.0001 12:0.0001 13:0.0001 14:0.0001 15:0.0001 16:0.0001 17:0.0001 18:0.0001 19:0.0001 20:0.0001 21:0.0001 22:0.0001 23:0.0001 24:0.0001 25:0.0001 26:0.0001 27:0.0001 28:0.0001 29:0.0001 30:0.0001 31:0.0001 
0.2308029509780646 0:0.0001 1:0.0001 2:0.0001 3:0.0001 4:0.0001 5:0.0001 6:0.0001 7:0.0001 8:0.0001 9:0.0001 10:0.0001 11:0.0001 12:0.0001 13:0.0001 14:0.0001 15:0.0001 16:0.0001 17:0.0001 18:0.0001 19:0.0001 20:0.0001 21:0.0001 22:0.0001 23:0.0001 24:0.0001 25:0.0001 26:0.0001 27:0.0001 28:0.0001 29:0.0001 30:0.0001 31:0.0001 
0.2308029509780646 0:0.0001 1:0.0001 2:0.0001 3:0.0001 4:0.0001 5:0.0001 6:0.0001 7:0.0001 8:0.0001 9:0.0001 10:0.0001 11:0.0001 12:0.0001 13:0.0001 14:0.0001 15:0.0001 16:0.0001 17:0.0001 18:0.0001 19:0.0001 20:0.0001 21:0.0001 22:0.0001 23:0.0001 24:0.0001 25:0.0001 26:0.0001 27:0.0001 28:0.0001 29:0.0001 30:0.0001 31:0.0001 
0.2308029509780646 0:0.0001 1:0.0001 2:0.0001 3:0.0001 4:0.0001 5:0.0001 6:0.0001 7:0.0001 8:0.0001 9:0.0001 10:0.0001 11:0.0001 12:0.0001 13:0.0001 14:0.0001 15:0.0001 16:0.0001 17:0.0001 18:0.0001 19:0.0001 20:0.0001 21:0.0001 22:0.0001 23:0.0001 24:0.0001 25:0.0001 26:0.0001 27:0.0001 28:0.0001 29:0.0001 30:0.0001 31:0.0001 
0.2308029509780646 0:0.0001 1:0.0001 2:0.0001 3:0.0001 4:0.0001 5:0.0001 6:0.0001 7:0.0001 8:0.0001 9:0.0001 10:0.0001 11:0.0001 12:0.0001 13:0.0001 14:0.0001 15:0.0001 16:0.0001 17:0.0001 18:0.0001 19:0.0001 20:0.0001 21:0.0001 22:0.0001 23:0.0001 24:0.0001 25:0.0001 26:0.0001 27:0.0001 28:0.0001 29:0.0001 30:0.0001 31:0.0001 
0.2308029509780646 0:0.0001 1:0.0001 2:0.0001 3:0.0001 4:0.0001 5:0.0001 6:0.0001 7:0.0001 8:0.0001 9:0.0001 10:0.0001 11:0.0001 12:0.0001 13:0.0001 14:0.0001 15:0.0001 16:0.0001 17:0.0001 18:0.0001 19:0.0001 20:0.0001 21:0.0001 22:0.0001 23:0.0001 24:0.0001 25:0.0001 26:0.0001 27:0.0001 28:0.0001 29:0.0001 30:0.0001 31:0.0001 
0.2308029509780646 0:0.0001 1:0.0001 2:0.0001 3:0.0001 4:0.0001 5:0.0001 6:0.0001 7:0.0001 8:0.0001 9:0.0001 10:0.0001 11:0.0001 12:0.0001 13:0.0001 14:0.0001 15:0.0001 16:0.0001 17:0.0001 18:0.0001 19:0.0001 20:0.0001 21:0.0001 22:0.0001 23:0.0001 24:0.0001 25:0.0001 26:0.0001 27:0.0001 28:0.0001 29:0.0001 30:0.0001 31:0.0001 
0.2308029509780646 0:0.0001 1:0.0001 2:0.0001 3:0.0001 4:0.0001 5:0.0001 6:0.0001 7:0.0001 8:0.0001 9:0.0001 10:0.0001 11:0.0001 12:0.0001 13:0.0001 14:0.0001 15:0.0001 16:0.0001 17:0.0001 18:0.0001 19:0.0001 20:0.0001 21:0.0001 22:0.0001 23:0.0001 24:0.0001 25:0.0001 26:0.0001 27:0.0001 28:0.0001 29:0.0001 30:0.0001 31:0.0001 
0.2308029509780646 0:0.0001 1:0.0001 2:0.0001 3:0.0001 4:0.0001 5:0.0001 6:0.0001 7:0.0001 8:0.0001 9:0.0001 10:0.0001 11:0.0001 12:0.0001 13:0.0001 14:0.0001 15:0.0001 16:0.0001 17:0.0001 18:0.0001 19:0.0001 20:0.0001 21:0.0001 22:0.0001 23:0.0001 24:0.0001 25:0.0001 26:0.0001 27:0.0001 28:0.0001 29:0.0001 30:0.0001 31:0.0001 
0.2308029509780646 0:0.0001 1:0.0001 2:0.0001 3:0.0001 4:0.0001 5:0.0001 6:0.0001 7:0.0001 8:0.0001 9:0.0001 10:0.0001 11:0.0001 12:0.0001 13:0.0001 14:0.0001 15:0.0001 16:0.0001 17:0.0001 18:0.0001 19:0.0001 20:0.0001 21:0.0001 22:0.0001 23:0.0001 24:0.0001 25:0.0001 26:0.0001 27:0.0001 28:0.0001 29:0.0001 30:0.0001 31:0.0001 
0.2308029509780646 0:0.0001 1:0.0001 2:0.0001 3:0.0001 4:0.0001 5:0.0001 6:0.0001 7:0.0001 8:0.0001 9:0.0001 10:0.0001 11:0.0001 12:0.0001 13:0.0001 14:0.0001 15:0.0001 16:0.0001 17:0.0001 18:0.0001 19:0.0001 20:0.0001 21:0.0001 22:0.0001 23:0.0001 24:0.0001 25:0.0001 26:0.0001 27:0.0001 28:0.0001 29:0.0001 30:0.0001 31:0.0001 
0.2308029509780646 0:0.0001 1:0.0001 2:0.0001 3:0.0001 4:0.0001 5:0.0001 6:0.0001 7:0.0001 8:0.0001 9:0.0001 10:0.0001 11:0.0001 12:0.0001 13:0.0001 14:0.0001 15:0.0001 16:0.0001 17:0.0001 18:0.0001 19:0.0001 20:0.0001 21:0.0001 22:0.0001 23:0.0001 24:0.0001 25:0.0001 26:0.0001 27:0.0001 28:0.0001 29:0.0001 30:0.0001 31:0.0001 
0.2308029509780646 0:0.0001 1:0.0001 2:0.0001 3:0.0001 4:0.0001 5:0.0001 6:0.0001 7:0.0001 8:0.0001 9:0.0001 10:0.0001 11:0.0001 12:0.0001 13:0.0001 14:0.0001 15:0.0001 16:0.0001 17:0.0001 18:0.0001 19:0.0001 20:0.0001 21:0.0001 22:0.0001 23:0.0001 24:0.0001 25:0.0001 26:0.0001 27:0.0001 28:0.0001 29:0.0001 30:0.0001 31:0.0001 
0.2308029509780646 0:0.0001 1:0.0001 2:0.0001 3:0.0001 4:0.0001 5:0.0001 6:0.0001 7:0.0001 8:0.0001 9:0.0001 10:0.0001 11:0.0001 12:0.0001 13:0.0001 14:0.0001 15:0.0001 16:0.0001 17:0.0001 18:0.0001 19:0.0001 20:0.0001 21:0.0001 22:0.0001 23:0.0001 24:0.0001 25:0.0001 26:0.0001 27:0.0001 28:0.0001 29:0.0001 30:0.0001 31:0.0001 
0.2308029509780646 0:0.0001 1:0.0001 2:0.0001 3:0.0001 4:0.0001 5:0.0001 6:0.0001 7:0.0001 8:0.0001 9:0.0001 10:0.0001 11:0.0001 12:0.0001 13:0.0001 14:0.0001 15:0.0001 16:0.0001 17:0.0001 18:0.0001 19:0.0001 20:0.0001 21:0.0001 22:0.0001 23:0.0001 24:0.0001 25:0.0001 26:0.0001 27:0.0001 28:0.0001 29:0.0001 30:0.0001 31:0.0001 
0.2308029509780646 0:0.0001 1:0.0001 2:0.0001 3:0.0001 4:0.0001 5:0.0001 6:0.0001 7:0.0001 8:0.0001 9:0.0001 10:0.0001 11:0.0001 12:0.0001 13:0.0001 14:0.0001 15:0.0001 16:0.0001 17:0.0001 18:0.0001 19:0.0001 20:0.0001 21:0.0001 22:0.0001 23:0.0001 24:0.0001 25:0.0001 26:0.0001 27:0.0001 28:0.0001 29:0.0001 30:0.0001 31:0.0001 
0.2308029509780646 0:0.0001 1:0.0001 2:0.0001 3:0.0001 4:0.0001 5:0.0001 6:0.0001 7:0.0001 8:0.0001 9:0.0001 10:0.0001 11:0.0001 12:0.0001 13:0.0001 14:0.0001 15:0.0001 16:0.0001 17:0.0001 18:0.0001 19:0.0001 20:0.0001 21:0.0001 22:0.0001 23:0.0001 24:0.0001 25:0.0001 26:0.0001 27:0.0001 28:0.0001 29:0.0001 30:0.0001 31:0.0001 
0.2308029509780646 0:0.0001 1:0.0001 2:0.0001 3:0.0001 4:0.0001 5:0.0001 6:0.0001 7:0.0001 8:0.0001 9:0.0001 10:0.0001 11:0.0001 12:0.0001 13:0.0001 14:0.0001 15:0.0001 16:0.0001 17:0.0001 18:0.0001 19:0.0001 20:0.0001 21:0.0001 22:0.0001 23:0.0001 24:0.0001 25:0.0001 26:0.0001 27:0.0001 28:0.0001 29:0.0001 30:0.0001 31:0.0001 
0.2308029509780646 0:0.0001 1:0.0001 2:0.0001 3:0.0001 4:0.0001 5:0.0001 6:0.0001 7:0.0001 8:0.0001 9:0.0001 10:0.0001 11:0.0001 12:0.0001 13:0.0001 14:0.0001 15:0.0001 16:0.0001 17:0.0001 18:0.0001 19:0.0001 20:0.0001 21:0.0001 22:0.0001 23:0.0001 24:0.0001 25:0.0001 26:0.0001 27:0.0001 28:0.0001 29:0.0001 30:0.0001 31:0.0001 
0.2308029509780646 0:0.0001 1:0.0001 2:0.0001 3:0.0001 4:0.0001 5:0.0001 6:0.0001 7:0.0001 8:0.0001 9:0.0001 10:0.0001 11:0.0001 12:0.0001 13:0.0001 14:0.0001 15:0.0001 16:0.0001 17:0.0001 18:0.0001 19:0.0001 20:0.0001 21:0.0001 22:0.0001 23:0.0001 24:0.0001 25:0.0001 26:0.0001 27:0.0001 28:0.0001 29:0.0001 30:0.0001 31:0.0001 
0.2308029509780646 0:0.0001 1:0.0001 2:0.0001 3:0.0001 4:0.0001 5:0.0001 6:0.0001 7:0.0001 8:0.0001 9:0.0001 10:0.0001 11:0.0001 12:0.0001 13:0.0001 14:0.0001 15:0.0001 16:0.0001 17:0.0001 18:0.0001 19:0.0001 20:0.0001 21:0.0001 22:0.0001 23:0.0001 24:0.0001 25:0.0001 26:0.0001 27:0.0001 28:0.0001 29:0.0001 30:0.0001 31:0.0001 
0.2308029509780646 0:0.0001 1:0.0001 2:0.0001 3:0.0001 4:0.0001 5:0.0001 6:0.0001 7:0.0001 8:0.0001 9:0.0001 10:0.0001 11:0.0001 12:0.0001 13:0.0001 14:0.0001 15:0.0001 16:0.0001 17:0.0001 18:0.0001 19:0.0001 20:0.0001 21:0.0001 22:0.0001 23:0.0001 24:0.0001 25:0.0001 26:0.0001 27:0.0001 28:0.0001 29:0.0001 30:0.0001 31:0.0001 
0.2308029509780646 0:0.0001 1:0.0001 2:0.0001 3:0.0001 4:0.0001 5:0.0001 6:0.0001 7:0.0001 8:0.0001 9:0.0001 10:0.0001 11:0.0001 12:0.0001 13:0.0001 14:0.0001 15:0.0001 16:0.0001 17:0.0001 18:0.0001 19:0.0001 20:0.0001 21:0.0001 22:0.0001 23:0.0001 24:0.0001 25:0.0001 26:0.0001 27:0.0001 28:0.0001 29:0.0001 30:0.0001 31:0.0001 
0.2308029509780646 0:0.0001 1:0.0001 2:0.0001 3:0.0001 4:0.0001 5:0.0001 6:0.0001 7:0.0001 8:0.0001 9:0.0001 10:0.0001 11:0.0001 12:0.0001 13:0.0001 14:0.0001 15:0.0001 16:0.0001 17:0.0001 18:0.0001 19:0.0001 20:0.0001 21:0.0001 22:0.0001 23:0.0001 24:0.0001 25:0.0001 26:0.0001 27:0.0001 28:0.0001 29:0.0001 30:0.0001 31:0.0001 
0.2308029509780646 0:0.0001 1:0.0001 2:0.0001 3:0.0001 4:0.0001 5:0.0001 6:0.0001 7:0.0001 8:0.0001 9:0.0001 10:0.0001 11:0.0001 12:0.0001 13:0.0001 14:0.0001 15:0.0001 16:0.0001 17:0.0001 18:0.0001 19:0.0001 20:0.0001 21:0.0001 22:0.0001 23:0.0001 24:0.0001 25:0.0001 26:0.0001 27:0.0001 28:0.0001 29:0.0001 30:0.0001 31:0.0001 
0.2308029509780646 0:0.0001 1:0.0001 2:0.0001 3:0.0001 4:0.0001 5:0.0001 6:0.0001 7:0.0001 8:0.0001 9:0.0001 10:0.0001 11:0.0001 12:0.0001 13:0.0001 14:0.0001 15:0.0001 16:0.0001 17:0.0001 18:0.0001 19:0.0001 20:0.0001 21:0.0001 22:0.0001 23:0.0001 24:0.0001 25:0.0001 26:0.0001 27:0.0001 28:0.0001 29:0.0001 30:0.0001 31:0.0001 
0.2308029509780646 0:0.0001 1:0.0001 2:0.0001 3:0.0001 4:0.0001 5:0.0001 6:0.0001 7:0.0001 8:0.0001 9:0.0001 10:0.0001 11:0.0001 12:0.0001 13:0.0001 14:0.0001 15:0.0001 16:0.0001 17:0.0001 18:0.0001 19:0.0001 20:0.0001 21:0.0001 22:0.0001 23:0.0001 24:0.0001 25:0.0001 26:0.0001 27:0.0001 28:0.0001 29:0.0001 30:0.0001 31:0.0001 
0.2308029509780646 0:0.0001 1:0.0001 2:0.0001 3:0.0001 4:0.0001 5:0.0001 6:0.0001 7:0.0001 8:0.0001 9:0.0001 10:0.0001 11:0.0001 12:0.0001 13:0.0001 14:0.0001 15:0.0001 16:0.0001 17:0.0001 18:0.0001 19:0.0001 20:0.0001 21:0.0001 22:0.0001 23:0.0001 24:0.0001 25:0.0001 26:0.0001 27:0.0001 28:0.0001 29:0.0001 30:0.0001 31:0.0001 
0.2308029509780646 0:0.0001 1:0.0001 2:0.0001 3:0.0001 4:0.0001 5:0.0001 6:0.0001 7:0.0001 8:0.0001 9:0.0001 10:0.0001 11:0.0001 12:0.0001 13:0.0001 14:0.0001 15:0.0001 16:0.0001 17:0.0001 18:0.0001 19:0.0001 20:0.0001 21:0.0001 22:0.0001 23:0.0001 24:0.0001 25:0.0001 26:0.0001 27:0.0001 28:0.0001 29:0.0001 30:0.0001 31:0.0001 
0.2308029509780646 0:0.0001 1:0.0001 2:0.0001 3:0.0001 4:0.0001 5:0.0001 6:0.0001 7:0.0001 8:0.0001 9:0.0001 10:0.0001 11:0.0001 12:0.0001 13:0.0001 14:0.0001 15:0.0001 16:0.0001 17:0.0001 18:0.0001 19:0.0001 20:0.0001 21:0.0001 22:0.0001 23:0.0001 24:0.0001 25:0.0001 26:0.0001 27:0.0001 28:0.0001 29:0.0001 30:0.0001 31:0.0001 
0.2308029509780646 0:0.0001 1:0.0001 2:0.0001 3:0.0001 4:0.0001 5:0.0001 6:0.0001 7:0.0001 8:0.0001 9:0.0001 10:0.0001 11:0.0001 12:0.0001 13:0.0001 14:0.0001 15:0.0001 16:0.0001 17:0.0001 18:0.0001 19:0.0001 20:0.0001 21:0.0001 22:0.0001 23:0.0001 24:0.0001 25:0.0001 26:0.0001 27:0.0001 28:0.0001 29:0.0001 30:0.0001 31:0.0001 
0.2308029509780646 0:0.0001 1:0.0001 2:0.0001 3:0.0001 4:0.0001 5:0.0001 6:0.0001 7:0.0001 8:0.0001 9:0.0001 10:0.0001 11:0.0001 12:0.0001 13:0.0001 14:0.0001 15:0.0001 16:0.0001 17:0.0001 18:0.0001 19:0.0001 20:0.0001 21:0.0001 22:0.0001 23:0.0001 24:0.0001 25:0.0001 26:0.0001 27:0.0001 28:0.0001 29:0.0001 30:0.0001 31:0.0001 
0.2308029509780646 0:0.0001 1:0.0001 2:0.0001 3:0.0001 4:0.0001 5:0.0001 6:0.0001 7:0.0001 8:0.0001 9:0.0001 10:0.0001 11:0.0001 12:0.0001 13:0.0001 14:0.0001 15:0.0001 16:0.0001 17:0.0001 18:0.0001 19:0.0001 20:0.0001 21:0.0001 22:0.0001 23:0.0001 24:0.0001 25:0.0001 26:0.0001 27:0.0001 28:0.0001 29:0.0001 30:0.0001 31:0.0001 
0.2308029509780646 0:0.0001 1:0.0001 2:0.0001 3:0.0001 4:0.0001 5:0.0001 6:0.0001 7:0.0001 8:0.0001 9:0.0001 10:0.0001 11:0.0001 12:0.0001 13:0.0001 14:0.0001 15:0.0001 16:0.0001 17:0.0001 18:0.0001 19:0.0001 20:0.0001 21:0.0001 22:0.0001 23:0.0001 24:0.0001 25:0.0001 26:0.0001 27:0.0001 28:0.0001 29:0.0001 30:0.0001 31:0.0001 
0.2308029509780646 0:0.0001 1:0.0001 2:0.0001 3:0.0001 4:0.0001 5:0.0001 6:0.0001 7:0.0001 8:0.0001 9:0.0001 10:0.0001 11:0.0001 12:0.0001 13:0.0001 14:0.0001 15:0.0001 16:0.0001 17:0.0001 18:0.0001 19:0.0001 20:0.0001 21:0.0001 22:0.0001 23:0.0001 24:0.0001 25:0.0001 26:0.0001 27:0.0001 28:0.0001 29:0.0001 30:0.0001 31:0.0001 
0.2308029509780646 0:0.0001 1:0.0001 2:0.0001 3:0.0001 4:0.0001 5:0.0001 6:0.0001 7:0.0001 8:0.0001 9:0.0001 10:0.0001 11:0.0001 12:0.0001 13:0.0001 14:0.0001 15:0.0001 16:0.0001 17:0.0001 18:0.0001 19:0.0001 20:0.0001 21:0.0001 22:0.0001 23:0.0001 24:0.0001 25:0.0001 26:0.0001 27:0.0001 28:0.0001 29:0.0001 30:0.0001 31:0.0001 
0.2308029509780646 0:0.0001 1:0.0001 2:0.0001 3:0.0001 4:0.0001 5:0.0001 6:0.0001 7:0.0001 8:0.0001 9:0.0001 10:0.0001 11:0.0001 12:0.0001 13:0.0001 14:0.0001 15:0.0001 16:0.0001 17:0.0001 18:0.0001 19:0.0001 20:0.0001 21:0.0001 22:0.0001 23:0.0001 24:0.0001 25:0.0001 26:0.0001 27:0.0001 28:0.0001 29:0.0001 30:0.0001 31:0.0001 
0.2308029509780646 0:0.0001 1:0.0001 2:0.0001 3:0.0001 4:0.0001 5:0.0001 6:0.0001 7:0.0001 8:0.0001 9:0.0001 10:0.0001 11:0.0001 12:0.0001 13:0.0001 14:0.0001 15:0.0001 16:0.0001 17:0.0001 18:0.0001 19:0.0001 20:0.0001 21:0.0001 22:0.0001 23:0.0001 24:0.0001 25:0.0001 26:0.0001 27:0.0001 28:0.0001 29:0.0001 30:0.0001 31:0.0001 
0.2308029509780646 0:0.0001 1:0.0001 2:0.0001 3:0.0001 4:0.0001 5:0.0001 6:0.0001 7:0.0001 8:0.0001 9:0.0001 10:0.0001 11:0.0001 12:0.0001 13:0.0001 14:0.0001 15:0.0001 16:0.0001 17:0.0001 18:0.0001 19:0.0001 20:0.0001 21:0.0001 22:0.0001 23:0.0001 24:0.0001 25:0.0001 26:0.0001 27:0.0001 28:0.0001 29:0.0001 30:0.0001 31:0.0001 
0.2308029509780646 0:0.0001 1:0.0001 2:0.0001 3:0.0001 4:0.0001 5:0.0001 6:0.0001 7:0.0001 8:0.0001 9:0.0001 10:0.0001 11:0.0001 12:0.0001 13:0.0001 14:0.0001 15:0.0001 16:0.0001 17:0.0001 18:0.0001 19:0.0001 20:0.0001 21:0.0001 22:0.0001 23:0.0001 24:0.0001 25:0.0001 26:0.0001 27:0.0001 28:0.0001 29:0.0001 30:0.0001 31:0.0001 
0.2308029509780646 0:0.0001 1:0.0001 2:0.0001 3:0.0001 4:0.0001 5:0.0001 6:0.0001 7:0.0001 8:0.0001 9:0.0001 10:0.0001 11:0.0001 12:0.0001 13:0.0001 14:0.0001 15:0.0001 16:0.0001 17:0.0001 18:0.0001 19:0.0001 20:0.0001 21:0.0001 22:0.0001 23:0.0001 24:0.0001 25:0.0001 26:0.0001 27:0.0001 28:0.0001 29:0.0001 30:0.0001 31:0.0001 
0.2308029509780646 0:0.0001 1:0.0001 2:0.0001 3:0.0001 4:0.0001 5:0.0001 6:0.0001 7:0.0001 8:0.0001 9:0.0001 10:0.0001 11:0.0001 12:0.0001 13:0.0001 14:0.0001 15:0.0001 16:0.0001 17:0.0001 18:0.0001 19:0.0001 20:0.0001 21:0.0001 22:0.0001 23:0.0001 24:0.0001 25:0.0001 26:0.0001 27:0.0001 28:0.0001 29:0.0001 30:0.0001 31:0.0001 
0.2308029509780646 0:0.0001 1:0.0001 2:0.0001 3:0.0001 4:0.0001 5:0.0001 6:0.0001 7:0.0001 8:0.0001 9:0.0001 10:0.0001 11:0.0001 12:0.0001 13:0.0001 14:0.0001 15:0.0001 16:0.0001 17:0.0001 18:0.0001 19:0.0001 20:0.0001 21:0.0001 22:0.0001 23:0.0001 24:0.0001 25:0.0001 26:0.0001 27:0.0001 28:0.0001 29:0.0001 30:0.0001 31:0.0001 
0.2308029509780646 0:0.0001 1:0.0001 2:0.0001 3:0.0001 4:0.0001 5:0.0001 6:0.0001 7:0.0001 8:0.0001 9:0.0001 10:0.0001 11:0.0001 12:0.0001 13:0.0001 14:0.0001 15:0.0001 16:0.0001 17:0.0001 18:0.0001 19:0.0001 20:0.0001 21:0.0001 22:0.0001 23:0.0001 24:0.0001 25:0.0001 26:0.0001 27:0.0001 28:0.0001 29:0.0001 30:0.0001 31:0.0001 
0.2308029509780646 0:0.0001 1:0.0001 2:0.0001 3:0.0001 4:0.0001 5:0.0001 6:0.0001 7:0.0001 8:0.0001 9:0.0001 10:0.0001 11:0.0001 12:0.0001 13:0.0001 14:0.0001 15:0.0001 16:0.0001 17:0.0001 18:0.0001 19:0.0001 20:0.0001 21:0.0001 22:0.0001 23:0.0001 24:0.0001 25:0.0001 26:0.0001 27:0.0001 28:0.0001 29:0.0001 30:0.0001 31:0.0001 
0.2308029509780646 0:0.0001 1:0.0001 2:0.0001 3:0.0001 4:0.0001 5:0.0001 6:0.0001 7:0.0001 8:0.0001 9:0.0001 10:0.0001 11:0.0001 12:0.0001 13:0.0001 14:0.0001 15:0.0001 16:0.0001 17:0.0001 18:0.0001 19:0.0001 20:0.0001 21:0.0001 22:0.0001 23:0.0001 24:0.0001 25:0.0001 26:0.0001 27:0.0001 28:0.0001 29:0.0001 30:0.0001 31:0.0001 
0.2308029509780646 0:0.0001 1:0.0001 2:0.0001 3:0.0001 4:0.0001 5:0.0001 6:0.0001 7:0.0001 8:0.0001 9:0.0001 10:0.0001 11:0.0001 12:0.0001 13:0.0001 14:0.0001 15:0.0001 16:0.0001 17:0.0001 18:0.0001 19:0.0001 20:0.0001 21:0.0001 22:0.0001 23:0.0001 24:0.0001 25:0.0001 26:0.0001 27:0.0001 28:0.0001 29:0.0001 30:0.0001 31:0.0001 
0.2308029509780646 0:0.0001 1:0.0001 2:0.0001 3:0.0001 4:0.0001 5:0.0001 6:0.0001 7:0.0001 8:0.0001 9:0.0001 10:0.0001 11:0.0001 12:0.0001 13:0.0001 14:0.0001 15:0.0001 16:0.0001 17:0.0001 18:0.0001 19:0.0001 20:0.0001 21:0.0001 22:0.0001 23:0.0001 24:0.0001 25:0.0001 26:0.0001 27:0.0001 28:0.0001 29:0.0001 30:0.0001 31:0.0001 
0.2308029509780646 0:0.0001 1:0.0001 2:0.0001 3:0.0001 4:0.0001 5:0.0001 6:0.0001 7:0.0001 8:0.0001 9:0.0001 10:0.0001 11:0.0001 12:0.0001 13:0.0001 14:0.0001 15:0.0001 16:0.0001 17:0.0001 18:0.0001 19:0.0001 20:0.0001 21:0.0001 22:0.0001 23:0.0001 24:0.0001 25:0.0001 26:0.0001 27:0.0001 28:0.0001 29:0.0001 30:0.0001 31:0.0001 
0.2308029509780646 0:0.0001 1:0.0001 2:0.0001 3:0.0001 4:0.0001 5:0.0001 6:0.0001 7:0.0001 8:0.0001 9:0.0001 10:0.0001 11:0.0001 12:0.0001 13:0.0001 14:0.0001 15:0.0001 16:0.0001 17:0.0001 18:0.0001 19:0.0001 20:0.0001 21:0.0001 22:0.0001 23:0.0001 24:0.0001 25:0.0001 26:0.0001 27:0.0001 28:0.0001 29:0.0001 30:0.0001 31:0.0001 
0.2308029509780646 0:0.0001 1:0.0001 2:0.0001 3:0.0001 4:0.0001 5:0.0001 6:0.0001 7:0.0001 8:0.0001 9:0.0001 10:0.0001 11:0.0001 12:0.0001 13:0.0001 14:0.0001 15:0.0001 16:0.0001 17:0.0001 18:0.0001 19:0.0001 20:0.0001 21:0.0001 22:0.0001 23:0.0001 24:0.0001 25:0.0001 26:0.0001 27:0.0001 28:0.0001 29:0.0001 30:0.0001 31:0.0001 
0.2308029509780646 0:0.0001 1:0.0001 2:0.0001 3:0.0001 4:0.0001 5:0.0001 6:0.0001 7:0.0001 8:0.0001 9:0.0001 10:0.0001 11:0.0001 12:0.0001 13:0.0001 14:0.0001 15:0.0001 16:0.0001 17:0.0001 18:0.0001 19:0.0001 20:0.0001 21:0.0001 22:0.0001 23:0.0001 24:0.0001 25:0.0001 26:0.0001 27:0.0001 28:0.0001 29:0.0001 30:0.0001 31:0.0001 
0.2308029509780646 0:0.0001 1:0.0001 2:0.0001 3:0.0001 4:0.0001 5:0.0001 6:0.0001 7:0.0001 8:0.0001 9:0.0001 10:0.0001 11:0.0001 12:0.0001 13:0.0001 14:0.0001 15:0.0001 16:0.0001 17:0.0001 18:0.0001 19:0.0001 20:0.0001 21:0.0001 22:0.0001 23:0.0001 24:0.0001 25:0.0001 26:0.0001 27:0.0001 28:0.0001 29:0.0001 30:0.0001 31:0.0001 
0.2308029509780646 0:0.0001 1:0.0001 2:0.0001 3:0.0001 4:0.0001 5:0.0001 6:0.0001 7:0.0001 8:0.0001 9:0.0001 10:0.0001 11:0.0001 12:0.0001 13:0.0001 14:0.0001 15:0.0001 16:0.0001 17:0.0001 18:0.0001 19:0.0001 20:0.0001 21:0.0001 22:0.0001 23:0.0001 24:0.0001 25:0.0001 26:0.0001 27:0.0001 28:0.0001 29:0.0001 30:0.0001 31:0.0001 
0.2308029509780646 0:0.0001 1:0.0001 2:0.0001 3:0.0001 4:0.0001 5:0.0001 6:0.0001 7:0.0001 8:0.0001 9:0.0001 10:0.0001 11:0.0001 12:0.0001 13:0.0001 14:0.0001 15:0.0001 16:0.0001 17:0.0001 18:0.0001 19:0.0001 20:0.0001 21:0.0001 22:0.0001 23:0.0001 24:0.0001 25:0.0001 26:0.0001 27:0.0001 28:0.0001 29:0.0001 30:0.0001 31:0.0001 
0.2308029509780646 0:0.0001 1:0.0001 2:0.0001 3:0.0001 4:0.0001 5:0.0001 6:0.0001 7:0.0001 8:0.0001 9:0.0001 10:0.0001 11:0.0001 12:0.0001 13:0.0001 14:0.0001 15:0.0001 16:0.0001 17:0.0001 18:0.0001 19:0.0001 20:0.0001 21:0.0001 22:0.0001 23:0.0001 24:0.0001 25:0.0001 26:0.0001 27:0.0001 28:0.0001 29:0.0001 30:0.0001 31:0.0001 
0.2308029509780646 0:0.0001 1:0.0001 2:0.0001 3:0.0001 4:0.0001 5:0.0001 6:0.0001 7:0.0001 8:0.0001 9:0.0001 10:0.0001 11:0.0001 12:0.0001 13:0.0001 14:0.0001 15:0.0001 16:0.0001 17:0.0001 18:0.0001 19:0.0001 20:0.0001 21:0.0001 22:0.0001 23:0.0001 24:0.0001 25:0.0001 26:0.0001 27:0.0001 28:0.0001 29:0.0001 30:0.0001 31:0.0001 
0.2308029509780646 0:0.0001 1:0.0001 2:0.0001 3:0.0001 4:0.0001 5:0.0001 6:0.0001 7:0.0001 8:0.0001 9:0.0001 10:0.0001 11:0.0001 12:0.0001 13:0.0001 14:0.0001 15:0.0001 16:0.0001 17:0.0001 18:0.0001 19:0.0001 20:0.0001 21:0.0001 22:0.0001 23:0.0001 24:0.0001 25:0.0001 26:0.0001 27:0.0001 28:0.0001 29:0.0001 30:0.0001 31:0.0001 
0.2308029509780646 0:0.0001 1:0.0001 2:0.0001 3:0.0001 4:0.0001 5:0.0001 6:0.0001 7:0.0001 8:0.0001 9:0.0001 10:0.0001 11:0.0001 12:0.0001 13:0.0001 14:0.0001 15:0.0001 16:0.0001 17:0.0001 18:0.0001 19:0.0001 20:0.0001 21:0.0001 22:0.0001 23:0.0001 24:0.0001 25:0.0001 26:0.0001 27:0.0001 28:0.0001 29:0.0001 30:0.0001 31:0.0001 
0.2308029509780646 0:0.0001 1:0.0001 2:0.0001 3:0.0001 4:0.0001 5:0.0001 6:0.0001 7:0.0001 8:0.0001 9:0.0001 10:0.0001 11:0.0001 12:0.0001 13:0.0001 14:0.0001 15:0.0001 16:0.0001 17:0.0001 18:0.0001 19:0.0001 20:0.0001 21:0.0001 22:0.0001 23:0.0001 24:0.0001 25:0.0001 26:0.0001 27:0.0001 28:0.0001 29:0.0001 30:0.0001 31:0.0001 
0.2308029509780646 0:0.0001 1:0.0001 2:0.0001 3:0.0001 4:0.0001 5:0.0001 6:0.0001 7:0.0001 8:0.0001 9:0.0001 10:0.0001 11:0.0001 12:0.0001 13:0.0001 14:0.0001 15:0.0001 16:0.0001 17:0.0001 18:0.0001 19:0.0001 20:0.0001 21:0.0001 22:0.0001 23:0.0001 24:0.0001 25:0.0001 26:0.0001 27:0.0001 28:0.0001 29:0.0001 30:0.0001 31:0.0001 
0.2308029509780646 0:0.0001 1:0.0001 2:0.0001 3:0.0001 4:0.0001 5:0.0001 6:0.0001 7:0.0001 8:0.0001 9:0.0001 10:0.0001 11:0.0001 12:0.0001 13:0.0001 14:0.0001 15:0.0001 16:0.0001 17:0.0001 18:0.0001 19:0.0001 20:0.0001 21:0.0001 22:0.0001 23:0.0001 24:0.0001 25:0.0001 26:0.0001 27:0.0001 28:0.0001 29:0.0001 30:0.0001 31:0.0001 
0.2308029509780646 0:0.0001 1:0.0001 2:0.0001 3:0.0001 4:0.0001 5:0.0001 6:0.0001 7:0.0001 8:0.0001 9:0.0001 10:0.0001 11:0.0001 12:0.0001 13:0.0001 14:0.0001 15:0.0001 16:0.0001 17:0.0001 18:0.0001 19:0.0001 20:0.0001 21:0.0001 22:0.0001 23:0.0001 24:0.0001 25:0.0001 26:0.0001 27:0.0001 28:0.0001 29:0.0001 30:0.0001 31:0.0001 
0.2308029509780646 0:0.0001 1:0.0001 2:0.0001 3:0.0001 4:0.0001 5:0.0001 6:0.0001 7:0.0001 8:0.0001 9:0.0001 10:0.0001 11:0.0001 12:0.0001 13:0.0001 14:0.0001 15:0.0001 16:0.0001 17:0.0001 18:0.0001 19:0.0001 20:0.0001 21:0.0001 22:0.0001 23:0.0001 24:0.0001 25:0.0001 26:0.0001 27:0.0001 28:0.0001 29:0.0001 30:0.0001 31:0.0001 
0.2308029509780646 0:0.0001 1:0.0001 2:0.0001 3:0.0001 4:0.0001 5:0.0001 6:0.0001 7:0.0001 8:0.0001 9:0.0001 10:0.0001 11:0.0001 12:0.0001 13:0.0001 14:0.0001 15:0.0001 16:0.0001 17:0.0001 18:0.0001 19:0.0001 20:0.0001 21:0.0001 22:0.0001 23:0.0001 24:0.0001 25:0.0001 26:0.0001 27:0.0001 28:0.0001 29:0.0001 30:0.0001 31:0.0001 
0.2308029509780646 0:0.0001 1:0.0001 2:0.0001 3:0.0001 4:0.0001 5:0.0001 6:0.0001 7:0.0001 8:0.0001 9:0.0001 10:0.0001 11:0.0001 12:0.0001 13:0.0001 14:0.0001 15:0.0001 16:0.0001 17:0.0001 18:0.0001 19:0.0001 20:0.0001 21:0.0001 22:0.0001 23:0.0001 24:0.0001 25:0.0001 26:0.0001 27:0.0001 28:0.0001 29:0.0001 30:0.0001 31:0.0001 
0.2308029509780646 0:0.0001 1:0.0001 2:0.0001 3:0.0001 4:0.0001 5:0.0001 6:0.0001 7:0.0001 8:0.0001 9:0.0001 10:0.0001 11:0.0001 12:0.0001 13:0.0001 14:0.0001 15:0.0001 16:0.0001 17:0.0001 18:0.0001 19:0.0001 20:0.0001 21:0.0001 22:0.0001 23:0.0001 24:0.0001 25:0.0001 26:0.0001 27:0.0001 28:0.0001 29:0.0001 30:0.0001 31:0.0001 
0.2308029509780646 0:0.0001 1:0.0001 2:0.0001 3:0.0001 4:0.0001 5:0.0001 6:0.0001 7:0.0001 8:0.0001 9:0.0001 10:0.0001 11:0.0001 12:0.0001 13:0.0001 14:0.0001 15:0.0001 16:0.0001 17:0.0001 18:0.0001 19:0.0001 20:0.0001 21:0.0001 22:0.0001 23:0.0001 24:0.0001 25:0.0001 26:0.0001 27:0.0001 28:0.0001 29:0.0001 30:0.0001 31:0.0001 
0.2308029509780646 0:0.0001 1:0.0001 2:0.0001 3:0.0001 4:0.0001 5:0.0001 6:0.0001 7:0.0001 8:0.0001 9:0.0001 10:0.0001 11:0.0001 12:0.0001 13:0.0001 14:0.0001 15:0.0001 16:0.0001 17:0.0001 18:0.0001 19:0.0001 20:0.0001 21:0.0001 22:0.0001 23:0.0001 24:0.0001 25:0.0001 26:0.0001 27:0.0001 28:0.0001 29:0.0001 30:0.0001 31:0.0001 
0.2308029509780646 0:0.0001 1:0.0001 2:0.0001 3:0.0001 4:0.0001 5:0.0001 6:0.0001 7:0.0001 8:0.0001 9:0.0001 10:0.0001 11:0.0001 12:0.0001 13:0.0001 14:0.0001 15:0.0001 16:0.0001 17:0.0001 18:0.0001 19:0.0001 20:0.0001 21:0.0001 22:0.0001 23:0.0001 24:0.0001 25:0.0001 26:0.0001 27:0.0001 28:0.0001 29:0.0001 30:0.0001 31:0.0001 
0.2308029509780646 0:0.0001 1:0.0001 2:0.0001 3:0.0001 4:0.0001 5:0.0001 6:0.0001 7:0.0001 8:0.0001 9:0.0001 10:0.0001 11:0.0001 12:0.0001 13:0.0001 14:0.0001 15:0.0001 16:0.0001 17:0.0001 18:0.0001 19:0.0001 20:0.0001 21:0.0001 22:0.0001 23:0.0001 24:0.0001 25:0.0001 26:0.0001 27:0.0001 28:0.0001 29:0.0001 30:0.0001 31:0.0001 
0.2308029509780646 0:0.0001 1:0.0001 2:0.0001 3:0.0001 4:0.0001 5:0.0001 6:0.0001 7:0.0001 8:0.0001 9:0.0001 10:0.0001 11:0.0001 12:0.0001 13:0.0001 14:0.0001 15:0.0001 16:0.0001 17:0.0001 18:0.0001 19:0.0001 20:0.0001 21:0.0001 22:0.0001 23:0.0001 24:0.0001 25:0.0001 26:0.0001 27:0.0001 28:0.0001 29:0.0001 30:0.0001 31:0.0001 
0.2308029509780646 0:0.0001 1:0.0001 2:0.0001 3:0.0001 4:0.0001 5:0.0001 6:0.0001 7:0.0001 8:0.0001 9:0.0001 10:0.0001 11:0.0001 12:0.0001 13:0.0001 14:0.0001 15:0.0001 16:0.0001 17:0.0001 18:0.0001 19:0.0001 20:0.0001 21:0.0001 22:0.0001 23:0.0001 24:0.0001 25:0.0001 26:0.0001 27:0.0001 28:0.0001 29:0.0001 30:0.0001 31:0.0001 
0.2308029509780646 0:0.0001 1:0.0001 2:0.0001 3:0.0001 4:0.0001 5:0.0001 6:0.0001 7:0.0001 8:0.0001 9:0.0001 10:0.0001 11:0.0001 12:0.0001 13:0.0001 14:0.0001 15:0.0001 16:0.0001 17:0.0001 18:0.0001 19:0.0001 20:0.0001 21:0.0001 22:0.0001 23:0.0001 24:0.0001 25:0.0001 26:0.0001 27:0.0001 28:0.0001 29:0.0001 30:0.0001 31:0.0001 
0.2308029509780646 0:0.0001 1:0.0001 2:0.0001 3:0.0001 4:0.0001 5:0.0001 6:0.0001 7:0.0001 8:0.0001 9:0.0001 10:0.0001 11:0.0001 12:0.0001 13:0.0001 14:0.0001 15:0.0001 16:0.0001 17:0.0001 18:0.0001 19:0.0001 20:0.0001 21:0.0001 22:0.0001 23:0.0001 24:0.0001 25:0.0001 26:0.0001 27:0.0001 28:0.0001 29:0.0001 30:0.0001 31:0.0001 
0.2308029509780646 0:0.0001 1:0.0001 2:0.0001 3:0.0001 4:0.0001 5:0.0001 6:0.0001 7:0.0001 8:0.0001 9:0.0001 10:0.0001 11:0.0001 12:0.0001 13:0.0001 14:0.0001 15:0.0001 16:0.0001 17:0.0001 18:0.0001 19:0.0001 20:0.0001 21:0.0001 22:0.0001 23:0.0001 24:0.0001 25:0.0001 26:0.0001 27:0.0001 28:0.0001 29:0.0001 30:0.0001 31:0.0001 
0.2308029509780646 0:0.0001 1:0.0001 2:0.0001 3:0.0001 4:0.0001 5:0.0001 6:0.0001 7:0.0001 8:0.0001 9:0.0001 10:0.0001 11:0.0001 12:0.0001 13:0.0001 14:0.0001 15:0.0001 16:0.0001 17:0.0001 18:0.0001 19:0.0001 20:0.0001 21:0.0001 22:0.0001 23:0.0001 24:0.0001 25:0.0001 26:0.0001 27:0.0001 28:0.0001 29:0.0001 30:0.0001 31:0.0001 
0.2308029509780646 0:0.0001 1:0.0001 2:0.0001 3:0.0001 4:0.0001 5:0.0001 6:0.0001 7:0.0001 8:0.0001 9:0.0001 10:0.0001 11:0.0001 12:0.0001 13:0.0001 14:0.0001 15:0.0001 16:0.0001 17:0.0001 18:0.0001 19:0.0001 20:0.0001 21:0.0001 22:0.0001 23:0.0001 24:0.0001 25:0.0001 26:0.0001 27:0.0001 28:0.0001 29:0.0001 30:0.0001 31:0.0001 
0.2308029509780646 0:0.0001 1:0.0001 2:0.0001 3:0.0001 4:0.0001 5:0.0001 6:0.0001 7:0.0001 8:0.0001 9:0.0001 10:0.0001 11:0.0001 12:0.0001 13:0.0001 14:0.0001 15:0.0001 16:0.0001 17:0.0001 18:0.0001 19:0.0001 20:0.0001 21:0.0001 22:0.0001 23:0.0001 24:0.0001 25:0.0001 26:0.0001 27:0.0001 28:0.0001 29:0.0001 30:0.0001 31:0.0001 
0.2308029509780646 0:0.0001 1:0.0001 2:0.0001 3:0.0001 4:0.0001 5:0.0001 6:0.0001 7:0.0001 8:0.0001 9:0.0001 10:0.0001 11:0.0001 12:0.0001 13:0.0001 14:0.0001 15:0.0001 16:0.0001 17:0.0001 18:0.0001 19:0.0001 20:0.0001 21:0.0001 22:0.0001 23:0.0001 24:0.0001 25:0.0001 26:0.0001 27:0.0001 28:0.0001 29:0.0001 30:0.0001 31:0.0001 
0.2308029509780646 0:0.0001 1:0.0001 2:0.0001 3:0.0001 4:0.0001 5:0.0001 6:0.0001 7:0.0001 8:0.0001 9:0.0001 10:0.0001 11:0.0001 12:0.0001 13:0.0001 14:0.0001 15:0.0001 16:0.0001 17:0.0001 18:0.0001 19:0.0001 20:0.0001 21:0.0001 22:0.0001 23:0.0001 24:0.0001 25:0.0001 26:0.0001 27:0.0001 28:0.0001 29:0.0001 30:0.0001 31:0.0001 
0.2308029509780646 0:0.0001 1:0.0001 2:0.0001 3:0.0001 4:0.0001 5:0.0001 6:0.0001 7:0.0001 8:0.0001 9:0.0001 10:0.0001 11:0.0001 12:0.0001 13:0.0001 14:0.0001 15:0.0001 16:0.0001 17:0.0001 18:0.0001 19:0.0001 20:0.0001 21:0.0001 22:0.0001 23:0.0001 24:0.0001 25:0.0001 26:0.0001 27:0.0001 28:0.0001 29:0.0001 30:0.0001 31:0.0001 
0.2308029509780646 0:0.0001 1:0.0001 2:0.0001 3:0.0001 4:0.0001 5:0.0001 6:0.0001 7:0.0001 8:0.0001 9:0.0001 10:0.0001 11:0.0001 12:0.0001 13:0.0001 14:0.0001 15:0.0001 16:0.0001 17:0.0001 18:0.0001 19:0.0001 20:0.0001 21:0.0001 22:0.0001 23:0.0001 24:0.0001 25:0.0001 26:0.0001 27:0.0001 28:0.0001 29:0.0001 30:0.0001 31:0.0001 
0.2308029509780646 0:0.0001 1:0.0001 2:0.0001 3:0.0001 4:0.0001 5:0.0001 6:0.0001 7:0.0001 8:0.0001 9:0.0001 10:0.0001 11:0.0001 12:0.0001 13:0.0001 14:0.0001 15:0.0001 16:0.0001 17:0.0001 18:0.0001 19:0.0001 20:0.0001 21:0.0001 22:0.0001 23:0.0001 24:0.0001 25:0.0001 26:0.0001 27:0.0001 28:0.0001 29:0.0001 30:0.0001 31:0.0001 
0.2308029509780646 0:0.0001 1:0.0001 2:0.0001 3:0.0001 4:0.0001 5:0.0001 6:0.0001 7:0.0001 8:0.0001 9:0.0001 10:0.0001 11:0.0001 12:0.0001 13:0.0001 14:0.0001 15:0.0001 16:0.0001 17:0.0001 18:0.0001 19:0.0001 20:0.0001 21:0.0001 22:0.0001 23:0.0001 24:0.0001 25:0.0001 26:0.0001 27:0.0001 28:0.0001 29:0.0001 30:0.0001 31:0.0001 
0.2308029509780646 0:0.0001 1:0.0001 2:0.0001 3:0.0001 4:0.0001 5:0.0001 6:0.0001 7:0.0001 8:0.0001 9:0.0001 10:0.0001 11:0.0001 12:0.0001 13:0.0001 14:0.0001 15:0.0001 16:0.0001 17:0.0001 18:0.0001 19:0.0001 20:0.0001 21:0.0001 22:0.0001 23:0.0001 24:0.0001 25:0.0001 26:0.0001 27:0.0001 28:0.0001 29:0.0001 30:0.0001 31:0.0001 
0.2308029509780646 0:0.0001 1:0.0001 2:0.0001 3:0.0001 4:0.0001 5:0.0001 6:0.0001 7:0.0001 8:0.0001 9:0.0001 10:0.0001 11:0.0001 12:0.0001 13:0.0001 14:0.0001 15:0.0001 16:0.0001 17:0.0001 18:0.0001 19:0.0001 20:0.0001 21:0.0001 22:0.0001 23:0.0001 24:0.0001 25:0.0001 26:0.0001 27:0.0001 28:0.0001 29:0.0001 30:0.0001 31:0.0001 
0.2308029509780646 0:0.0001 1:0.0001 2:0.0001 3:0.0001 4:0.0001 5:0.0001 6:0.0001 7:0.0001 8:0.0001 9:0.0001 10:0.0001 11:0.0001 12:0.0001 13:0.0001 14:0.0001 15:0.0001 16:0.0001 17:0.0001 18:0.0001 19:0.0001 20:0.0001 21:0.0001 22:0.0001 23:0.0001 24:0.0001 25:0.0001 26:0.0001 27:0.0001 28:0.0001 29:0.0001 30:0.0001 31:0.0001 
0.2308029509780646 0:0.0001 1:0.0001 2:0.0001 3:0.0001 4:0.0001 5:0.0001 6:0.0001 7:0.0001 8:0.0001 9:0.0001 10:0.0001 11:0.0001 12:0.0001 13:0.0001 14:0.0001 15:0.0001 16:0.0001 17:0.0001 18:0.0001 19:0.0001 20:0.0001 21:0.0001 22:0.0001 23:0.0001 24:0.0001 25:0.0001 26:0.0001 27:0.0001 28:0.0001 29:0.0001 30:0.0001 31:0.0001 
0.2308029509780646 0:0.0001 1:0.0001 2:0.0001 3:0.0001 4:0.0001 5:0.0001 6:0.0001 7:0.0001 8:0.0001 9:0.0001 10:0.0001 11:0.0001 12:0.0001 13:0.0001 14:0.0001 15:0.0001 16:0.0001 17:0.0001 18:0.0001 19:0.0001 20:0.0001 21:0.0001 22:0.0001 23:0.0001 24:0.0001 25:0.0001 26:0.0001 27:0.0001 28:0.0001 29:0.0001 30:0.0001 31:0.0001 
0.2308029509780646 0:0.0001 1:0.0001 2:0.0001 3:0.0001 4:0.0001 5:0.0001 6:0.0001 7:0.0001 8:0.0001 9:0.0001 10:0.0001 11:0.0001 12:0.0001 13:0.0001 14:0.0001 15:0.0001 16:0.0001 17:0.0001 18:0.0001 19:0.0001 20:0.0001 21:0.0001 22:0.0001 23:0.0001 24:0.0001 25:0.0001 26:0.0001 27:0.0001 28:0.0001 29:0.0001 30:0.0001 31:0.0001 
0.2308029509780646 0:0.0001 1:0.0001 2:0.0001 3:0.0001 4:0.0001 5:0.0001 6:0.0001 7:0.0001 8:0.0001 9:0.0001 10:0.0001 11:0.0001 12:0.0001 13:0.0001 14:0.0001 15:0.0001 16:0.0001 17:0.0001 18:0.0001 19:0.0001 20:0.0001 21:0.0001 22:0.0001 23:0.0001 24:0.0001 25:0.0001 26:0.0001 27:0.0001 28:0.0001 29:0.0001 30:0.0001 31:0.0001 
0.2308029509780646 0:0.0001 1:0.0001 2:0.0001 3:0.0001 4:0.0001 5:0.0001 6:0.0001 7:0.0001 8:0.0001 9:0.0001 10:0.0001 11:0.0001 12:0.0001 13:0.0001 14:0.0001 15:0.0001 16:0.0001 17:0.0001 18:0.0001 19:0.0001 20:0.0001 21:0.0001 22:0.0001 23:0.0001 24:0.0001 25:0.0001 26:0.0001 27:0.0001 28:0.0001 29:0.0001 30:0.0001 31:0.0001 
0.2308029509780646 0:0.0001 1:0.0001 2:0.0001 3:0.0001 4:0.0001 5:0.0001 6:0.0001 7:0.0001 8:0.0001 9:0.0001 10:0.0001 11:0.0001 12:0.0001 13:0.0001 14:0.0001 15:0.0001 16:0.0001 17:0.0001 18:0.0001 19:0.0001 20:0.0001 21:0.0001 22:0.0001 23:0.0001 24:0.0001 25:0.0001 26:0.0001 27:0.0001 28:0.0001 29:0.0001 30:0.0001 31:0.0001 
0.2308029509780646 0:0.0001 1:0.0001 2:0.0001 3:0.0001 4:0.0001 5:0.0001 6:0.0001 7:0.0001 8:0.0001 9:0.0001 10:0.0001 11:0.0001 12:0.0001 13:0.0001 14:0.0001 15:0.0001 16:0.0001 17:0.0001 18:0.0001 19:0.0001 20:0.0001 21:0.0001 22:0.0001 23:0.0001 24:0.0001 25:0.0001 26:0.0001 27:0.0001 28:0.0001 29:0.0001 30:0.0001 31:0.0001 
0.2308029509780646 0:0.0001 1:0.0001 2:0.0001 3:0.0001 4:0.0001 5:0.0001 6:0.0001 7:0.0001 8:0.0001 9:0.0001 10:0.0001 11:0.0001 12:0.0001 13:0.0001 14:0.0001 15:0.0001 16:0.0001 17:0.0001 18:0.0001 19:0.0001 20:0.0001 21:0.0001 22:0.0001 23:0.0001 24:0.0001 25:0.0001 26:0.0001 27:0.0001 28:0.0001 29:0.0001 30:0.0001 31:0.0001 
0.2308029509780646 0:0.0001 1:0.0001 2:0.0001 3:0.0001 4:0.0001 5:0.0001 6:0.0001 7:0.0001 8:0.0001 9:0.0001 10:0.0001 11:0.0001 12:0.0001 13:0.0001 14:0.0001 15:0.0001 16:0.0001 17:0.0001 18:0.0001 19:0.0001 20:0.0001 21:0.0001 22:0.0001 23:0.0001 24:0.0001 25:0.0001 26:0.0001 27:0.0001 28:0.0001 29:0.0001 30:0.0001 31:0.0001 
0.2308029509780646 0:0.0001 1:0.0001 2:0.0001 3:0.0001 4:0.0001 5:0.0001 6:0.0001 7:0.0001 8:0.0001 9:0.0001 10:0.0001 11:0.0001 12:0.0001 13:0.0001 14:0.0001 15:0.0001 16:0.0001 17:0.0001 18:0.0001 19:0.0001 20:0.0001 21:0.0001 22:0.0001 23:0.0001 24:0.0001 25:0.0001 26:0.0001 27:0.0001 28:0.0001 29:0.0001 30:0.0001 31:0.0001 
0.2308029509780646 0:0.0001 1:0.0001 2:0.0001 3:0.0001 4:0.0001 5:0.0001 6:0.0001 7:0.0001 8:0.0001 9:0.0001 10:0.0001 11:0.0001 12:0.0001 13:0.0001 14:0.0001 15:0.0001 16:0.0001 17:0.0001 18:0.0001 19:0.0001 20:0.0001 21:0.0001 22:0.0001 23:0.0001 24:0.0001 25:0.0001 26:0.0001 27:0.0001 28:0.0001 29:0.0001 30:0.0001 31:0.0001 
0.2308029509780646 0:0.0001 1:0.0001 2:0.0001 3:0.0001 4:0.0001 5:0.0001 6:0.0001 7:0.0001 8:0.0001 9:0.0001 10:0.0001 11:0.0001 12:0.0001 13:0.0001 14:0.0001 15:0.0001 16:0.0001 17:0.0001 18:0.0001 19:0.0001 20:0.0001 21:0.0001 22:0.0001 23:0.0001 24:0.0001 25:0.0001 26:0.0001 27:0.0001 28:0.0001 29:0.0001 30:0.0001 31:0.0001 
0.2308029509780646 0:0.0001 1:0.0001 2:0.0001 3:0.0001 4:0.0001 5:0.0001 6:0.0001 7:0.0001 8:0.0001 9:0.0001 10:0.0001 11:0.0001 12:0.0001 13:0.0001 14:0.0001 15:0.0001 16:0.0001 17:0.0001 18:0.0001 19:0.0001 20:0.0001 21:0.0001 22:0.0001 23:0.0001 24:0.0001 25:0.0001 26:0.0001 27:0.0001 28:0.0001 29:0.0001 30:0.0001 31:0.0001 
0.2308029509780646 0:0.0001 1:0.0001 2:0.0001 3:0.0001 4:0.0001 5:0.0001 6:0.0001 7:0.0001 8:0.0001 9:0.0001 10:0.0001 11:0.0001 12:0.0001 13:0.0001 14:0.0001 15:0.0001 16:0.0001 17:0.0001 18:0.0001 19:0.0001 20:0.0001 21:0.0001 22:0.0001 23:0.0001 24:0.0001 25:0.0001 26:0.0001 27:0.0001 28:0.0001 29:0.0001 30:0.0001 31:0.0001 
0.2308029509780646 0:0.0001 1:0.0001 2:0.0001 3:0.0001 4:0.0001 5:0.0001 6:0.0001 7:0.0001 8:0.0001 9:0.0001 10:0.0001 11:0.0001 12:0.0001 13:0.0001 14:0.0001 15:0.0001 16:0.0001 17:0.0001 18:0.0001 19:0.0001 20:0.0001 21:0.0001 22:0.0001 23:0.0001 24:0.0001 25:0.0001 26:0.0001 27:0.0001 28:0.0001 29:0.0001 30:0.0001 31:0.0001 
0.2308029509780646 0:0.0001 1:0.0001 2:0.0001 3:0.0001 4:0.0001 5:0.0001 6:0.0001 7:0.0001 8:0.0001 9:0.0001 10:0.0001 11:0.0001 12:0.0001 13:0.0001 14:0.0001 15:0.0001 16:0.0001 17:0.0001 18:0.0001 19:0.0001 20:0.0001 21:0.0001 22:0.0001 23:0.0001 24:0.0001 25:0.0001 26:0.0001 27:0.0001 28:0.0001 29:0.0001 30:0.0001 31:0.0001 
0.2308029509780646 0:0.0001 1:0.0001 2:0.0001 3:0.0001 4:0.0001 5:0.0001 6:0.0001 7:0.0001 8:0.0001 9:0.0001 10:0.0001 11:0.0001 12:0.0001 13:0.0001 14:0.0001 15:0.0001 16:0.0001 17:0.0001 18:0.0001 19:0.0001 20:0.0001 21:0.0001 22:0.0001 23:0.0001 24:0.0001 25:0.0001 26:0.0001 27:0.0001 28:0.0001 29:0.0001 30:0.0001 31:0.0001 
0.2308029509780646 0:0.0001 1:0.0001 2:0.0001 3:0.0001 4:0.0001 5:0.0001 6:0.0001 7:0.0001 8:0.0001 9:0.0001 10:0.0001 11:0.0001 12:0.0001 13:0.0001 14:0.0001 15:0.0001 16:0.0001 17:0.0001 18:0.0001 19:0.0001 20:0.0001 21:0.0001 22:0.0001 23:0.0001 24:0.0001 25:0.0001 26:0.0001 27:0.0001 28:0.0001 29:0.0001 30:0.0001 31:0.0001 
0.2308029509780646 0:0.0001 1:0.0001 2:0.0001 3:0.0001 4:0.0001 5:0.0001 6:0.0001 7:0.0001 8:0.0001 9:0.0001 10:0.0001 11:0.0001 12:0.0001 13:0.0001 14:0.0001 15:0.0001 16:0.0001 17:0.0001 18:0.0001 19:0.0001 20:0.0001 21:0.0001 22:0.0001 23:0.0001 24:0.0001 25:0.0001 26:0.0001 27:0.0001 28:0.0001 29:0.0001 30:0.0001 31:0.0001 
0.2308029509780646 0:0.0001 1:0.0001 2:0.0001 3:0.0001 4:0.0001 5:0.0001 6:0.0001 7:0.0001 8:0.0001 9:0.0001 10:0.0001 11:0.0001 12:0.0001 13:0.0001 14:0.0001 15:0.0001 16:0.0001 17:0.0001 18:0.0001 19:0.0001 20:0.0001 21:0.0001 22:0.0001 23:0.0001 24:0.0001 25:0.0001 26:0.0001 27:0.0001 28:0.0001 29:0.0001 30:0.0001 31:0.0001 
0.2308029509780646 0:0.0001 1:0.0001 2:0.0001 3:0.0001 4:0.0001 5:0.0001 6:0.0001 7:0.0001 8:0.0001 9:0.0001 10:0.0001 11:0.0001 12:0.0001 13:0.0001 14:0.0001 15:0.0001 16:0.0001 17:0.0001 18:0.0001 19:0.0001 20:0.0001 21:0.0001 22:0.0001 23:0.0001 24:0.0001 25:0.0001 26:0.0001 27:0.0001 28:0.0001 29:0.0001 30:0.0001 31:0.0001 
0.2308029509780646 0:0.0001 1:0.0001 2:0.0001 3:0.0001 4:0.0001 5:0.0001 6:0.0001 7:0.0001 8:0.0001 9:0.0001 10:0.0001 11:0.0001 12:0.0001 13:0.0001 14:0.0001 15:0.0001 16:0.0001 17:0.0001 18:0.0001 19:0.0001 20:0.0001 21:0.0001 22:0.0001 23:0.0001 24:0.0001 25:0.0001 26:0.0001 27:0.0001 28:0.0001 29:0.0001 30:0.0001 31:0.0001 
0.2308029509780646 0:0.0001 1:0.0001 2:0.0001 3:0.0001 4:0.0001 5:0.0001 6:0.0001 7:0.0001 8:0.0001 9:0.0001 10:0.0001 11:0.0001 12:0.0001 13:0.0001 14:0.0001 15:0.0001 16:0.0001 17:0.0001 18:0.0001 19:0.0001 20:0.0001 21:0.0001 22:0.0001 23:0.0001 24:0.0001 25:0.0001 26:0.0001 27:0.0001 28:0.0001 29:0.0001 30:0.0001 31:0.0001 
0.2308029509780646 0:0.0001 1:0.0001 2:0.0001 3:0.0001 4:0.0001 5:0.0001 6:0.0001 7:0.0001 8:0.0001 9:0.0001 10:0.0001 11:0.0001 12:0.0001 13:0.0001 14:0.0001 15:0.0001 16:0.0001 17:0.0001 18:0.0001 19:0.0001 20:0.0001 21:0.0001 22:0.0001 23:0.0001 24:0.0001 25:0.0001 26:0.0001 27:0.0001 28:0.0001 29:0.0001 30:0.0001 31:0.0001 
0.2308029509780646 0:0.0001 1:0.0001 2:0.0001 3:0.0001 4:0.0001 5:0.0001 6:0.0001 7:0.0001 8:0.0001 9:0.0001 10:0.0001 11:0.0001 12:0.0001 13:0.0001 14:0.0001 15:0.0001 16:0.0001 17:0.0001 18:0.0001 19:0.0001 20:0.0001 21:0.0001 22:0.0001 23:0.0001 24:0.0001 25:0.0001 26:0.0001 27:0.0001 28:0.0001 29:0.0001 30:0.0001 31:0.0001 
0.2308029509780646 0:0.0001 1:0.0001 2:0.0001 3:0.0001 4:0.0001 5:0.0001 6:0.0001 7:0.0001 8:0.0001 9:0.0001 10:0.0001 11:0.0001 12:0.0001 13:0.0001 14:0.0001 15:0.0001 16:0.0001 17:0.0001 18:0.0001 19:0.0001 20:0.0001 21:0.0001 22:0.0001 23:0.0001 24:0.0001 25:0.0001 26:0.0001 27:0.0001 28:0.0001 29:0.0001 30:0.0001 31:0.0001 
0.2308029509780646 0:0.0001 1:0.0001 2:0.0001 3:0.0001 4:0.0001 5:0.0001 6:0.0001 7:0.0001 8:0.0001 9:0.0001 10:0.0001 11:0.0001 12:0.0001 13:0.0001 14:0.0001 15:0.0001 16:0.0001 17:0.0001 18:0.0001 19:0.0001 20:0.0001 21:0.0001 22:0.0001 23:0.0001 24:0.0001 25:0.0001 26:0.0001 27:0.0001 28:0.0001 29:0.0001 30:0.0001 31:0.0001 
0.2308029509780646 0:0.0001 1:0.0001 2:0.0001 3:0.0001 4:0.0001 5:0.0001 6:0.0001 7:0.0001 8:0.0001 9:0.0001 10:0.0001 11:0.0001 12:0.0001 13:0.0001 14:0.0001 15:0.0001 16:0.0001 17:0.0001 18:0.0001 19:0.0001 20:0.0001 21:0.0001 22:0.0001 23:0.0001 24:0.0001 25:0.0001 26:0.0001 27:0.0001 28:0.0001 29:0.0001 30:0.0001 31:0.0001 
0.2308029509780646 0:0.0001 1:0.0001 2:0.0001 3:0.0001 4:0.0001 5:0.0001 6:0.0001 7:0.0001 8:0.0001 9:0.0001 10:0.0001 11:0.0001 12:0.0001 13:0.0001 14:0.0001 15:0.0001 16:0.0001 17:0.0001 18:0.0001 19:0.0001 20:0.0001 21:0.0001 22:0.0001 23:0.0001 24:0.0001 25:0.0001 26:0.0001 27:0.0001 28:0.0001 29:0.0001 30:0.0001 31:0.0001 
0.2308029509780646 0:0.0001 1:0.0001 2:0.0001 3:0.0001 4:0.0001 5:0.0001 6:0.0001 7:0.0001 8:0.0001 9:0.0001 10:0.0001 11:0.0001 12:0.0001 13:0.0001 14:0.0001 15:0.0001 16:0.0001 17:0.0001 18:0.0001 19:0.0001 20:0.0001 21:0.0001 22:0.0001 23:0.0001 24:0.0001 25:0.0001 26:0.0001 27:0.0001 28:0.0001 29:0.0001 30:0.0001 31:0.0001 
0.2308029509780646 0:0.0001 1:0.0001 2:0.0001 3:0.0001 4:0.0001 5:0.0001 6:0.0001 7:0.0001 8:0.0001 9:0.0001 10:0.0001 11:0.0001 12:0.0001 13:0.0001 14:0.0001 15:0.0001 16:0.0001 17:0.0001 18:0.0001 19:0.0001 20:0.0001 21:0.0001 22:0.0001 23:0.0001 24:0.0001 25:0.0001 26:0.0001 27:0.0001 28:0.0001 29:0.0001 30:0.0001 31:0.0001 
0.2308029509780646 0:0.0001 1:0.0001 2:0.0001 3:0.0001 4:0.0001 5:0.0001 6:0.0001 7:0.0001 8:0.0001 9:0.0001 10:0.0001 11:0.0001 12:0.0001 13:0.0001 14:0.0001 15:0.0001 16:0.0001 17:0.0001 18:0.0001 19:0.0001 20:0.0001 21:0.0001 22:0.0001 23:0.0001 24:0.0001 25:0.0001 26:0.0001 27:0.0001 28:0.0001 29:0.0001 30:0.0001 31:0.0001 
0.2308029509780646 0:0.0001 1:0.0001 2:0.0001 3:0.0001 4:0.0001 5:0.0001 6:0.0001 7:0.0001 8:0.0001 9:0.0001 10:0.0001 11:0.0001 12:0.0001 13:0.0001 14:0.0001 15:0.0001 16:0.0001 17:0.0001 18:0.0001 19:0.0001 20:0.0001 21:0.0001 22:0.0001 23:0.0001 24:0.0001 25:0.0001 26:0.0001 27:0.0001 28:0.0001 29:0.0001 30:0.0001 31:0.0001 
0.2308029509780646 0:0.0001 1:0.0001 2:0.0001 3:0.0001 4:0.0001 5:0.0001 6:0.0001 7:0.0001 8:0.0001 9:0.0001 10:0.0001 11:0.0001 12:0.0001 13:0.0001 14:0.0001 15:0.0001 16:0.0001 17:0.0001 18:0.0001 19:0.0001 20:0.0001 21:0.0001 22:0.0001 23:0.0001 24:0.0001 25:0.0001 26:0.0001 27:0.0001 28:0.0001 29:0.0001 30:0.0001 31:0.0001 
0.2308029509780646 0:0.0001 1:0.0001 2:0.0001 3:0.0001 4:0.0001 5:0.0001 6:0.0001 7:0.0001 8:0.0001 9:0.0001 10:0.0001 11:0.0001 12:0.0001 13:0.0001 14:0.0001 15:0.0001 16:0.0001 17:0.0001 18:0.0001 19:0.0001 20:0.0001 21:0.0001 22:0.0001 23:0.0001 24:0.0001 25:0.0001 26:0.0001 27:0.0001 28:0.0001 29:0.0001 30:0.0001 31:0.0001 
0.2308029509780646 0:0.0001 1:0.0001 2:0.0001 3:0.0001 4:0.0001 5:0.0001 6:0.0001 7:0.0001 8:0.0001 9:0.0001 10:0.0001 11:0.0001 12:0.0001 13:0.0001 14:0.0001 15:0.0001 16:0.0001 17:0.0001 18:0.0001 19:0.0001 20:0.0001 21:0.0001 22:0.0001 23:0.0001 24:0.0001 25:0.0001 26:0.0001 27:0.0001 28:0.0001 29:0.0001 30:0.0001 31:0.0001 
0.2308029509780646 0:0.0001 1:0.0001 2:0.0001 3:0.0001 4:0.0001 5:0.0001 6:0.0001 7:0.0001 8:0.0001 9:0.0001 10:0.0001 11:0.0001 12:0.0001 13:0.0001 14:0.0001 15:0.0001 16:0.0001 17:0.0001 18:0.0001 19:0.0001 20:0.0001 21:0.0001 22:0.0001 23:0.0001 24:0.0001 25:0.0001 26:0.0001 27:0.0001 28:0.0001 29:0.0001 30:0.0001 31:0.0001 
0.2308029509780646 0:0.0001 1:0.0001 2:0.0001 3:0.0001 4:0.0001 5:0.0001 6:0.0001 7:0.0001 8:0.0001 9:0.0001 10:0.0001 11:0.0001 12:0.0001 13:0.0001 14:0.0001 15:0.0001 16:0.0001 17:0.0001 18:0.0001 19:0.0001 20:0.0001 21:0.0001 22:0.0001 23:0.0001 24:0.0001 25:0.0001 26:0.0001 27:0.0001 28:0.0001 29:0.0001 30:0.0001 31:0.0001 
0.2308029509780646 0:0.0001 1:0.0001 2:0.0001 3:0.0001 4:0.0001 5:0.0001 6:0.0001 7:0.0001 8:0.0001 9:0.0001 10:0.0001 11:0.0001 12:0.0001 13:0.0001 14:0.0001 15:0.0001 16:0.0001 17:0.0001 18:0.0001 19:0.0001 20:0.0001 21:0.0001 22:0.0001 23:0.0001 24:0.0001 25:0.0001 26:0.0001 27:0.0001 28:0.0001 29:0.0001 30:0.0001 31:0.0001 
0.2308029509780646 0:0.0001 1:0.0001 2:0.0001 3:0.0001 4:0.0001 5:0.0001 6:0.0001 7:0.0001 8:0.0001 9:0.0001 10:0.0001 11:0.0001 12:0.0001 13:0.0001 14:0.0001 15:0.0001 16:0.0001 17:0.0001 18:0.0001 19:0.0001 20:0.0001 21:0.0001 22:0.0001 23:0.0001 24:0.0001 25:0.0001 26:0.0001 27:0.0001 28:0.0001 29:0.0001 30:0.0001 31:0.0001 
0.2308029509780646 0:0.0001 1:0.0001 2:0.0001 3:0.0001 4:0.0001 5:0.0001 6:0.0001 7:0.0001 8:0.0001 9:0.0001 10:0.0001 11:0.0001 12:0.0001 13:0.0001 14:0.0001 15:0.0001 16:0.0001 17:0.0001 18:0.0001 19:0.0001 20:0.0001 21:0.0001 22:0.0001 23:0.0001 24:0.0001 25:0.0001 26:0.0001 27:0.0001 28:0.0001 29:0.0001 30:0.0001 31:0.0001 
0.2308029509780646 0:0.0001 1:0.0001 2:0.0001 3:0.0001 4:0.0001 5:0.0001 6:0.0001 7:0.0001 8:0.0001 9:0.0001 10:0.0001 11:0.0001 12:0.0001 13:0.0001 14:0.0001 15:0.0001 16:0.0001 17:0.0001 18:0.0001 19:0.0001 20:0.0001 21:0.0001 22:0.0001 23:0.0001 24:0.0001 25:0.0001 26:0.0001 27:0.0001 28:0.0001 29:0.0001 30:0.0001 31:0.0001 
0.2308029509780646 0:0.0001 1:0.0001 2:0.0001 3:0.0001 4:0.0001 5:0.0001 6:0.0001 7:0.0001 8:0.0001 9:0.0001 10:0.0001 11:0.0001 12:0.0001 13:0.0001 14:0.0001 15:0.0001 16:0.0001 17:0.0001 18:0.0001 19:0.0001 20:0.0001 21:0.0001 22:0.0001 23:0.0001 24:0.0001 25:0.0001 26:0.0001 27:0.0001 28:0.0001 29:0.0001 30:0.0001 31:0.0001 
0.2308029509780646 0:0.0001 1:0.0001 2:0.0001 3:0.0001 4:0.0001 5:0.0001 6:0.0001 7:0.0001 8:0.0001 9:0.0001 10:0.0001 11:0.0001 12:0.0001 13:0.0001 14:0.0001 15:0.0001 16:0.0001 17:0.0001 18:0.0001 19:0.0001 20:0.0001 21:0.0001 22:0.0001 23:0.0001 24:0.0001 25:0.0001 26:0.0001 27:0.0001 28:0.0001 29:0.0001 30:0.0001 31:0.0001 
0.2308029509780646 0:0.0001 1:0.0001 2:0.0001 3:0.0001 4:0.0001 5:0.0001 6:0.0001 7:0.0001 8:0.0001 9:0.0001 10:0.0001 11:0.0001 12:0.0001 13:0.0001 14:0.0001 15:0.0001 16:0.0001 17:0.0001 18:0.0001 19:0.0001 20:0.0001 21:0.0001 22:0.0001 23:0.0001 24:0.0001 25:0.0001 26:0.0001 27:0.0001 28:0.0001 29:0.0001 30:0.0001 31:0.0001 
0.2308029509780646 0:0.0001 1:0.0001 2:0.0001 3:0.0001 4:0.0001 5:0.0001 6:0.0001 7:0.0001 8:0.0001 9:0.0001 10:0.0001 11:0.0001 12:0.0001 13:0.0001 14:0.0001 15:0.0001 16:0.0001 17:0.0001 18:0.0001 19:0.0001 20:0.0001 21:0.0001 22:0.0001 23:0.0001 24:0.0001 25:0.0001 26:0.0001 27:0.0001 28:0.0001 29:0.0001 30:0.0001 31:0.0001 
0.2308029509780646 0:0.0001 1:0.0001 2:0.0001 3:0.0001 4:0.0001 5:0.0001 6:0.0001 7:0.0001 8:0.0001 9:0.0001 10:0.0001 11:0.0001 12:0.0001 13:0.0001 14:0.0001 15:0.0001 16:0.0001 17:0.0001 18:0.0001 19:0.0001 20:0.0001 21:0.0001 22:0.0001 23:0.0001 24:0.0001 25:0.0001 26:0.0001 27:0.0001 28:0.0001 29:0.0001 30:0.0001 31:0.0001 
0.2308029509780646 0:0.0001 1:0.0001 2:0.0001 3:0.0001 4:0.0001 5:0.0001 6:0.0001 7:0.0001 8:0.0001 9:0.0001 10:0.0001 11:0.0001 12:0.0001 13:0.0001 14:0.0001 15:0.0001 16:0.0001 17:0.0001 18:0.0001 19:0.0001 20:0.0001 21:0.0001 22:0.0001 23:0.0001 24:0.0001 25:0.0001 26:0.0001 27:0.0001 28:0.0001 29:0.0001 30:0.0001 31:0.0001 
0.2308029509780646 0:0.0001 1:0.0001 2:0.0001 3:0.0001 4:0.0001 5:0.0001 6:0.0001 7:0.0001 8:0.0001 9:0.0001 10:0.0001 11:0.0001 12:0.0001 13:0.0001 14:0.0001 15:0.0001 16:0.0001 17:0.0001 18:0.0001 19:0.0001 20:0.0001 21:0.0001 22:0.0001 23:0.0001 24:0.0001 25:0.0001 26:0.0001 27:0.0001 28:0.0001 29:0.0001 30:0.0001 31:0.0001 
0.2308029509780646 0:0.0001 1:0.0001 2:0.0001 3:0.0001 4:0.0001 5:0.0001 6:0.0001 7:0.0001 8:0.0001 9:0.0001 10:0.0001 11:0.0001 12:0.0001 13:0.0001 14:0.0001 15:0.0001 16:0.0001 17:0.0001 18:0.0001 19:0.0001 20:0.0001 21:0.0001 22:0.0001 23:0.0001 24:0.0001 25:0.0001 26:0.0001 27:0.0001 28:0.0001 29:0.0001 30:0.0001 31:0.0001 
0.2308029509780646 0:0.0001 1:0.0001 2:0.0001 3:0.0001 4:0.0001 5:0.0001 6:0.0001 7:0.0001 8:0.0001 9:0.0001 10:0.0001 11:0.0001 12:0.0001 13:0.0001 14:0.0001 15:0.0001 16:0.0001 17:0.0001 18:0.0001 19:0.0001 20:0.0001 21:0.0001 22:0.0001 23:0.0001 24:0.0001 25:0.0001 26:0.0001 27:0.0001 28:0.0001 29:0.0001 30:0.0001 31:0.0001 
0.2308029509780646 0:0.0001 1:0.0001 2:0.0001 3:0.0001 4:0.0001 5:0.0001 6:0.0001 7:0.0001 8:0.0001 9:0.0001 10:0.0001 11:0.0001 12:0.0001 13:0.0001 14:0.0001 15:0.0001 16:0.0001 17:0.0001 18:0.0001 19:0.0001 20:0.0001 21:0.0001 22:0.0001 23:0.0001 24:0.0001 25:0.0001 26:0.0001 27:0.0001 28:0.0001 29:0.0001 30:0.0001 31:0.0001 
0.2308029509780646 0:0.0001 1:0.0001 2:0.0001 3:0.0001 4:0.0001 5:0.0001 6:0.0001 7:0.0001 8:0.0001 9:0.0001 10:0.0001 11:0.0001 12:0.0001 13:0.0001 14:0.0001 15:0.0001 16:0.0001 17:0.0001 18:0.0001 19:0.0001 20:0.0001 21:0.0001 22:0.0001 23:0.0001 24:0.0001 25:0.0001 26:0.0001 27:0.0001 28:0.0001 29:0.0001 30:0.0001 31:0.0001 
0.2308029509780646 0:0.0001 1:0.0001 2:0.0001 3:0.0001 4:0.0001 5:0.0001 6:0.0001 7:0.0001 8:0.0001 9:0.0001 10:0.0001 11:0.0001 12:0.0001 13:0.0001 14:0.0001 15:0.0001 16:0.0001 17:0.0001 18:0.0001 19:0.0001 20:0.0001 21:0.0001 22:0.0001 23:0.0001 24:0.0001 25:0.0001 26:0.0001 27:0.0001 28:0.0001 29:0.0001 30:0.0001 31:0.0001 
0.2308029509780646 0:0.0001 1:0.0001 2:0.0001 3:0.0001 4:0.0001 5:0.0001 6:0.0001 7:0.0001 8:0.0001 9:0.0001 10:0.0001 11:0.0001 12:0.0001 13:0.0001 14:0.0001 15:0.0001 16:0.0001 17:0.0001 18:0.0001 19:0.0001 20:0.0001 21:0.0001 22:0.0001 23:0.0001 24:0.0001 25:0.0001 26:0.0001 27:0.0001 28:0.0001 29:0.0001 30:0.0001 31:0.0001 
0.2308029509780646 0:0.0001 1:0.0001 2:0.0001 3:0.0001 4:0.0001 5:0.0001 6:0.0001 7:0.0001 8:0.0001 9:0.0001 10:0.0001 11:0.0001 12:0.0001 13:0.0001 14:0.0001 15:0.0001 16:0.0001 17:0.0001 18:0.0001 19:0.0001 20:0.0001 21:0.0001 22:0.0001 23:0.0001 24:0.0001 25:0.0001 26:0.0001 27:0.0001 28:0.0001 29:0.0001 30:0.0001 31:0.0001 
0.2308029509780646 0:0.0001 1:0.0001 2:0.0001 3:0.0001 4:0.0001 5:0.0001 6:0.0001 7:0.0001 8:0.0001 9:0.0001 10:0.0001 11:0.0001 12:0.0001 13:0.0001 14:0.0001 15:0.0001 16:0.0001 17:0.0001 18:0.0001 19:0.0001 20:0.0001 21:0.0001 22:0.0001 23:0.0001 24:0.0001 25:0.0001 26:0.0001 27:0.0001 28:0.0001 29:0.0001 30:0.0001 31:0.0001 
0.2308029509780646 0:0.0001 1:0.0001 2:0.0001 3:0.0001 4:0.0001 5:0.0001 6:0.0001 7:0.0001 8:0.0001 9:0.0001 10:0.0001 11:0.0001 12:0.0001 13:0.0001 14:0.0001 15:0.0001 16:0.0001 17:0.0001 18:0.0001 19:0.0001 20:0.0001 21:0.0001 22:0.0001 23:0.0001 24:0.0001 25:0.0001 26:0.0001 27:0.0001 28:0.0001 29:0.0001 30:0.0001 31:0.0001 
0.2308029509780646 0:0.0001 1:0.0001 2:0.0001 3:0.0001 4:0.0001 5:0.0001 6:0.0001 7:0.0001 8:0.0001 9:0.0001 10:0.0001 11:0.0001 12:0.0001 13:0.0001 14:0.0001 15:0.0001 16:0.0001 17:0.0001 18:0.0001 19:0.0001 20:0.0001 21:0.0001 22:0.0001 23:0.0001 24:0.0001 25:0.0001 26:0.0001 27:0.0001 28:0.0001 29:0.0001 30:0.0001 31:0.0001 
0.2308029509780646 0:0.0001 1:0.0001 2:0.0001 3:0.0001 4:0.0001 5:0.0001 6:0.0001 7:0.0001 8:0.0001 9:0.0001 10:0.0001 11:0.0001 12:0.0001 13:0.0001 14:0.0001 15:0.0001 16:0.0001 17:0.0001 18:0.0001 19:0.0001 20:0.0001 21:0.0001 22:0.0001 23:0.0001 24:0.0001 25:0.0001 26:0.0001 27:0.0001 28:0.0001 29:0.0001 30:0.0001 31:0.0001 
0.2308029509780646 0:0.0001 1:0.0001 2:0.0001 3:0.0001 4:0.0001 5:0.0001 6:0.0001 7:0.0001 8:0.0001 9:0.0001 10:0.0001 11:0.0001 12:0.0001 13:0.0001 14:0.0001 15:0.0001 16:0.0001 17:0.0001 18:0.0001 19:0.0001 20:0.0001 21:0.0001 22:0.0001 23:0.0001 24:0.0001 25:0.0001 26:0.0001 27:0.0001 28:0.0001 29:0.0001 30:0.0001 31:0.0001 
0.2308029509780646 0:0.0001 1:0.0001 2:0.0001 3:0.0001 4:0.0001 5:0.0001 6:0.0001 7:0.0001 8:0.0001 9:0.0001 10:0.0001 11:0.0001 12:0.0001 13:0.0001 14:0.0001 15:0.0001 16:0.0001 17:0.0001 18:0.0001 19:0.0001 20:0.0001 21:0.0001 22:0.0001 23:0.0001 24:0.0001 25:0.0001 26:0.0001 27:0.0001 28:0.0001 29:0.0001 30:0.0001 31:0.0001 
0.2308029509780646 0:0.0001 1:0.0001 2:0.0001 3:0.0001 4:0.0001 5:0.0001 6:0.0001 7:0.0001 8:0.0001 9:0.0001 10:0.0001 11:0.0001 12:0.0001 13:0.0001 14:0.0001 15:0.0001 16:0.0001 17:0.0001 18:0.0001 19:0.0001 20:0.0001 21:0.0001 22:0.0001 23:0.0001 24:0.0001 25:0.0001 26:0.0001 27:0.0001 28:0.0001 29:0.0001 30:0.0001 31:0.0001 
0.2308029509780646 0:0.0001 1:0.0001 2:0.0001 3:0.0001 4:0.0001 5:0.0001 6:0.0001 7:0.0001 8:0.0001 9:0.0001 10:0.0001 11:0.0001 12:0.0001 13:0.0001 14:0.0001 15:0.0001 16:0.0001 17:0.0001 18:0.0001 19:0.0001 20:0.0001 21:0.0001 22:0.0001 23:0.0001 24:0.0001 25:0.0001 26:0.0001 27:0.0001 28:0.0001 29:0.0001 30:0.0001 31:0.0001 
0.2308029509780646 0:0.0001 1:0.0001 2:0.0001 3:0.0001 4:0.0001 5:0.0001 6:0.0001 7:0.0001 8:0.0001 9:0.0001 10:0.0001 11:0.0001 12:0.0001 13:0.0001 14:0.0001 15:0.0001 16:0.0001 17:0.0001 18:0.0001 19:0.0001 20:0.0001 21:0.0001 22:0.0001 23:0.0001 24:0.0001 25:0.0001 26:0.0001 27:0.0001 28:0.0001 29:0.0001 30:0.0001 31:0.0001 
0.2308029509780646 0:0.0001 1:0.0001 2:0.0001 3:0.0001 4:0.0001 5:0.0001 6:0.0001 7:0.0001 8:0.0001 9:0.0001 10:0.0001 11:0.0001 12:0.0001 13:0.0001 14:0.0001 15:0.0001 16:0.0001 17:0.0001 18:0.0001 19:0.0001 20:0.0001 21:0.0001 22:0.0001 23:0.0001 24:0.0001 25:0.0001 26:0.0001 27:0.0001 28:0.0001 29:0.0001 30:0.0001 31:0.0001 
0.2308029509780646 0:0.0001 1:0.0001 2:0.0001 3:0.0001 4:0.0001 5:0.0001 6:0.0001 7:0.0001 8:0.0001 9:0.0001 10:0.0001 11:0.0001 12:0.0001 13:0.0001 14:0.0001 15:0.0001 16:0.0001 17:0.0001 18:0.0001 19:0.0001 20:0.0001 21:0.0001 22:0.0001 23:0.0001 24:0.0001 25:0.0001 26:0.0001 27:0.0001 28:0.0001 29:0.0001 30:0.0001 31:0.0001 
0.2308029509780646 0:0.0001 1:0.0001 2:0.0001 3:0.0001 4:0.0001 5:0.0001 6:0.0001 7:0.0001 8:0.0001 9:0.0001 10:0.0001 11:0.0001 12:0.0001 13:0.0001 14:0.0001 15:0.0001 16:0.0001 17:0.0001 18:0.0001 19:0.0001 20:0.0001 21:0.0001 22:0.0001 23:0.0001 24:0.0001 25:0.0001 26:0.0001 27:0.0001 28:0.0001 29:0.0001 30:0.0001 31:0.0001 
0.2308029509780646 0:0.0001 1:0.0001 2:0.0001 3:0.0001 4:0.0001 5:0.0001 6:0.0001 7:0.0001 8:0.0001 9:0.0001 10:0.0001 11:0.0001 12:0.0001 13:0.0001 14:0.0001 15:0.0001 16:0.0001 17:0.0001 18:0.0001 19:0.0001 20:0.0001 21:0.0001 22:0.0001 23:0.0001 24:0.0001 25:0.0001 26:0.0001 27:0.0001 28:0.0001 29:0.0001 30:0.0001 31:0.0001 
0.2308029509780646 0:0.0001 1:0.0001 2:0.0001 3:0.0001 4:0.0001 5:0.0001 6:0.0001 7:0.0001 8:0.0001 9:0.0001 10:0.0001 11:0.0001 12:0.0001 13:0.0001 14:0.0001 15:0.0001 16:0.0001 17:0.0001 18:0.0001 19:0.0001 20:0.0001 21:0.0001 22:0.0001 23:0.0001 24:0.0001 25:0.0001 26:0.0001 27:0.0001 28:0.0001 29:0.0001 30:0.0001 31:0.0001 
0.2308029509780646 0:0.0001 1:0.0001 2:0.0001 3:0.0001 4:0.0001 5:0.0001 6:0.0001 7:0.0001 8:0.0001 9:0.0001 10:0.0001 11:0.0001 12:0.0001 13:0.0001 14:0.0001 15:0.0001 16:0.0001 17:0.0001 18:0.0001 19:0.0001 20:0.0001 21:0.0001 22:0.0001 23:0.0001 24:0.0001 25:0.0001 26:0.0001 27:0.0001 28:0.0001 29:0.0001 30:0.0001 31:0.0001 
0.2308029509780646 0:0.0001 1:0.0001 2:0.0001 3:0.0001 4:0.0001 5:0.0001 6:0.0001 7:0.0001 8:0.0001 9:0.0001 10:0.0001 11:0.0001 12:0.0001 13:0.0001 14:0.0001 15:0.0001 16:0.0001 17:0.0001 18:0.0001 19:0.0001 20:0.0001 21:0.0001 22:0.0001 23:0.0001 24:0.0001 25:0.0001 26:0.0001 27:0.0001 28:0.0001 29:0.0001 30:0.0001 31:0.0001 
0.2308029509780646 0:0.0001 1:0.0001 2:0.0001 3:0.0001 4:0.0001 5:0.0001 6:0.0001 7:0.0001 8:0.0001 9:0.0001 10:0.0001 11:0.0001 12:0.0001 13:0.0001 14:0.0001 15:0.0001 16:0.0001 17:0.0001 18:0.0001 19:0.0001 20:0.0001 21:0.0001 22:0.0001 23:0.0001 24:0.0001 25:0.0001 26:0.0001 27:0.0001 28:0.0001 29:0.0001 30:0.0001 31:0.0001 
0.2308029509780646 0:0.0001 1:0.0001 2:0.0001 3:0.0001 4:0.0001 5:0.0001 6:0.0001 7:0.0001 8:0.0001 9:0.0001 10:0.0001 11:0.0001 12:0.0001 13:0.0001 14:0.0001 15:0.0001 16:0.0001 17:0.0001 18:0.0001 19:0.0001 20:0.0001 21:0.0001 22:0.0001 23:0.0001 24:0.0001 25:0.0001 26:0.0001 27:0.0001 28:0.0001 29:0.0001 30:0.0001 31:0.0001 
0.2308029509780646 0:0.0001 1:0.0001 2:0.0001 3:0.0001 4:0.0001 5:0.0001 6:0.0001 7:0.0001 8:0.0001 9:0.0001 10:0.0001 11:0.0001 12:0.0001 13:0.0001 14:0.0001 15:0.0001 16:0.0001 17:0.0001 18:0.0001 19:0.0001 20:0.0001 21:0.0001 22:0.0001 23:0.0001 24:0.0001 25:0.0001 26:0.0001 27:0.0001 28:0.0001 29:0.0001 30:0.0001 31:0.0001 
0.2308029509780646 0:0.0001 1:0.0001 2:0.0001 3:0.0001 4:0.0001 5:0.0001 6:0.0001 7:0.0001 8:0.0001 9:0.0001 10:0.0001 11:0.0001 12:0.0001 13:0.0001 14:0.0001 15:0.0001 16:0.0001 17:0.0001 18:0.0001 19:0.0001 20:0.0001 21:0.0001 22:0.0001 23:0.0001 24:0.0001 25:0.0001 26:0.0001 27:0.0001 28:0.0001 29:0.0001 30:0.0001 31:0.0001 
0.2308029509780646 0:0.0001 1:0.0001 2:0.0001 3:0.0001 4:0.0001 5:0.0001 6:0.0001 7:0.0001 8:0.0001 9:0.0001 10:0.0001 11:0.0001 12:0.0001 13:0.0001 14:0.0001 15:0.0001 16:0.0001 17:0.0001 18:0.0001 19:0.0001 20:0.0001 21:0.0001 22:0.0001 23:0.0001 24:0.0001 25:0.0001 26:0.0001 27:0.0001 28:0.0001 29:0.0001 30:0.0001 31:0.0001 
0.2308029509780646 0:0.0001 1:0.0001 2:0.0001 3:0.0001 4:0.0001 5:0.0001 6:0.0001 7:0.0001 8:0.0001 9:0.0001 10:0.0001 11:0.0001 12:0.0001 13:0.0001 14:0.0001 15:0.0001 16:0.0001 17:0.0001 18:0.0001 19:0.0001 20:0.0001 21:0.0001 22:0.0001 23:0.0001 24:0.0001 25:0.0001 26:0.0001 27:0.0001 28:0.0001 29:0.0001 30:0.0001 31:0.0001 
0.2308029509780646 0:0.0001 1:0.0001 2:0.0001 3:0.0001 4:0.0001 5:0.0001 6:0.0001 7:0.0001 8:0.0001 9:0.0001 10:0.0001 11:0.0001 12:0.0001 13:0.0001 14:0.0001 15:0.0001 16:0.0001 17:0.0001 18:0.0001 19:0.0001 20:0.0001 21:0.0001 22:0.0001 23:0.0001 24:0.0001 25:0.0001 26:0.0001 27:0.0001 28:0.0001 29:0.0001 30:0.0001 31:0.0001 
0.2308029509780646 0:0.0001 1:0.0001 2:0.0001 3:0.0001 4:0.0001 5:0.0001 6:0.0001 7:0.0001 8:0.0001 9:0.0001 10:0.0001 11:0.0001 12:0.0001 13:0.0001 14:0.0001 15:0.0001 16:0.0001 17:0.0001 18:0.0001 19:0.0001 20:0.0001 21:0.0001 22:0.0001 23:0.0001 24:0.0001 25:0.0001 26:0.0001 27:0.0001 28:0.0001 29:0.0001 30:0.0001 31:0.0001 
0.2308029509780646 0:0.0001 1:0.0001 2:0.0001 3:0.0001 4:0.0001 5:0.0001 6:0.0001 7:0.0001 8:0.0001 9:0.0001 10:0.0001 11:0.0001 12:0.0001 13:0.0001 14:0.0001 15:0.0001 16:0.0001 17:0.0001 18:0.0001 19:0.0001 20:0.0001 21:0.0001 22:0.0001 23:0.0001 24:0.0001 25:0.0001 26:0.0001 27:0.0001 28:0.0001 29:0.0001 30:0.0001 31:0.0001 
0.2308029509780646 0:0.0001 1:0.0001 2:0.0001 3:0.0001 4:0.0001 5:0.0001 6:0.0001 7:0.0001 8:0.0001 9:0.0001 10:0.0001 11:0.0001 12:0.0001 13:0.0001 14:0.0001 15:0.0001 16:0.0001 17:0.0001 18:0.0001 19:0.0001 20:0.0001 21:0.0001 22:0.0001 23:0.0001 24:0.0001 25:0.0001 26:0.0001 27:0.0001 28:0.0001 29:0.0001 30:0.0001 31:0.0001 
0.2308029509780646 0:0.0001 1:0.0001 2:0.0001 3:0.0001 4:0.0001 5:0.0001 6:0.0001 7:0.0001 8:0.0001 9:0.0001 10:0.0001 11:0.0001 12:0.0001 13:0.0001 14:0.0001 15:0.0001 16:0.0001 17:0.0001 18:0.0001 19:0.0001 20:0.0001 21:0.0001 22:0.0001 23:0.0001 24:0.0001 25:0.0001 26:0.0001 27:0.0001 28:0.0001 29:0.0001 30:0.0001 31:0.0001 
0.2308029509780646 0:0.0001 1:0.0001 2:0.0001 3:0.0001 4:0.0001 5:0.0001 6:0.0001 7:0.0001 8:0.0001 9:0.0001 10:0.0001 11:0.0001 12:0.0001 13:0.0001 14:0.0001 15:0.0001 16:0.0001 17:0.0001 18:0.0001 19:0.0001 20:0.0001 21:0.0001 22:0.0001 23:0.0001 24:0.0001 25:0.0001 26:0.0001 27:0.0001 28:0.0001 29:0.0001 30:0.0001 31:0.0001 
0.2308029509780646 0:0.0001 1:0.0001 2:0.0001 3:0.0001 4:0.0001 5:0.0001 6:0.0001 7:0.0001 8:0.0001 9:0.0001 10:0.0001 11:0.0001 12:0.0001 13:0.0001 14:0.0001 15:0.0001 16:0.0001 17:0.0001 18:0.0001 19:0.0001 20:0.0001 21:0.0001 22:0.0001 23:0.0001 24:0.0001 25:0.0001 26:0.0001 27:0.0001 28:0.0001 29:0.0001 30:0.0001 31:0.0001 
0.2308029509780646 0:0.0001 1:0.0001 2:0.0001 3:0.0001 4:0.0001 5:0.0001 6:0.0001 7:0.0001 8:0.0001 9:0.0001 10:0.0001 11:0.0001 12:0.0001 13:0.0001 14:0.0001 15:0.0001 16:0.0001 17:0.0001 18:0.0001 19:0.0001 20:0.0001 21:0.0001 22:0.0001 23:0.0001 24:0.0001 25:0.0001 26:0.0001 27:0.0001 28:0.0001 29:0.0001 30:0.0001 31:0.0001 
0.2308029509780646 0:0.0001 1:0.0001 2:0.0001 3:0.0001 4:0.0001 5:0.0001 6:0.0001 7:0.0001 8:0.0001 9:0.0001 10:0.0001 11:0.0001 12:0.0001 13:0.0001 14:0.0001 15:0.0001 16:0.0001 17:0.0001 18:0.0001 19:0.0001 20:0.0001 21:0.0001 22:0.0001 23:0.0001 24:0.0001 25:0.0001 26:0.0001 27:0.0001 28:0.0001 29:0.0001 30:0.0001 31:0.0001 
0.2308029509780646 0:0.0001 1:0.0001 2:0.0001 3:0.0001 4:0.0001 5:0.0001 6:0.0001 7:0.0001 8:0.0001 9:0.0001 10:0.0001 11:0.0001 12:0.0001 13:0.0001 14:0.0001 15:0.0001 16:0.0001 17:0.0001 18:0.0001 19:0.0001 20:0.0001 21:0.0001 22:0.0001 23:0.0001 24:0.0001 25:0.0001 26:0.0001 27:0.0001 28:0.0001 29:0.0001 30:0.0001 31:0.0001 
0.2308029509780646 0:0.0001 1:0.0001 2:0.0001 3:0.0001 4:0.0001 5:0.0001 6:0.0001 7:0.0001 8:0.0001 9:0.0001 10:0.0001 11:0.0001 12:0.0001 13:0.0001 14:0.0001 15:0.0001 16:0.0001 17:0.0001 18:0.0001 19:0.0001 20:0.0001 21:0.0001 22:0.0001 23:0.0001 24:0.0001 25:0.0001 26:0.0001 27:0.0001 28:0.0001 29:0.0001 30:0.0001 31:0.0001 
0.2308029509780646 0:0.0001 1:0.0001 2:0.0001 3:0.0001 4:0.0001 5:0.0001 6:0.0001 7:0.0001 8:0.0001 9:0.0001 10:0.0001 11:0.0001 12:0.0001 13:0.0001 14:0.0001 15:0.0001 16:0.0001 17:0.0001 18:0.0001 19:0.0001 20:0.0001 21:0.0001 22:0.0001 23:0.0001 24:0.0001 25:0.0001 26:0.0001 27:0.0001 28:0.0001 29:0.0001 30:0.0001 31:0.0001 
0.2308029509780646 0:0.0001 1:0.0001 2:0.0001 3:0.0001 4:0.0001 5:0.0001 6:0.0001 7:0.0001 8:0.0001 9:0.0001 10:0.0001 11:0.0001 12:0.0001 13:0.0001 14:0.0001 15:0.0001 16:0.0001 17:0.0001 18:0.0001 19:0.0001 20:0.0001 21:0.0001 22:0.0001 23:0.0001 24:0.0001 25:0.0001 26:0.0001 27:0.0001 28:0.0001 29:0.0001 30:0.0001 31:0.0001 
0.2308029509780646 0:0.0001 1:0.0001 2:0.0001 3:0.0001 4:0.0001 5:0.0001 6:0.0001 7:0.0001 8:0.0001 9:0.0001 10:0.0001 11:0.0001 12:0.0001 13:0.0001 14:0.0001 15:0.0001 16:0.0001 17:0.0001 18:0.0001 19:0.0001 20:0.0001 21:0.0001 22:0.0001 23:0.0001 24:0.0001 25:0.0001 26:0.0001 27:0.0001 28:0.0001 29:0.0001 30:0.0001 31:0.0001 
0.2308029509780646 0:0.0001 1:0.0001 2:0.0001 3:0.0001 4:0.0001 5:0.0001 6:0.0001 7:0.0001 8:0.0001 9:0.0001 10:0.0001 11:0.0001 12:0.0001 13:0.0001 14:0.0001 15:0.0001 16:0.0001 17:0.0001 18:0.0001 19:0.0001 20:0.0001 21:0.0001 22:0.0001 23:0.0001 24:0.0001 25:0.0001 26:0.0001 27:0.0001 28:0.0001 29:0.0001 30:0.0001 31:0.0001 
0.2308029509780646 0:0.0001 1:0.0001 2:0.0001 3:0.0001 4:0.0001 5:0.0001 6:0.0001 7:0.0001 8:0.0001 9:0.0001 10:0.0001 11:0.0001 12:0.0001 13:0.0001 14:0.0001 15:0.0001 16:0.0001 17:0.0001 18:0.0001 19:0.0001 20:0.0001 21:0.0001 22:0.0001 23:0.0001 24:0.0001 25:0.0001 26:0.0001 27:0.0001 28:0.0001 29:0.0001 30:0.0001 31:0.0001 
0.2308029509780646 0:0.0001 1:0.0001 2:0.0001 3:0.0001 4:0.0001 5:0.0001 6:0.0001 7:0.0001 8:0.0001 9:0.0001 10:0.0001 11:0.0001 12:0.0001 13:0.0001 14:0.0001 15:0.0001 16:0.0001 17:0.0001 18:0.0001 19:0.0001 20:0.0001 21:0.0001 22:0.0001 23:0.0001 24:0.0001 25:0.0001 26:0.0001 27:0.0001 28:0.0001 29:0.0001 30:0.0001 31:0.0001 
0.2308029509780646 0:0.0001 1:0.0001 2:0.0001 3:0.0001 4:0.0001 5:0.0001 6:0.0001 7:0.0001 8:0.0001 9:0.0001 10:0.0001 11:0.0001 12:0.0001 13:0.0001 14:0.0001 15:0.0001 16:0.0001 17:0.0001 18:0.0001 19:0.0001 20:0.0001 21:0.0001 22:0.0001 23:0.0001 24:0.0001 25:0.0001 26:0.0001 27:0.0001 28:0.0001 29:0.0001 30:0.0001 31:0.0001 
0.2308029509780646 0:0.0001 1:0.0001 2:0.0001 3:0.0001 4:0.0001 5:0.0001 6:0.0001 7:0.0001 8:0.0001 9:0.0001 10:0.0001 11:0.0001 12:0.0001 13:0.0001 14:0.0001 15:0.0001 16:0.0001 17:0.0001 18:0.0001 19:0.0001 20:0.0001 21:0.0001 22:0.0001 23:0.0001 24:0.0001 25:0.0001 26:0.0001 27:0.0001 28:0.0001 29:0.0001 30:0.0001 31:0.0001 
0.2308029509780646 0:0.0001 1:0.0001 2:0.0001 3:0.0001 4:0.0001 5:0.0001 6:0.0001 7:0.0001 8:0.0001 9:0.0001 10:0.0001 11:0.0001 12:0.0001 13:0.0001 14:0.0001 15:0.0001 16:0.0001 17:0.0001 18:0.0001 19:0.0001 20:0.0001 21:0.0001 22:0.0001 23:0.0001 24:0.0001 25:0.0001 26:0.0001 27:0.0001 28:0.0001 29:0.0001 30:0.0001 31:0.0001 
0.2308029509780646 0:0.0001 1:0.0001 2:0.0001 3:0.0001 4:0.0001 5:0.0001 6:0.0001 7:0.0001 8:0.0001 9:0.0001 10:0.0001 11:0.0001 12:0.0001 13:0.0001 14:0.0001 15:0.0001 16:0.0001 17:0.0001 18:0.0001 19:0.0001 20:0.0001 21:0.0001 22:0.0001 23:0.0001 24:0.0001 25:0.0001 26:0.0001 27:0.0001 28:0.0001 29:0.0001 30:0.0001 31:0.0001 
0.2308029509780646 0:0.0001 1:0.0001 2:0.0001 3:0.0001 4:0.0001 5:0.0001 6:0.0001 7:0.0001 8:0.0001 9:0.0001 10:0.0001 11:0.0001 12:0.0001 13:0.0001 14:0.0001 15:0.0001 16:0.0001 17:0.0001 18:0.0001 19:0.0001 20:0.0001 21:0.0001 22:0.0001 23:0.0001 24:0.0001 25:0.0001 26:0.0001 27:0.0001 28:0.0001 29:0.0001 30:0.0001 31:0.0001 
0.2308029509780646 0:0.0001 1:0.0001 2:0.0001 3:0.0001 4:0.0001 5:0.0001 6:0.0001 7:0.0001 8:0.0001 9:0.0001 10:0.0001 11:0.0001 12:0.0001 13:0.0001 14:0.0001 15:0.0001 16:0.0001 17:0.0001 18:0.0001 19:0.0001 20:0.0001 21:0.0001 22:0.0001 23:0.0001 24:0.0001 25:0.0001 26:0.0001 27:0.0001 28:0.0001 29:0.0001 30:0.0001 31:0.0001 
0.2308029509780646 0:0.0001 1:0.0001 2:0.0001 3:0.0001 4:0.0001 5:0.0001 6:0.0001 7:0.0001 8:0.0001 9:0.0001 10:0.0001 11:0.0001 12:0.0001 13:0.0001 14:0.0001 15:0.0001 16:0.0001 17:0.0001 18:0.0001 19:0.0001 20:0.0001 21:0.0001 22:0.0001 23:0.0001 24:0.0001 25:0.0001 26:0.0001 27:0.0001 28:0.0001 29:0.0001 30:0.0001 31:0.0001 
0.2308029509780646 0:0.0001 1:0.0001 2:0.0001 3:0.0001 4:0.0001 5:0.0001 6:0.0001 7:0.0001 8:0.0001 9:0.0001 10:0.0001 11:0.0001 12:0.0001 13:0.0001 14:0.0001 15:0.0001 16:0.0001 17:0.0001 18:0.0001 19:0.0001 20:0.0001 21:0.0001 22:0.0001 23:0.0001 24:0.0001 25:0.0001 26:0.0001 27:0.0001 28:0.0001 29:0.0001 30:0.0001 31:0.0001 
0.2308029509780646 0:0.0001 1:0.0001 2:0.0001 3:0.0001 4:0.0001 5:0.0001 6:0.0001 7:0.0001 8:0.0001 9:0.0001 10:0.0001 11:0.0001 12:0.0001 13:0.0001 14:0.0001 15:0.0001 16:0.0001 17:0.0001 18:0.0001 19:0.0001 20:0.0001 21:0.0001 22:0.0001 23:0.0001 24:0.0001 25:0.0001 26:0.0001 27:0.0001 28:0.0001 29:0.0001 30:0.0001 31:0.0001 
0.2308029509780646 0:0.0001 1:0.0001 2:0.0001 3:0.0001 4:0.0001 5:0.0001 6:0.0001 7:0.0001 8:0.0001 9:0.0001 10:0.0001 11:0.0001 12:0.0001 13:0.0001 14:0.0001 15:0.0001 16:0.0001 17:0.0001 18:0.0001 19:0.0001 20:0.0001 21:0.0001 22:0.0001 23:0.0001 24:0.0001 25:0.0001 26:0.0001 27:0.0001 28:0.0001 29:0.0001 30:0.0001 31:0.0001 
0.2308029509780646 0:0.0001 1:0.0001 2:0.0001 3:0.0001 4:0.0001 5:0.0001 6:0.0001 7:0.0001 8:0.0001 9:0.0001 10:0.0001 11:0.0001 12:0.0001 13:0.0001 14:0.0001 15:0.0001 16:0.0001 17:0.0001 18:0.0001 19:0.0001 20:0.0001 21:0.0001 22:0.0001 23:0.0001 24:0.0001 25:0.0001 26:0.0001 27:0.0001 28:0.0001 29:0.0001 30:0.0001 31:0.0001 
0.2308029509780646 0:0.0001 1:0.0001 2:0.0001 3:0.0001 4:0.0001 5:0.0001 6:0.0001 7:0.0001 8:0.0001 9:0.0001 10:0.0001 11:0.0001 12:0.0001 13:0.0001 14:0.0001 15:0.0001 16:0.0001 17:0.0001 18:0.0001 19:0.0001 20:0.0001 21:0.0001 22:0.0001 23:0.0001 24:0.0001 25:0.0001 26:0.0001 27:0.0001 28:0.0001 29:0.0001 30:0.0001 31:0.0001 
0.2308029509780646 0:0.0001 1:0.0001 2:0.0001 3:0.0001 4:0.0001 5:0.0001 6:0.0001 7:0.0001 8:0.0001 9:0.0001 10:0.0001 11:0.0001 12:0.0001 13:0.0001 14:0.0001 15:0.0001 16:0.0001 17:0.0001 18:0.0001 19:0.0001 20:0.0001 21:0.0001 22:0.0001 23:0.0001 24:0.0001 25:0.0001 26:0.0001 27:0.0001 28:0.0001 29:0.0001 30:0.0001 31:0.0001 
0.2308029509780646 0:0.0001 1:0.0001 2:0.0001 3:0.0001 4:0.0001 5:0.0001 6:0.0001 7:0.0001 8:0.0001 9:0.0001 10:0.0001 11:0.0001 12:0.0001 13:0.0001 14:0.0001 15:0.0001 16:0.0001 17:0.0001 18:0.0001 19:0.0001 20:0.0001 21:0.0001 22:0.0001 23:0.0001 24:0.0001 25:0.0001 26:0.0001 27:0.0001 28:0.0001 29:0.0001 30:0.0001 31:0.0001 
0.2308029509780646 0:0.0001 1:0.0001 2:0.0001 3:0.0001 4:0.0001 5:0.0001 6:0.0001 7:0.0001 8:0.0001 9:0.0001 10:0.0001 11:0.0001 12:0.0001 13:0.0001 14:0.0001 15:0.0001 16:0.0001 17:0.0001 18:0.0001 19:0.0001 20:0.0001 21:0.0001 22:0.0001 23:0.0001 24:0.0001 25:0.0001 26:0.0001 27:0.0001 28:0.0001 29:0.0001 30:0.0001 31:0.0001 
0.2308029509780646 0:0.0001 1:0.0001 2:0.0001 3:0.0001 4:0.0001 5:0.0001 6:0.0001 7:0.0001 8:0.0001 9:0.0001 10:0.0001 11:0.0001 12:0.0001 13:0.0001 14:0.0001 15:0.0001 16:0.0001 17:0.0001 18:0.0001 19:0.0001 20:0.0001 21:0.0001 22:0.0001 23:0.0001 24:0.0001 25:0.0001 26:0.0001 27:0.0001 28:0.0001 29:0.0001 30:0.0001 31:0.0001 
0.2308029509780646 0:0.0001 1:0.0001 2:0.0001 3:0.0001 4:0.0001 5:0.0001 6:0.0001 7:0.0001 8:0.0001 9:0.0001 10:0.0001 11:0.0001 12:0.0001 13:0.0001 14:0.0001 15:0.0001 16:0.0001 17:0.0001 18:0.0001 19:0.0001 20:0.0001 21:0.0001 22:0.0001 23:0.0001 24:0.0001 25:0.0001 26:0.0001 27:0.0001 28:0.0001 29:0.0001 30:0.0001 31:0.0001 
0.2308029509780646 0:0.0001 1:0.0001 2:0.0001 3:0.0001 4:0.0001 5:0.0001 6:0.0001 7:0.0001 8:0.0001 9:0.0001 10:0.0001 11:0.0001 12:0.0001 13:0.0001 14:0.0001 15:0.0001 16:0.0001 17:0.0001 18:0.0001 19:0.0001 20:0.0001 21:0.0001 22:0.0001 23:0.0001 24:0.0001 25:0.0001 26:0.0001 27:0.0001 28:0.0001 29:0.0001 30:0.0001 31:0.0001 
0.2308029509780646 0:0.0001 1:0.0001 2:0.0001 3:0.0001 4:0.0001 5:0.0001 6:0.0001 7:0.0001 8:0.0001 9:0.0001 10:0.0001 11:0.0001 12:0.0001 13:0.0001 14:0.0001 15:0.0001 16:0.0001 17:0.0001 18:0.0001 19:0.0001 20:0.0001 21:0.0001 22:0.0001 23:0.0001 24:0.0001 25:0.0001 26:0.0001 27:0.0001 28:0.0001 29:0.0001 30:0.0001 31:0.0001 
0.2308029509780646 0:0.0001 1:0.0001 2:0.0001 3:0.0001 4:0.0001 5:0.0001 6:0.0001 7:0.0001 8:0.0001 9:0.0001 10:0.0001 11:0.0001 12:0.0001 13:0.0001 14:0.0001 15:0.0001 16:0.0001 17:0.0001 18:0.0001 19:0.0001 20:0.0001 21:0.0001 22:0.0001 23:0.0001 24:0.0001 25:0.0001 26:0.0001 27:0.0001 28:0.0001 29:0.0001 30:0.0001 31:0.0001 
0.2308029509780646 0:0.0001 1:0.0001 2:0.0001 3:0.0001 4:0.0001 5:0.0001 6:0.0001 7:0.0001 8:0.0001 9:0.0001 10:0.0001 11:0.0001 12:0.0001 13:0.0001 14:0.0001 15:0.0001 16:0.0001 17:0.0001 18:0.0001 19:0.0001 20:0.0001 21:0.0001 22:0.0001 23:0.0001 24:0.0001 25:0.0001 26:0.0001 27:0.0001 28:0.0001 29:0.0001 30:0.0001 31:0.0001 
0.2308029509780646 0:0.0001 1:0.0001 2:0.0001 3:0.0001 4:0.0001 5:0.0001 6:0.0001 7:0.0001 8:0.0001 9:0.0001 10:0.0001 11:0.0001 12:0.0001 13:0.0001 14:0.0001 15:0.0001 16:0.0001 17:0.0001 18:0.0001 19:0.0001 20:0.0001 21:0.0001 22:0.0001 23:0.0001 24:0.0001 25:0.0001 26:0.0001 27:0.0001 28:0.0001 29:0.0001 30:0.0001 31:0.0001 
0.2308029509780646 0:0.0001 1:0.0001 2:0.0001 3:0.0001 4:0.0001 5:0.0001 6:0.0001 7:0.0001 8:0.0001 9:0.0001 10:0.0001 11:0.0001 12:0.0001 13:0.0001 14:0.0001 15:0.0001 16:0.0001 17:0.0001 18:0.0001 19:0.0001 20:0.0001 21:0.0001 22:0.0001 23:0.0001 24:0.0001 25:0.0001 26:0.0001 27:0.0001 28:0.0001 29:0.0001 30:0.0001 31:0.0001 
0.2308029509780646 0:0.0001 1:0.0001 2:0.0001 3:0.0001 4:0.0001 5:0.0001 6:0.0001 7:0.0001 8:0.0001 9:0.0001 10:0.0001 11:0.0001 12:0.0001 13:0.0001 14:0.0001 15:0.0001 16:0.0001 17:0.0001 18:0.0001 19:0.0001 20:0.0001 21:0.0001 22:0.0001 23:0.0001 24:0.0001 25:0.0001 26:0.0001 27:0.0001 28:0.0001 29:0.0001 30:0.0001 31:0.0001 
0.2308029509780646 0:0.0001 1:0.0001 2:0.0001 3:0.0001 4:0.0001 5:0.0001 6:0.0001 7:0.0001 8:0.0001 9:0.0001 10:0.0001 11:0.0001 12:0.0001 13:0.0001 14:0.0001 15:0.0001 16:0.0001 17:0.0001 18:0.0001 19:0.0001 20:0.0001 21:0.0001 22:0.0001 23:0.0001 24:0.0001 25:0.0001 26:0.0001 27:0.0001 28:0.0001 29:0.0001 30:0.0001 31:0.0001 
0.2308029509780646 0:0.0001 1:0.0001 2:0.0001 3:0.0001 4:0.0001 5:0.0001 6:0.0001 7:0.0001 8:0.0001 9:0.0001 10:0.0001 11:0.0001 12:0.0001 13:0.0001 14:0.0001 15:0.0001 16:0.0001 17:0.0001 18:0.0001 19:0.0001 20:0.0001 21:0.0001 22:0.0001 23:0.0001 24:0.0001 25:0.0001 26:0.0001 27:0.0001 28:0.0001 29:0.0001 30:0.0001 31:0.0001 
0.2308029509780646 0:0.0001 1:0.0001 2:0.0001 3:0.0001 4:0.0001 5:0.0001 6:0.0001 7:0.0001 8:0.0001 9:0.0001 10:0.0001 11:0.0001 12:0.0001 13:0.0001 14:0.0001 15:0.0001 16:0.0001 17:0.0001 18:0.0001 19:0.0001 20:0.0001 21:0.0001 22:0.0001 23:0.0001 24:0.0001 25:0.0001 26:0.0001 27:0.0001 28:0.0001 29:0.0001 30:0.0001 31:0.0001 
0.2308029509780646 0:0.0001 1:0.0001 2:0.0001 3:0.0001 4:0.0001 5:0.0001 6:0.0001 7:0.0001 8:0.0001 9:0.0001 10:0.0001 11:0.0001 12:0.0001 13:0.0001 14:0.0001 15:0.0001 16:0.0001 17:0.0001 18:0.0001 19:0.0001 20:0.0001 21:0.0001 22:0.0001 23:0.0001 24:0.0001 25:0.0001 26:0.0001 27:0.0001 28:0.0001 29:0.0001 30:0.0001 31:0.0001 
0.2308029509780646 0:0.0001 1:0.0001 2:0.0001 3:0.0001 4:0.0001 5:0.0001 6:0.0001 7:0.0001 8:0.0001 9:0.0001 10:0.0001 11:0.0001 12:0.0001 13:0.0001 14:0.0001 15:0.0001 16:0.0001 17:0.0001 18:0.0001 19:0.0001 20:0.0001 21:0.0001 22:0.0001 23:0.0001 24:0.0001 25:0.0001 26:0.0001 27:0.0001 28:0.0001 29:0.0001 30:0.0001 31:0.0001 
0.2308029509780646 0:0.0001 1:0.0001 2:0.0001 3:0.0001 4:0.0001 5:0.0001 6:0.0001 7:0.0001 8:0.0001 9:0.0001 10:0.0001 11:0.0001 12:0.0001 13:0.0001 14:0.0001 15:0.0001 16:0.0001 17:0.0001 18:0.0001 19:0.0001 20:0.0001 21:0.0001 22:0.0001 23:0.0001 24:0.0001 25:0.0001 26:0.0001 27:0.0001 28:0.0001 29:0.0001 30:0.0001 31:0.0001 
0.2308029509780646 0:0.0001 1:0.0001 2:0.0001 3:0.0001 4:0.0001 5:0.0001 6:0.0001 7:0.0001 8:0.0001 9:0.0001 10:0.0001 11:0.0001 12:0.0001 13:0.0001 14:0.0001 15:0.0001 16:0.0001 17:0.0001 18:0.0001 19:0.0001 20:0.0001 21:0.0001 22:0.0001 23:0.0001 24:0.0001 25:0.0001 26:0.0001 27:0.0001 28:0.0001 29:0.0001 30:0.0001 31:0.0001 
0.2308029509780646 0:0.0001 1:0.0001 2:0.0001 3:0.0001 4:0.0001 5:0.0001 6:0.0001 7:0.0001 8:0.0001 9:0.0001 10:0.0001 11:0.0001 12:0.0001 13:0.0001 14:0.0001 15:0.0001 16:0.0001 17:0.0001 18:0.0001 19:0.0001 20:0.0001 21:0.0001 22:0.0001 23:0.0001 24:0.0001 25:0.0001 26:0.0001 27:0.0001 28:0.0001 29:0.0001 30:0.0001 31:0.0001 
0.2308029509780646 0:0.0001 1:0.0001 2:0.0001 3:0.0001 4:0.0001 5:0.0001 6:0.0001 7:0.0001 8:0.0001 9:0.0001 10:0.0001 11:0.0001 12:0.0001 13:0.0001 14:0.0001 15:0.0001 16:0.0001 17:0.0001 18:0.0001 19:0.0001 20:0.0001 21:0.0001 22:0.0001 23:0.0001 24:0.0001 25:0.0001 26:0.0001 27:0.0001 28:0.0001 29:0.0001 30:0.0001 31:0.0001 
0.2308029509780646 0:0.0001 1:0.0001 2:0.0001 3:0.0001 4:0.0001 5:0.0001 6:0.0001 7:0.0001 8:0.0001 9:0.0001 10:0.0001 11:0.0001 12:0.0001 13:0.0001 14:0.0001 15:0.0001 16:0.0001 17:0.0001 18:0.0001 19:0.0001 20:0.0001 21:0.0001 22:0.0001 23:0.0001 24:0.0001 25:0.0001 26:0.0001 27:0.0001 28:0.0001 29:0.0001 30:0.0001 31:0.0001 
-0.2308029509780646 0:0.50567389 1:0.52828424 2:0.59708874 3:0.51191806 4:0.58575981 5:0.5778056 6:0.5762114 7:0.50274271 8:0.5644302 9:0.52716524 10:0.51229443 11:0.55544826 12:0.53371239 13:0.53677711 14:0.61752341 15:0.5300775 16:0.50398779 17:0.56196279 18:0.57469266 19:0.53417076 20:0.5346337 21:0.58383657 22:0.55311007 23:0.59893674 24:0.59109181 25:0.58146725 26:0.58189771 27:0.59912728 28:0.54133734 29:0.60697708 30:0.61916453 31:0.53788922 
-0.2308029509780646 0:0.60771195 1:0.61791284 2:0.54823804 3:0.55913737 4:0.57434161 5:0.56853766 6:0.6012158 7:0.54670927 8:0.53242825 9:0.56032271 10:0.57536897 11:0.57036837 12:0.52107063 13:0.54581286 14:0.6175576 15:0.51222506 16:0.51358553 17:0.56211894 18:0.5536117 19:0.56114549 20:0.51752545 21:0.59473903 22:0.52989755 23:0.59182731 24:0.59733566 25:0.53812722 26:0.53914661 27:0.54744753 28:0.50129337 29:0.59461913 30:0.5012546 31:0.53071244 
-0.2308029509780646 0:0.52098423 1:0.52121744 2:0.50914676 3:0.52726912 4:0.59675278 5:0.53930979 6:0.5533077 7:0.58803595 8:0.60110189 9:0.61536361 10:0.51799133 11:0.51900701 12:0.58467917 13:0.52482769 14:0.58435248 15:0.51565167 16:0.56015426 17:0.58947 18:0.55437948 19:0.50305758 20:0.59486292 21:0.57293049 22:0.51167227 23:0.58645811 24:0.59900297 25:0.57968717 26:0.61888598 27:0.59700471 28:0.58311873 29:0.51624402 30:0.54571517 31:0.54659331 
-0.2308029509780646 0:0.55718698 1:0.54047736 2:0.5569079 3:0.52481561 4:0.53976356 5:0.51685251 6:0.52048943 7:0.56401628 8:0.61357201 9:0.60225418 10:0.60104048 11:0.58479536 12:0.51857606 13:0.59810996 14:0.56120292 15:0.56721557 16:0.55423114 17:0.51028654 18:0.58258738 19:0.60440308 20:0.61577877 21:0.51015666 22:0.53192238 23:0.58022455 24:0.56901627 25:0.58861648 26:0.53343292 27:0.52430013 28:0.61367974 29:0.58960549 30:0.55008875 31:0.56149747 
-0.2308029509780646 0:0.50183668 1:0.57490672 2:0.56557133 3:0.52622666 4:0.50037268 5:0.57159302 6:0.58902533 7:0.5170667 8:0.62108595 9:0.60300051 10:0.53787314 11:0.50109263 12:0.58113936 13:0.51551071 14:0.50388307 15:0.56107207 16:0.52914609 17:0.59645727 18:0.55671555 19:0.51702242 20:0.52301673 21:0.60017255 22:0.56924761 23:0.53396308 24:0.53983329 25:0.58255641 26:0.55938078 27:0.59453101 28:0.52906204 29:0.53411507 30:0.54507883 31:0.5411105 
-0.2308029509780646 0:0.55657482 1:0.59655301 2:0.56766855 3:0.53890871 4:0.53020614 5:0.52384694 6:0.6190496 7:0.61573969 8:0.62445696 9:0.57766192 10:0.5605615 11:0.55002479 12:0.5615556 13:0.50248143 14:0.5486253 15:0.54031979 16:0.51004015 17:0.53933051 18:0.52845615 19:0.50855106 20:0.55754862 21:0.50897072 22:0.51430266 23:0.62379766 24:0.58933287 25:0.54737756 26:0.5415819 27:0.60100967 28:0.56973224 29:0.56808255 30:0.53442798 31:0.51068116 
-0.2308029509780646 0:0.5609673 1:0.59838493 2:0.5751976 3:0.5128579 4:0.56548752 5:0.51602643 6:0.60797761 7:0.52884101 8:0.58057852 9:0.60357302 10:0.61567898 11:0.54211851 12:0.52514452 13:0.57819617 14:0.51499344 15:0.54618731 16:0.5370824 17:0.56318388 18:0.56959824 19:0.52295392 20:0.56050175 21:0.53536878 22:0.58078639 23:0.53625349 24:0.51834696 25:0.53716488 26:0.61469217 27:0.56418079 28:0.59557963 29:0.60598569 30:0.62345539 31:0.53972847 
-0.2308029509780646 0:0.60973075 1:0.53756347 2:0.6087439 3:0.59128755 4:0.51199045 5:0.53666593 6:0.60400389 7:0.58451817 8:0.5280053 9:0.61933308 10:0.59433977 11:0.51083781 12:0.59809121 13:0.61199518 14:0.5212757 15:0.55273409 16:0.50984764 17:0.53399541 18:0.56543154 19:0.5529662 20:0.54080372 21:0.54375314 22:0.51591126 23:0.55292887 24:0.50962288 25:0.55798281 26:0.55450455 27:0.54842491 28:0.5583687 29:0.50911549 30:0.53903656 31:0.53537284 
-0.2308029509780646 0:0.53265297 1:0.62359931 2:0.618929 3:0.61727607 4:0.56628074 5:0.52806684 6:0.5218594 7:0.50142574 8:0.57167952 9:0.51207979 10:0.57516464 11:0.51055297 12:0.59347919 13:0.55989525 14:0.55676266 15:0.53050858 16:0.62072318 17:0.51086968 18:0.58698217 19:0.59814548 20:0.50154611 21:0.5717737 22:0.52731705 23:0.55187695 24:0.61796272 25:0.52928107 26:0.52634253 27:0.55049383 28:0.50960217 29:0.58926151 30:0.54230554 31:0.50849497 
-0.2308029509780646 0:0.54797991 1:0.57895655 2:0.56615066 3:0.6108461 4:0.52459694 5:0.52503248 6:0.53723424 7:0.56764087 8:0.61356503 9:0.5313064 10:0.58415751 11:0.52317563 12:0.51501828 13:0.5694929 14:0.61312694 15:0.51813931 16:0.58614208 17:0.53832693 18:0.51242588 19:0.60386595 20:0.60908383 21:0.51878129 22:0.56211282 23:0.51657078 24:0.54870159 25:0.58784669 26:0.59345417 27:0.59433414 28:0.51711847 29:0.53064892 30:0.62240899 31:0.54101704 
-0.2308029509780646 0:0.6212164 1:0.55259237 2:0.50025747 3:0.56556669 4:0.5776101 5:0.56908416 6:0.59599318 7:0.51374829 8:0.51206996 9:0.53932605 10:0.56232886 11:0.51356222 12:0.56666437 13:0.54703694 14:0.59132608 15:0.61133731 16:0.52941532 17:0.58182358 18:0.57739623 19:0.56647642 20:0.60151299 21:0.62049844 22:0.53636088 23:0.58657677 24:0.55898755 25:0.56933423 26:0.58770443 27:0.53932213 28:0.54823547 29:0.55070382 30:0.52234656 31:0.51966568 
-0.2308029509780646 0:0.59279751 1:0.5212462 2:0.57504752 3:0.57952091 4:0.52664238 5:0.50589829 6:0.51205454 7:0.62312178 8:0.52748978 9:0.59814739 10:0.58994517 11:0.58081277 12:0.53884828 13:0.53234026 14:0.54027467 15:0.52658767 16:0.60605245 17:0.62410994 18:0.59894821 19:0.57977425 20:0.53201314 21:0.56275703 22:0.55726162 23:0.59673082 24:0.50212115 25:0.5152983 26:0.5883792 27:0.52712031 28:0.54942451 29:0.5208978 30:0.62103776 31:0.58450586 
-0.2308029509780646 0:0.50274047 1:0.52737517 2:0.57773794 3:0.59742816 4:0.52518527 5:0.61588163 6:0.56523365 7:0.55216497 8:0.54437247 9:0.54356668 10:0.59502799 11:0.59630651 12:0.53436603 13:0.58181051 14:0.51326086 15:0.54813077 16:0.56267087 17:0.53461406 18:0.59363553 19:0.53857238 20:0.52418564 21:0.56729369 22:0.57702072 23:0.60603238 24:0.56028587 25:0.50252306 26:0.51497743 27:0.59990724 28:0.53281525 29:0.53240113 30:0.61288053 31:0.55048583 
-0.2308029509780646 0:0.59047252 1:0.50652467 2:0.50851742 3:0.50950883 4:0.54800374 5:0.62438789 6:0.53334118 7:0.57651526 8:0.5040867 9:0.57680822 10:0.52795769 11:0.58083145 12:0.54431739 13:0.54102288 14:0.50826901 15:0.53477603 16:0.52165943 17:0.58772224 18:0.57837384 19:0.57767068 20:0.58876337 21:0.600266 22:0.54143134 23:0.61869421 24:0.56169517 25:0.55103083 26:0.58690695 27:0.50471321 28:0.52133707 29:0.52683433 30:0.53182486 31:0.61450479 
-0.2308029509780646 0:0.51568863 1:0.6239444 2:0.57900337 3:0.54142728 4:0.50636855 5:0.51776343 6:0.53420093 7:0.61626701 8:0.54906812 9:0.50364312 10:0.59567529 11:0.50335936 12:0.55079134 13:0.57225801 14:0.5830001 15:0.59472481 16:0.51921714 17:0.53991241 18:0.55818544 19:0.55673212 20:0.5118703 21:0.54624669 22:0.54689959 23:0.56678935 24:0.57068224 25:0.56720381 26:0.5970847 27:0.61912616 28:0.52531533 29:0.52163146 30:0.54337344 31:0.58260221 
-0.2308029509780646 0:0.5135419 1:0.55882665 2:0.50972163 3:0.60230572 4:0.551382 5:0.57380298 6:0.54365654 7:0.59591264 8:0.50591663 9:0.56983938 10:0.56081676 11:0.52283918 12:0.58101232 13:0.5390912 14:0.52596236 15:0.58923943 16:0.53346403 17:0.56464737 18:0.57613664 19:0.56180124 20:0.57194036 21:0.5294822 22:0.56018508 23:0.61154812 24:0.53763691 25:0.61841403 26:0.51484307 27:0.51708118 28:0.5381107 29:0.53834629 30:0.59614427 31:0.55436685 
-0.2308029509780646 0:0.60291895 1:0.5304621 2:0.50602228 3:0.54404281 4:0.5495887 5:0.55954762 6:0.6218411 7:0.56031687 8:0.61712191 9:0.59004733 10:0.52455088 11:0.50472283 12:0.60550094 13:0.50595931 14:0.56039421 15:0.5473903 16:0.5260411 17:0.55725409 18:0.58703813 19:0.51590366 20:0.5466809 21:0.5453721 22:0.51353839 23:0.59402521 24:0.59141995 25:0.51075274 26:0.57674476 27:0.51541773 28:0.60889528 29:0.53005761 30:0.53013925 31:0.61404143 
-0.2308029509780646 0:0.53492124 1:0.50177942 2:0.58064222 3:0.52509847 4:0.52500333 5:0.53688305 6:0.52770417 7:0.50794011 8:0.50243056 9:0.5935356 10:0.55081936 11:0.50922375 12:0.62030307 13:0.53480944 14:0.53021467 15:0.58122342 16:0.60368412 17:0.52538059 18:0.50700473 19:0.59064388 20:0.57432377 21:0.50526407 22:0.53062219 23:0.54944671 24:0.52659604 25:0.51893125 26:0.52818601 27:0.50407516 28:0.62090944 29:0.51033917 30:0.54533931 31:0.55133105 
-0.2308029509780646 0:0.56426123 1:0.52339759 2:0.57797483 3:0.5050181 4:0.52274005 5:0.6134592 6:0.58829783 7:0.52784896 8:0.55683077 9:0.52084614 10:0.51644767 11:0.51286836 12:0.51237008 13:0.56801711 14:0.5765994 15:0.61276834 16:0.60062527 17:0.52738912 18:0.54503737 19:0.5125349 20:0.58939195 21:0.57419968 22:0.51871603 23:0.58722998 24:0.51487353 25:0.5568579 26:0.61021636 27:0.62029408 28:0.50968907 29:0.50522946 30:0.58365507 31:0.53142469 
-0.2308029509780646 0:0.55222519 1:0.57272453 2:0.53524863 3:0.50054667 4:0.53551216 5:0.59799742 6:0.59473993 7:0.56476958 8:0.58438806 9:0.611391 10:0.50421871 11:0.57638449 12:0.54806749 13:0.55469723 14:0.58305425 15:0.55292073 16:0.5209954 17:0.54115717 18:0.56643597 19:0.60399727 20:0.53888631 21:0.59044306 22:0.58806301 23:0.5470455 24:0.61642641 25:0.5076724 26:0.52390453 27:0.5938902 28:0.50857484 29:0.56472388 30:0.518602 31:0.5476108 
-0.2308029509780646 0:0.55965647 1:0.57506045 2:0.59856063 3:0.55666812 4:0.50618689 5:0.52778262 6:0.525441 7:0.55428484 8:0.57238501 9:0.50994487 10:0.50143129 11:0.56010491 12:0.59977377 13:0.53846092 14:0.51122766 15:0.58997248 16:0.57376898 17:0.54100868 18:0.54714157 19:0.59309662 20:0.56466984 21:0.60737534 22:0.53916324 23:0.57444393 24:0.58044142 25:0.60272013 26:0.55783411 27:0.59000499 28:0.52191037 29:0.52353517 30:0.54492672 31:0.62001919 
-0.2308029509780646 0:0.56630797 1:0.53295331 2:0.56386645 3:0.61069353 4:0.50588268 5:0.55328546 6:0.55429155 7:0.6217138 8:0.58646069 9:0.50535818 10:0.58752896 11:0.54643778 12:0.50970134 13:0.50569774 14:0.5349963 15:0.57244953 16:0.58237506 17:0.61146885 18:0.51298853 19:0.53454367 20:0.55681483 21:0.56483607 22:0.50199169 23:0.55970611 24:0.5601753 25:0.56752882 26:0.50137776 27:0.53225838 28:0.55890135 29:0.56189129 30:0.53144714 31:0.54935253 
-0.2308029509780646 0:0.55511614 1:0.58872563 2:0.55920751 3:0.53651454 4:0.53276352 5:0.58973488 6:0.5475991 7:0.5501491 8:0.55981691 9:0.50973891 10:0.55545665 11:0.54995329 12:0.52932928 13:0.58266926 14:0.52718225 15:0.61442303 16:0.59524197 17:0.60785326 18:0.52648387 19:0.55628867 20:0.60570034 21:0.57175933 22:0.50026355 23:0.51585353 24:0.53525619 25:0.61198996 26:0.52912263 27:0.55882264 28:0.61467653 29:0.50221041 30:0.55159166 31:0.51344009 
-0.2308029509780646 0:0.50692991 1:0.56057429 2:0.50351161 3:0.61981539 4:0.62172774 5:0.62294358 6:0.5350109 7:0.57079358 8:0.52349615 9:0.56026926 10:0.51480373 11:0.56871743 12:0.55430622 13:0.5884648 14:0.51796551 15:0.53087232 16:0.57428603 17:0.5508847 18:0.52372307 19:0.51253692 20:0.57963221 21:0.51901236 22:0.58799492 23:0.56294662 24:0.50051664 25:0.50310762 26:0.62491146 27:0.53868946 28:0.53949474 29:0.55252146 30:0.50855494 31:0.58852276 
-0.2308029509780646 0:0.60508299 1:0.53518058 2:0.55998516 3:0.55750865 4:0.578051 5:0.53660943 6:0.60156797 7:0.5435558 8:0.50169149 9:0.55772163 10:0.53115916 11:0.57444559 12:0.56618826 13:0.51252768 14:0.56334187 15:0.52261029 16:0.61603135 17:0.5489035 18:0.62453131 19:0.60818984 20:0.59934407 21:0.50394028 22:0.55601902 23:0.52709308 24:0.53864427 25:0.60171766 26:0.51836409 27:0.53922983 28:0.57503821 29:0.5910721 30:0.55247581 31:0.57537723 
-0.2308029509780646 0:0.51006817 1:0.52811547 2:0.50188951 3:0.50092309 4:0.54589289 5:0.50774844 6:0.53850704 7:0.59222751 8:0.50768886 9:0.57975816 10:0.50136281 11:0.57305789 12:0.60393696 13:0.57926571 14:0.52256674 15:0.54252263 16:0.5275023 17:0.61640124 18:0.58912404 19:0.61484628 20:0.56063379 21:0.57262143 22:0.57800505 23:0.62429889 24:0.53484734 25:0.54051334 26:0.60551691 27:0.50734197 28:0.57458414 29:0.60466189 30:0.53199776 31:0.60792746 
-0.2308029509780646 0:0.50418341 1:0.5192193 2:0.55863683 3:0.59513215 4:0.53984318 5:0.53558221 6:0.55589205 7:0.56549738 8:0.5076475 9:0.61563268 10:0.54093718 11:0.58890587 12:0.51607848 13:0.52915226 14:0.50937378 15:0.625157 16:0.61503096 17:0.52296435 18:0.59673504 19:0.54737199 20:0.62049376 21:0.55908069 22:0.57868665 23:0.54779595 24:0.52250118 25:0.60118473 26:0.52581716 27:0.62471068 28:0.56982088 29:0.54714471 30:0.58631426 31:0.52729124 
-0.2308029509780646 0:0.61798311 1:0.54085406 2:0.51888957 3:0.60875477 4:0.56338311 5:0.51344128 6:0.54556247 7:0.53220251 8:0.59294809 9:0.57703349 10:0.51956529 11:0.55285885 12:0.60759333 13:0.59528419 14:0.50342997 15:0.62117514 16:0.539074 17:0.54343003 18:0.55926912 19:0.53071374 20:0.60186876 21:0.55503536 22:0.59405015 23:0.53370575 24:0.50190037 25:0.58218039 26:0.5049503 27:0.58558409 28:0.58215198 29:0.56986576 30:0.60708041 31:0.57859215 
-0.2308029509780646 0:0.55400632 1:0.59350977 2:0.5491509 3:0.50600633 4:0.62439628 5:0.56689222 6:0.57456853 7:0.50378234 8:0.57347443 9:0.5334296 10:0.54116088 11:0.5939993 12:0.50926305 13:0.52249431 14:0.59872227 15:0.569154 16:0.60001268 17:0.57736261 18:0.57863564 19:0.50914213 20:0.57318612 21:0.52554098 22:0.55232077 23:0.54933809 24:0.60236985 25:0.52288379 26:0.59806822 27:0.58514122 28:0.52494145 29:0.57372068 30:0.53969526 31:0.51190407 
-0.2308029509780646 0:0.54760713 1:0.57527165 2:0.55579838 3:0.61693551 4:0.57308722 5:0.60955731 6:0.53589308 7:0.55271078 8:0.50438645 9:0.5618363 10:0.5942853 11:0.53635098 12:0.57288067 13:0.55172928 14:0.61098207 15:0.51082617 16:0.55981143 17:0.58775354 18:0.61623014 19:0.60986243 20:0.5315466 21:0.51390732 22:0.51437191 23:0.5831533 24:0.60278448 25:0.52964557 26:0.60358302 27:0.52375256 28:0.5236675 29:0.52889387 30:0.50521082 31:0.55095852 
-0.2308029509780646 0:0.54802186 1:0.61751669 2:0.57207184 3:0.52895063 4:0.60792844 5:0.55860819 6:0.59565579 7:0.50198112 8:0.53903666 9:0.50513926 10:0.55378567 11:0.58246207 12:0.57655428 13:0.50984107 14:0.62482737 15:0.61076804 16:0.58848451 17:0.54880614 18:0.60637211 19:0.5284926 20:0.62197 21:0.62428652 22:0.51460094 23:0.51814698 24:0.51327076 25:0.53474499 26:0.50044215 27:0.6025272 28:0.61538901 29:0.51334422 30:0.53615176 31:0.52871017 
-0.2308029509780646 0:0.524007 1:0.53259207 2:0.5436771 3:0.52566477 4:0.60639743 5:0.60738605 6:0.56869841 7:0.52211818 8:0.61454262 9:0.52338063 10:0.5746818 11:0.5985737 12:0.55622066 13:0.541806 14:0.5465353 15:0.54352607 16:0.50919408 17:0.5378993 18:0.56058684 19:0.59434902 20:0.51747253 21:0.5049631 22:0.62118258 23:0.5064526 24:0.6206841 25:0.55135015 26:0.56444419 27:0.55752701 28:0.56058993 29:0.59558598 30:0.53058371 31:0.56394411 
-0.2308029509780646 0:0.58271883 1:0.58835569 2:0.58862271 3:0.50850104 4:0.55689195 5:0.53750113 6:0.59653902 7:0.59527976 8:0.51883421 9:0.51861303 10:0.55490379 11:0.54186502 12:0.5313001 13:0.53152531 14:0.52333234 15:0.5376317 16:0.55832025 17:0.56606138 18:0.59996414 19:0.59680779 20:0.60636204 21:0.60550978 22:0.5855771 23:0.59165177 24:0.57590284 25:0.58881726 26:0.55380876 27:0.50820799 28:0.50391654 29:0.51999077 30:0.56844449 31:0.5772607 
