svm_type c_svc
kernel_type rbf
gamma 0.142857
nr_class 8
total_sv 32
rho -8.51452e-05 -0.00106689 -0.00627151 -0.0358156 -0.0042986 0.011879 0.0244858 -0.000380844 -0.0042026 -0.0311605 -0.004554 0.0131571 0.0244037 -0.00155556 -0.0222121 -0.0314853 0.0180955 0.0240827 -0.00699362 -0.0154353 0.0140817 0.0304672 0.000756383 0.0354813 0.0609839 0.0231912 -0.0185119 -0.0227409
label 0 1 2 3 4 5 6 7
nr_sv 4 4 4 4 4 4 4 4
SV
1 1 1 0.1942633390086699 0 0 0 0:0.0001 1:0.0001 2:0.0001 3:0.0001 4:0.0001 5:0.0001 6:0.0001 7:0.0001 
1 1 1 1 0.2084175829241272 0 0 0:0.0001 1:0.0001 2:0.0001 3:0.0001 4:0.0001 5:0.0001 6:0.0001 7:0.0001 
1 1 1 1 1 0.5567784257030732 0.3145779039035242 0:0.0001 1:0.0001 2:0.0001 3:0.0001 4:0.0001 5:0.0001 6:0.0001 7:0.0001 
1 1 1 1 1 1 0.9918158993940027 0:0.0001 1:0.0001 2:0.0001 3:0.0001 4:0.0001 5:0.0001 6:0.0001 7:0.0001 
-1 1 1 1 0.9421652710625308 0.8447060984501772 0 0:0.12680259 1:0.12683128 2:0.1258522 3:0.12589063 4:0.12662571 5:0.12616017 6:0.12703806 7:0.12554733 
-1 1 1 1 1 1 0.4533666128709029 0:0.12685756 1:0.1270185 2:0.12529533 3:0.1252895 4:0.12700586 5:0.12682322 6:0.12666737 7:0.12612645 
-1 1 1 1 0 0 0 0:0.1265332 1:0.12612684 2:0.12641443 3:0.1251251 4:0.12599642 5:0.12666065 6:0.12633562 7:0.12690917 
-1 1 1 1 1 0 1 0:0.12598966 1:0.12530658 2:0.12527633 3:0.12597508 4:0.12563571 5:0.12645731 6:0.1260042 7:0.12691523 
-1 -1 1 1 1 1 1 0:0.25303952 1:0.26144217 2:0.26170043 3:0.26026439 4:0.26263056 5:0.26270112 6:0.25815941 7:0.25330476 
-1 -1 1 1 1 0 0 0:0.25959839 1:0.25415526 2:0.25322165 3:0.25512358 4:0.26453813 5:0.26185528 6:0.25576759 7:0.25264787 
-1 -1 1 1 1 1 0.6812524114400886 0:0.25351106 1:0.25668774 2:0.25321177 3:0.25374148 4:0.26181881 5:0.26423165 6:0.26345645 7:0.2654335 
-1 -1 1 1 1 0.3371657829600062 0 0:0.25411916 1:0.25527507 2:0.2509588 3:0.26088419 4:0.261445 5:0.25447298 6:0.26268092 7:0.25779679 
-1 -1 -1 1 1 1 0.09597199653627417 0:0.42336627 1:0.37902375 2:0.40082905 3:0.40591416 4:0.37897755 5:0.40612304 6:0.41979948 7:0.38744377 
-1 -1 -1 1 1 1 1 0:0.41051423 1:0.38928974 2:0.41381756 3:0.4254646 4:0.42109695 5:0.3894354 6:0.40936235 7:0.38598574 
-1 -1 -1 1 1 0.1836738743832451 0 0:0.37723804 1:0.42476919 2:0.41130204 3:0.40435836 4:0.38830141 5:0.37898178 6:0.38369451 7:0.38452879 
-1 -1 -1 1 1 1 1 0:0.4203079 1:0.42304459 2:0.40212495 3:0.39134174 4:0.42414834 5:0.39026155 6:0.39935501 7:0.38124517 
-1 -1 -1 -1 1 1 0 0:0.52590435 1:0.54667501 2:0.58143437 3:0.51224953 4:0.5058114 5:0.50854196 6:0.60326813 7:0.57409129 
-1 -1 -1 -1 1 1 0.9594747510505678 0:0.54050539 1:0.50355239 2:0.51702773 3:0.56781349 4:0.50701541 5:0.60246769 6:0.59289095 7:0.58183958 
-1 -1 -1 -1 1 1 1 0:0.61061775 1:0.61149718 2:0.59317324 3:0.53799388 4:0.57762034 5:0.58549383 6:0.51363956 7:0.58540368 
-0.1942633390086699 -1 -1 -1 1 1 1 0:0.6247736 1:0.60655749 2:0.51959102 3:0.60612914 4:0.5918222 5:0.60447393 6:0.5546846 7:0.60514518 
-0 -0 -1 -1 -1 1 1 0:0.86896176 1:0.80410975 2:0.72897232 3:0.71643509 4:0.73910075 5:0.72486844 6:0.69633714 7:0.81557703 
-1 -1 -1 -1 -1 1 1 0:0.67342639 1:0.70802714 2:0.74987107 3:0.68721548 4:0.6755846 5:0.66514366 6:0.75442939 7:0.83395061 
-1 -1 -1 -1 -1 1 1 0:0.63380672 1:0.69142695 2:0.79050844 3:0.63443312 4:0.78747077 5:0.71217647 6:0.73396589 7:0.80191564 
-0.2084175829241272 -0.9421652710625308 -1 -1 -1 1 1 0:0.70959952 1:0.76787206 2:0.66884905 3:0.64769575 4:0.69751267 5:0.81022138 6:0.69777693 7:0.85373964 
-0 -0 -0 -0.1836738743832451 -1 -1 1 0:1.1637255 1:1.1022048 2:1.0409152 3:0.94744 4:0.77847328 5:1.0460498 6:0.90444762 7:0.92943314 
-1 -1 -1 -1 -1 -1 1 0:0.98799375 1:0.91492559 2:0.7816305 3:1.0663084 4:0.83848134 5:0.93841059 6:0.96997123 7:1.0674163 
-0.3321564659937414 -0.557006616627144 -0.936291920654591 -1 -1 -1 1 0:0.95419116 1:0.8966336 2:0.89956171 3:0.77029994 4:1.0382054 5:1.1049311 6:1.0101627 7:1.0267946 
-0.2246219597093319 -0.2876994818230332 -0.4008738623054152 -1 -1 -1 1 0:1.0564201 1:0.84004625 2:1.09289 3:1.1208121 4:0.78359102 5:1.1569318 6:0.9558855 7:0.75474935 
-0.4237613189169821 -0.4533666128709029 -0.5819179498217896 -0.6530983131097394 -0.9594747510505678 -1 -1 0:0.9602054 1:1.1930518 2:1.0844915 3:1.2988853 4:1.2773589 5:1.1080116 6:1.1473884 7:1.4337616 
-0.8826324843805448 -1 -1 -1 -1 -1 -1 0:1.2877849 1:0.98603171 2:1.4862472 3:1.128083 4:0.89103057 5:1.1643633 6:0.92859914 7:1.140763 
-0 -0 -0 -0 -0 -1 -1 0:1.3762721 1:1.2137094 2:0.96113248 3:1.5327037 4:1.1825098 5:1.0904822 6:1.3621734 7:1.3787356 
-0 -0 -0.09933446161829901 -0.4428736834265348 -1 -1 -1 0:1.2974607 1:1.0227317 2:1.2545854 3:1.1149073 4:1.0207605 5:1.2684857 6:1.2599097 7:1.1100826 
