svm_type nu_svc
kernel_type rbf
gamma 0.142857
nr_class 8
total_sv 27
rho 0.00157921 -0.0034073 -0.00955266 -0.0189769 -0.00287526 0.0128281 0.0208697 -0.00616408 -0.013567 -0.0255344 -0.00393305 0.0136069 0.021581 -0.0155135 -0.0329131 -0.00317269 0.0164629 0.024228 -0.0485498 9.02619e-05 0.0242276 0.0300943 0.0971712 0.0717267 0.0632198 0.113469 0.110231 0.0488673
label 0 1 2 3 4 5 6 7
probA -1.61031 -1.61529 -1.61763 -1.62186 -1.60488 -1.62248 -1.62499 -1.6081 -1.61629 -1.66881 -1.6064 -1.62534 -1.63033 -1.64414 -1.59914 -1.60312 -1.6463 -1.63328 -1.56477 -1.60889 -1.6384 -1.63892 -1.71073 -1.71485 -1.64538 -1.77926 -1.67311 -1.90462
probB 0.000885459 0.00589344 0.0086873 0.0213643 -0.00363304 0.0135088 0.016278 0.000938758 0.00840736 0.0640328 -0.0015883 0.0169677 0.02215 0.0373086 0.0132021 -0.00714768 0.0378734 0.024924 0.0431136 -0.00804162 0.0374957 0.0251192 -0.0736466 0.0578463 0.029685 0.0727935 0.0205654 0.328119
nr_sv 2 2 4 4 4 4 4 3
SV
27.73585234737894 6.848976840860804 2.998883588482573 1.681829426328071 1.108211675414878 0.7762417298610663 0.6474297970233702 0:0.0001 1:0.0001 2:0.0001 3:0.0001 4:0.0001 5:0.0001 6:0.0001 7:0.0001 
27.73585234737894 6.848976840860804 2.998883588482573 1.681829426328071 1.108211675414878 0.7762417298610663 0.6474297970233702 0:0.0001 1:0.0001 2:0.0001 3:0.0001 4:0.0001 5:0.0001 6:0.0001 7:0.0001 
-27.73585234737894 25.61863660431077 6.111029570653521 2.629615845453242 1.486823070576239 0.9213772499793325 0.7196222716380467 0:0.12680259 1:0.12683128 2:0.1258522 3:0.12589063 4:0.12662571 5:0.12616017 6:0.12703806 7:0.12554733 
-27.73585234737894 25.61863660431077 6.111029570653521 2.629615845453242 1.486823070576239 0.9213772499793325 0.7196222716380467 0:0.12685756 1:0.1270185 2:0.12529533 3:0.1252895 4:0.12700586 5:0.12682322 6:0.12666737 7:0.12612645 
-0 -0 22.17972591330558 5.197992894794282 2.264430429250282 1.172876678470071 0.8367301004004055 0:0.25303952 1:0.26144217 2:0.26170043 3:0.26026439 4:0.26263056 5:0.26270112 6:0.25815941 7:0.25330476 
-6.848976840860804 -25.61863660431077 0 0 0 0 0 0:0.25959839 1:0.25415526 2:0.25322165 3:0.25512358 4:0.26453813 5:0.26185528 6:0.25576759 7:0.25264787 
-0 -0 22.17972591330558 5.197992894794282 2.264430429250282 1.172876678470071 0.8367301004004055 0:0.25351106 1:0.25668774 2:0.25321177 3:0.25374148 4:0.26181881 5:0.26423165 6:0.26345645 7:0.2654335 
-6.848976840860804 -25.61863660431077 0 0 0 0 0 0:0.25411916 1:0.25527507 2:0.2509588 3:0.26088419 4:0.261445 5:0.25447298 6:0.26268092 7:0.25779679 
-2.998883588482573 -6.111029570653521 -22.17972591330558 18.58904875698348 0 0 0 0:0.42336627 1:0.37902375 2:0.40082905 3:0.40591416 4:0.37897755 5:0.40612304 6:0.41979948 7:0.38744377 
-0 -0 -0 18.58904875698348 4.398964446182239 1.685946440194363 1.050035697709821 0:0.41051423 1:0.38928974 2:0.41381756 3:0.4254646 4:0.42109695 5:0.3894354 6:0.40936235 7:0.38598574 
-2.998883588482573 -6.111029570653521 -22.17972591330558 0 0 0 0 0:0.37723804 1:0.42476919 2:0.41130204 3:0.40435836 4:0.38830141 5:0.37898178 6:0.38369451 7:0.38452879 
-0 -0 -0 0 4.398964446182239 1.685946440194363 1.050035697709821 0:0.4203079 1:0.42304459 2:0.40212495 3:0.39134174 4:0.42414834 5:0.39026155 6:0.39935501 7:0.38124517 
-1.681829426328071 -2.629615845453242 -5.197992894794282 -18.58904875698348 0 0 0 0:0.52590435 1:0.54667501 2:0.58143437 3:0.51224953 4:0.5058114 5:0.50854196 6:0.60326813 7:0.57409129 
-1.681829426328071 -2.629615845453242 -5.197992894794282 -18.58904875698348 0 0 0 0:0.54050539 1:0.50355239 2:0.51702773 3:0.56781349 4:0.50701541 5:0.60246769 6:0.59289095 7:0.58183958 
-0 -0 -0 -0 17.85367832791959 3.201900654975043 1.544511588595446 0:0.61061775 1:0.61149718 2:0.59317324 3:0.53799388 4:0.57762034 5:0.58549383 6:0.51363956 7:0.58540368 
-0 -0 -0 -0 17.85367832791959 3.201900654975043 1.544511588595446 0:0.6247736 1:0.60655749 2:0.51959102 3:0.60612914 4:0.5918222 5:0.60447393 6:0.5546846 7:0.60514518 
-0 -0 -0 -0 -0 8.936403293815301 2.66612751917472 0:0.86896176 1:0.80410975 2:0.72897232 3:0.71643509 4:0.73910075 5:0.72486844 6:0.69633714 7:0.81557703 
-1.108211675414878 -1.486823070576239 -2.264430429250282 -4.398964446182239 -17.85367832791959 0 0 0:0.67342639 1:0.70802714 2:0.74987107 3:0.68721548 4:0.6755846 5:0.66514366 6:0.75442939 7:0.83395061 
-1.108211675414878 -1.486823070576239 -2.264430429250282 -4.398964446182239 -6.545971874122857 0 0.5147497279544039 0:0.63380672 1:0.69142695 2:0.79050844 3:0.63443312 4:0.78747077 5:0.71217647 6:0.73396589 7:0.80191564 
-0 -0 -0 -0 -11.30770645379673 8.936403293815301 2.151377791220316 0:0.70959952 1:0.76787206 2:0.66884905 3:0.64769575 4:0.69751267 5:0.81022138 6:0.69777693 7:0.85373964 
-0 -0 -0 -0 -0 -0.2132941593726538 12.3131398236633 0:1.1637255 1:1.1022048 2:1.0409152 3:0.94744 4:0.77847328 5:1.0460498 6:0.90444762 7:0.92943314 
-0.7762417298610663 -0.9213772499793325 -1.172876678470071 -1.685946440194363 -3.201900654975043 -8.936403293815301 0 0:0.98799375 1:0.91492559 2:0.7816305 3:1.0663084 4:0.83848134 5:0.93841059 6:0.96997123 7:1.0674163 
-0.4687793702413644 -0.6024450043232895 -0.8304120024027484 -1.220159014901902 -2.557625293817441 -8.723109134442648 2.202195679292223 0:0.95419116 1:0.8966336 2:0.89956171 3:0.77029994 4:1.0382054 5:1.1049311 6:1.0101627 7:1.0267946 
-0.3074623596197019 -0.3189322456560429 -0.3424646760673229 -0.4657874252924609 -0.6442753611576021 -0 10.11094414437108 0:1.0564201 1:0.84004625 2:1.09289 3:1.1208121 4:0.78359102 5:1.1569318 6:0.9558855 7:0.75474935 
-0.5154776838223514 -0.5343439528611524 -0.5790349210621836 -0.664709088218264 -0.9625598596354898 -1.799902969805369 -0.8953031634982894 0:0.9602054 1:1.1930518 2:1.0844915 3:1.2988853 4:1.2773589 5:1.1080116 6:1.1473884 7:1.4337616 
-0.6474297970233702 -0.7196222716380467 -0.8367301004004055 -1.050035697709821 -1.544511588595446 -2.66612751917472 -12.3131398236633 0:1.2877849 1:0.98603171 2:1.4862472 3:1.128083 4:0.89103057 5:1.1643633 6:0.92859914 7:1.140763 
-0.1319521132010188 -0.1852783187768944 -0.2576951793382219 -0.3853266094915574 -0.5819517289599559 -0.8662245493693512 -11.41783666016501 0:1.2974607 1:1.0227317 2:1.2545854 3:1.1149073 4:1.0207605 5:1.2684857 6:1.2599097 7:1.1100826 
