svm_type c_svc
kernel_type polynomial
degree 3
gamma 0.142857
coef0 0
nr_class 8
total_sv 31
rho -1.21241e-05 -0.00089384 -0.01287 -0.111036 -0.525321 -1 -1 -0.000879899 -0.0128418 -0.110879 -0.525014 -1.00449 -1.00258 -0.0118432 -0.108871 -0.521839 -1.03937 -1.02207 -0.0930352 -0.500692 -1.15637 -1.08982 -0.389177 -1.44899 -1.29581 -2.06691 -1.6234 -3.16879
label 0 1 2 3 4 5 6 7
probA 1.60946 1.61104 1.62542 1.7268 1.86918 -1.63464 -1.48347 1.61068 1.57259 1.80241 0.323898 -1.635 -1.48344 1.61825 1.32858 0.621449 -1.68376 -1.48328 1.49329 1.11244 -1.66219 -1.4816 1.53972 -2.28536 -1.4655 -3.11034 -1.55426 -1.92187
probB 2.42937e-06 -0.000177789 -0.000169919 0.00574315 -0.0270145 0.0382277 -0.0796674 0.000148969 -0.000301977 -0.0211225 -0.0280108 0.0386817 -0.0796108 -0.000284914 -0.00963974 0.0239942 0.0936036 -0.0792036 -0.00954105 0.0420388 0.0668459 -0.0761105 0.0344413 0.054005 -0.0520501 0.183965 -0.0265823 0.449627
nr_sv 4 4 4 4 4 4 4 3
SV
1 1 1 1 1 0 0 0:0.0001 1:0.0001 2:0.0001 3:0.0001 4:0.0001 5:0.0001 6:0.0001 7:0.0001 
1 1 1 1 1 0 0 0:0.0001 1:0.0001 2:0.0001 3:0.0001 4:0.0001 5:0.0001 6:0.0001 7:0.0001 
1 1 1 1 1 0.717697290240326 0 0:0.0001 1:0.0001 2:0.0001 3:0.0001 4:0.0001 5:0.0001 6:0.0001 7:0.0001 
1 1 1 1 1 1 0.6053936988439617 0:0.0001 1:0.0001 2:0.0001 3:0.0001 4:0.0001 5:0.0001 6:0.0001 7:0.0001 
-1 1 1 1 1 0 0 0:0.12680259 1:0.12683128 2:0.1258522 3:0.12589063 4:0.12662571 5:0.12616017 6:0.12703806 7:0.12554733 
-1 1 1 1 1 0.7251249673452446 0 0:0.12685756 1:0.1270185 2:0.12529533 3:0.1252895 4:0.12700586 5:0.12682322 6:0.12666737 7:0.12612645 
-1 1 1 1 1 0 0 0:0.1265332 1:0.12612684 2:0.12641443 3:0.1251251 4:0.12599642 5:0.12666065 6:0.12633562 7:0.12690917 
-1 1 1 1 1 1 0.6069592967748875 0:0.12598966 1:0.12530658 2:0.12527633 3:0.12597508 4:0.12563571 5:0.12645731 6:0.1260042 7:0.12691523 
-1 -1 1 1 1 0 0 0:0.25303952 1:0.26144217 2:0.26170043 3:0.26026439 4:0.26263056 5:0.26270112 6:0.25815941 7:0.25330476 
-1 -1 1 1 1 0 0 0:0.25959839 1:0.25415526 2:0.25322165 3:0.25512358 4:0.26453813 5:0.26185528 6:0.25576759 7:0.25264787 
-1 -1 1 1 1 0.7831750715199979 0 0:0.25351106 1:0.25668774 2:0.25321177 3:0.25374148 4:0.26181881 5:0.26423165 6:0.26345645 7:0.2654335 
-1 -1 1 1 1 1 0.6188376210623704 0:0.25411916 1:0.25527507 2:0.2509588 3:0.26088419 4:0.261445 5:0.25447298 6:0.26268092 7:0.25779679 
-1 -1 -1 1 1 0 0 0:0.42336627 1:0.37902375 2:0.40082905 3:0.40591416 4:0.37897755 5:0.40612304 6:0.41979948 7:0.38744377 
-1 -1 -1 1 1 1 0.6611076505214109 0:0.41051423 1:0.38928974 2:0.41381756 3:0.4254646 4:0.42109695 5:0.3894354 6:0.40936235 7:0.38598574 
-1 -1 -1 1 1 0 0 0:0.37723804 1:0.42476919 2:0.41130204 3:0.40435836 4:0.38830141 5:0.37898178 6:0.38369451 7:0.38452879 
-1 -1 -1 1 1 0.9881731507507854 0 0:0.4203079 1:0.42304459 2:0.40212495 3:0.39134174 4:0.42414834 5:0.39026155 6:0.39935501 7:0.38124517 
-1 -1 -1 -1 1 0 0 0:0.52590435 1:0.54667501 2:0.58143437 3:0.51224953 4:0.5058114 5:0.50854196 6:0.60326813 7:0.57409129 
-1 -1 -1 -1 1 0.5752955951944081 0 0:0.54050539 1:0.50355239 2:0.51702773 3:0.56781349 4:0.50701541 5:0.60246769 6:0.59289095 7:0.58183958 
-1 -1 -1 -1 1 1 0 0:0.61061775 1:0.61149718 2:0.59317324 3:0.53799388 4:0.57762034 5:0.58549383 6:0.51363956 7:0.58540368 
-1 -1 -1 -1 1 1 0.7997196927919105 0:0.6247736 1:0.60655749 2:0.51959102 3:0.60612914 4:0.5918222 5:0.60447393 6:0.5546846 7:0.60514518 
-1 -1 -1 -1 -1 1 1 0:0.86896176 1:0.80410975 2:0.72897232 3:0.71643509 4:0.73910075 5:0.72486844 6:0.69633714 7:0.81557703 
-1 -1 -1 -1 -1 1 0 0:0.67342639 1:0.70802714 2:0.74987107 3:0.68721548 4:0.6755846 5:0.66514366 6:0.75442939 7:0.83395061 
-1 -1 -1 -1 -1 1 0 0:0.63380672 1:0.69142695 2:0.79050844 3:0.63443312 4:0.78747077 5:0.71217647 6:0.73396589 7:0.80191564 
-1 -1 -1 -1 -1 1 0.06935555841652565 0:0.70959952 1:0.76787206 2:0.66884905 3:0.64769575 4:0.69751267 5:0.81022138 6:0.69777693 7:0.85373964 
-0 -0 -0 -0 -0 -1 1 0:1.1637255 1:1.1022048 2:1.0409152 3:0.94744 4:0.77847328 5:1.0460498 6:0.90444762 7:0.92943314 
-1 -1 -1 -1 -1 -1 0 0:0.98799375 1:0.91492559 2:0.7816305 3:1.0663084 4:0.83848134 5:0.93841059 6:0.96997123 7:1.0674163 
-0.717697290240326 -0.7251249673452446 -0.7831750715199979 -0.9881731507507853 -1 -1 0.6283395155761011 0:0.95419116 1:0.8966336 2:0.89956171 3:0.77029994 4:1.0382054 5:1.1049311 6:1.0101627 7:1.0267946 
-0 -0 -0 -0 -0.5752955951944081 -1 1 0:1.0564201 1:0.84004625 2:1.09289 3:1.1208121 4:0.78359102 5:1.1569318 6:0.9558855 7:0.75474935 
-0 -0 -0 -0 -0 -0.06935555841652565 -0.6283395155761011 0:0.9602054 1:1.1930518 2:1.0844915 3:1.2988853 4:1.2773589 5:1.1080116 6:1.1473884 7:1.4337616 
-0.6053936988439617 -0.6069592967748875 -0.6188376210623704 -0.6611076505214109 -0.7997196927919105 -1 -1 0:1.2877849 1:0.98603171 2:1.4862472 3:1.128083 4:0.89103057 5:1.1643633 6:0.92859914 7:1.140763 
-0 -0 -0 -0 -0 -0 -1 0:1.2974607 1:1.0227317 2:1.2545854 3:1.1149073 4:1.0207605 5:1.2684857 6:1.2599097 7:1.1100826 
