svm_type c_svc
kernel_type linear
nr_class 8
total_sv 32
rho -0.25527 -1.00077 -1.0005 -1.00037 -1.00028 -1.00021 -1.00017 -0.812715 -1.89984 -1.59237 -1.42329 -1.30342 -1.24346 -1.51608 -2.60949 -2.10446 -1.74097 -1.5712 -2.59198 -3.34656 -2.45286 -2.05583 -3.53345 -3.90415 -2.97448 -5.74953 -4.18184 -6.82147
label 0 1 2 3 4 5 6 7
probA 2.25077 -4.51094 -1.61813 -1.59628 -1.58293 -1.59627 -1.57361 2.33548 -1.81726 -1.67328 -1.58443 -1.59656 -1.57396 1.98791 -1.71665 -1.59211 -1.61128 -1.5749 -2.24211 -1.8118 -1.59246 -1.57835 0.297528 -1.71994 -1.5476 -2.56074 -1.6313 -1.99097
probB 0.0750038 0.45878 0.00928898 -0.00188103 -0.0247399 -0.0115086 -0.0304558 0.0891213 0.0201986 0.0699382 -0.022919 -0.0102011 -0.0289233 -0.00902081 0.113425 -0.0171027 0.00953621 -0.0241239 0.0928916 -0.0380318 0.00930007 -0.0109096 0.02638 0.0619741 0.0394187 0.173965 -0.0178231 0.404402
nr_sv 4 4 4 4 4 4 4 4
SV
1 0.7410097443200949 0 0 0 0 0 0:0.0001 1:0.0001 2:0.0001 3:0.0001 4:0.0001 5:0.0001 6:0.0001 7:0.0001 
1 1 0 0 0 0 0 0:0.0001 1:0.0001 2:0.0001 3:0.0001 4:0.0001 5:0.0001 6:0.0001 7:0.0001 
1 1 0.5768025681127393 0 0 0 0 0:0.0001 1:0.0001 2:0.0001 3:0.0001 4:0.0001 5:0.0001 6:0.0001 7:0.0001 
1 1 1 0.8392795270864007 0.4817308652112048 0.2768720050117975 0.1918711518005577 0:0.0001 1:0.0001 2:0.0001 3:0.0001 4:0.0001 5:0.0001 6:0.0001 7:0.0001 
-1 1 1 0.3943607666616873 0 0 0 0:0.12680259 1:0.12683128 2:0.1258522 3:0.12589063 4:0.12662571 5:0.12616017 6:0.12703806 7:0.12554733 
-1 1 1 1 0.7072155736502357 0 0 0:0.12685756 1:0.1270185 2:0.12529533 3:0.1252895 4:0.12700586 5:0.12682322 6:0.12666737 7:0.12612645 
-1 1 1 0 0 0 0 0:0.1265332 1:0.12612684 2:0.12641443 3:0.1251251 4:0.12599642 5:0.12666065 6:0.12633562 7:0.12690917 
-1 1 0.2640801608473764 0 0 0.3672543956304893 0.241481679863134 0:0.12598966 1:0.12530658 2:0.12527633 3:0.12597508 4:0.12563571 5:0.12645731 6:0.1260042 7:0.12691523 
-0.7410097443200949 -1 1 1 0.1586600837949173 0 0.3177980540842082 0:0.25303952 1:0.26144217 2:0.26170043 3:0.26026439 4:0.26263056 5:0.26270112 6:0.25815941 7:0.25330476 
-1 -1 1 0 0 0 0 0:0.25959839 1:0.25415526 2:0.25322165 3:0.25512358 4:0.26453813 5:0.26185528 6:0.25576759 7:0.25264787 
-1 -1 1 1 1 0.5206123468241961 0 0:0.25351106 1:0.25668774 2:0.25321177 3:0.25374148 4:0.26181881 5:0.26423165 6:0.26345645 7:0.2654335 
-1 -1 1 0.6385156194311269 0 0 0 0:0.25411916 1:0.25527507 2:0.2509588 3:0.26088419 4:0.261445 5:0.25447298 6:0.26268092 7:0.25779679 
-0.5768025681127393 -1 -1 1 0.3108074446614003 0 0 0:0.42336627 1:0.37902375 2:0.40082905 3:0.40591416 4:0.37897755 5:0.40612304 6:0.41979948 7:0.38744377 
-0 -0.2640801608473764 -1 1 1 0.8300406406369469 0.4514540809763276 0:0.41051423 1:0.38928974 2:0.41381756 3:0.4254646 4:0.42109695 5:0.3894354 6:0.40936235 7:0.38598574 
-1 -1 -1 1 0 0 0 0:0.37723804 1:0.42476919 2:0.41130204 3:0.40435836 4:0.38830141 5:0.37898178 6:0.38369451 7:0.38452879 
-0 -1 -1 1 1 0 0 0:0.4203079 1:0.42304459 2:0.40212495 3:0.39134174 4:0.42414834 5:0.39026155 6:0.39935501 7:0.38124517 
-0.8392795270864007 -1 -1 -1 1 0 0 0:0.52590435 1:0.54667501 2:0.58143437 3:0.51224953 4:0.5058114 5:0.50854196 6:0.60326813 7:0.57409129 
-0 -0.3943607666616873 -1 -1 1 0 0 0:0.54050539 1:0.50355239 2:0.51702773 3:0.56781349 4:0.50701541 5:0.60246769 6:0.59289095 7:0.58183958 
-0 -0 -0.638515619431127 -1 1 0.7140670427187933 0 0:0.61061775 1:0.61149718 2:0.59317324 3:0.53799388 4:0.57762034 5:0.58549383 6:0.51363956 7:0.58540368 
-0 -0 -0 -1 1 1 0.7694680892706188 0:0.6247736 1:0.60655749 2:0.51959102 3:0.60612914 4:0.5918222 5:0.60447393 6:0.5546846 7:0.60514518 
-0 -0 -0 -0 -1 1 1 0:0.86896176 1:0.80410975 2:0.72897232 3:0.71643509 4:0.73910075 5:0.72486844 6:0.69633714 7:0.81557703 
-0.4817308652112048 -0.7072155736502357 -1 -1 -1 0.9051064143754122 0 0:0.67342639 1:0.70802714 2:0.74987107 3:0.68721548 4:0.6755846 5:0.66514366 6:0.75442939 7:0.83395061 
-0 -0 -0.1586600837949173 -1 -1 0.7121271875703777 0.0620646764824731 0:0.63380672 1:0.69142695 2:0.79050844 3:0.63443312 4:0.78747077 5:0.71217647 6:0.73396589 7:0.80191564 
-0 -0 -0 -0.3108074446614003 -1 1 0.3386500420444228 0:0.70959952 1:0.76787206 2:0.66884905 3:0.64769575 4:0.69751267 5:0.81022138 6:0.69777693 7:0.85373964 
-0 -0 -0 -0 -0 -0.9954345974224612 1 0:1.1637255 1:1.1022048 2:1.0409152 3:0.94744 4:0.77847328 5:1.0460498 6:0.90444762 7:0.92943314 
-0.2768720050117975 -0.3672543956304893 -0.5206123468241961 -0.8034203908467122 -1 -1 0.7701806915316214 0:0.98799375 1:0.91492559 2:0.7816305 3:1.0663084 4:0.83848134 5:0.93841059 6:0.96997123 7:1.0674163 
-0 -0 -0 -0.02662024979023478 -0.6568956590820538 -1 0.8775133277338976 0:0.95419116 1:0.8966336 2:0.89956171 3:0.77029994 4:1.0382054 5:1.1049311 6:1.0101627 7:1.0267946 
-0 -0 -0 -0 -0.05717138363673939 -0.6217990045233287 0.9853699776555852 0:1.0564201 1:0.84004625 2:1.09289 3:1.1208121 4:0.78359102 5:1.1569318 6:0.9558855 7:0.75474935 
-0 -0 -0 -0 -0.1400919896118312 -0.4007147185268959 -1 0:0.9602054 1:1.1930518 2:1.0844915 3:1.2988853 4:1.2773589 5:1.1080116 6:1.1473884 7:1.4337616 
-0.1918711518005577 -0.241481679863134 -0.3177980540842082 -0.4514540809763276 -0.6293760996587876 -1 -1 0:1.2877849 1:0.98603171 2:1.4862472 3:1.128083 4:0.89103057 5:1.1643633 6:0.92859914 7:1.140763 
-0 -0 -0 -0 -0 -0 -0.6330639969211043 0:1.3762721 1:1.2137094 2:0.96113248 3:1.5327037 4:1.1825098 5:1.0904822 6:1.3621734 7:1.3787356 
-0 -0 -0 -0 -0 -0 -1 0:1.2974607 1:1.0227317 2:1.2545854 3:1.1149073 4:1.0207605 5:1.2684857 6:1.2599097 7:1.1100826 
