svm_type nu_svc
kernel_type linear
nr_class 8
total_sv 27
rho -1.00159 -1.00078 -1.0005 -1.00035 -1.00027 -1.00021 -1.00017 -2.91571 -1.91555 -1.57629 -1.41766 -1.30027 -1.24 -4.56897 -2.68335 -2.08953 -1.72734 -1.55979 -5.8637 -3.39419 -2.41578 -2.03385 -7.36318 -3.79191 -2.83439 -6.92594 -4.16964 -9.82158
label 0 1 2 3 4 5 6 7
probA -1.61032 -1.61551 -1.61819 -1.61879 -1.5987 -1.61861 -1.60521 -1.61053 -1.61574 -1.67428 -1.60251 -1.62122 -1.60706 -1.65047 -1.59433 -1.59812 -1.64967 -1.60856 -1.56801 -1.60466 -1.63562 -1.61612 -1.70428 -1.71279 -1.61761 -1.76054 -1.64752 -1.83427
probB 0.000894181 0.00611924 0.00934397 0.0223977 -0.00860025 0.0105436 0.00106181 -0.0015372 0.00919853 0.0708699 -0.00450934 0.0140929 0.00443475 0.0324376 0.01285 -0.0111978 0.0424538 0.00560402 0.0466809 -0.0111868 0.0378898 0.00585187 -0.0754016 0.0565044 0.012852 0.067188 0.00218303 0.339507
nr_sv 2 2 4 4 4 4 4 3
SV
7.852883978381836 1.884491799722839 0.7829708884844929 0.4040345141239807 0.2374578688657583 0.1354438843579066 0.09243091604045499 0:0.0001 1:0.0001 2:0.0001 3:0.0001 4:0.0001 5:0.0001 6:0.0001 7:0.0001 
7.852883978381836 1.884491799722839 0.7829708884844929 0.4040345141239807 0.2374578688657583 0.1354438843579066 0.09243091604045499 0:0.0001 1:0.0001 2:0.0001 3:0.0001 4:0.0001 5:0.0001 6:0.0001 7:0.0001 
-7.852883978381836 7.247842640851411 1.673046136636172 0.6760195655824837 0.3476583225845142 0.1794914842209166 0.1161873143064608 0:0.12680259 1:0.12683128 2:0.1258522 3:0.12589063 4:0.12662571 5:0.12616017 6:0.12703806 7:0.12554733 
-7.852883978381836 7.247842640851411 1.673046136636172 0.6760195655824837 0.3476583225845142 0.1794914842209166 0.1161873143064608 0:0.12685756 1:0.1270185 2:0.12529533 3:0.1252895 4:0.12700586 5:0.12682322 6:0.12666737 7:0.12612645 
-0 -0 6.26343534757848 1.40980841175556 0.5712901713450896 0.2533212490305782 0.1523740234760572 0:0.25303952 1:0.26144217 2:0.26170043 3:0.26026439 4:0.26263056 5:0.26270112 6:0.25815941 7:0.25330476 
-1.884491799722839 -7.247842640851411 0 0 0 0 0 0:0.25959839 1:0.25415526 2:0.25322165 3:0.25512358 4:0.26453813 5:0.26185528 6:0.25576759 7:0.25264787 
-0 -0 6.26343534757848 1.40980841175556 0.5712901713450896 0.2533212490305782 0.1523740234760572 0:0.25351106 1:0.25668774 2:0.25321177 3:0.25374148 4:0.26181881 5:0.26423165 6:0.26345645 7:0.2654335 
-1.884491799722839 -7.247842640851411 0 0 0 0 0 0:0.25411916 1:0.25527507 2:0.2509588 3:0.26088419 4:0.261445 5:0.25447298 6:0.26268092 7:0.25779679 
-0.7829708884844929 -1.673046136636172 -6.26343534757848 1.857850673218791 0 0 0 0:0.42336627 1:0.37902375 2:0.40082905 3:0.40591416 4:0.37897755 5:0.40612304 6:0.41979948 7:0.38744377 
-0 -0 -0 5.259521662033167 1.181260827087384 0.4005857587575362 0.2155157226274834 0:0.41051423 1:0.38928974 2:0.41381756 3:0.4254646 4:0.42109695 5:0.3894354 6:0.40936235 7:0.38598574 
-0.7829708884844929 -1.673046136636172 -6.26343534757848 0 0 0 0 0:0.37723804 1:0.42476919 2:0.41130204 3:0.40435836 4:0.38830141 5:0.37898178 6:0.38369451 7:0.38452879 
-0 -0 -0 3.401670988814376 1.181260827087384 0.4005857587575362 0.2155157226274834 0:0.4203079 1:0.42304459 2:0.40212495 3:0.39134174 4:0.42414834 5:0.39026155 6:0.39935501 7:0.38124517 
-0.4040345141239807 -0.6760195655824837 -1.40980841175556 -5.259521662033167 0 0 0 0:0.52590435 1:0.54667501 2:0.58143437 3:0.51224953 4:0.5058114 5:0.50854196 6:0.60326813 7:0.57409129 
-0.4040345141239807 -0.6760195655824837 -1.40980841175556 -5.259521662033167 0 0 0 0:0.54050539 1:0.50355239 2:0.51702773 3:0.56781349 4:0.50701541 5:0.60246769 6:0.59289095 7:0.58183958 
-0 -0 -0 -0 5.011387898120311 0.830316273312514 0.3566096687521907 0:0.61061775 1:0.61149718 2:0.59317324 3:0.53799388 4:0.57762034 5:0.58549383 6:0.51363956 7:0.58540368 
-0 -0 -0 -0 5.011387898120311 0.830316273312514 0.3566096687521907 0:0.6247736 1:0.60655749 2:0.51959102 3:0.60612914 4:0.5918222 5:0.60447393 6:0.5546846 7:0.60514518 
-0 -0 -0 -0 -0 2.455232283320528 0.6722128490226691 0:0.86896176 1:0.80410975 2:0.72897232 3:0.71643509 4:0.73910075 5:0.72486844 6:0.69633714 7:0.81557703 
-0.2374578688657583 -0.3476583225845142 -0.5712901713450896 -1.181260827087384 -5.011387898120311 0 0 0:0.67342639 1:0.70802714 2:0.74987107 3:0.68721548 4:0.6755846 5:0.66514366 6:0.75442939 7:0.83395061 
-0.2374578688657583 -0.3476583225845142 -0.5712901713450896 -1.181260827087384 -1.842009478791152 0 0 0:0.63380672 1:0.69142695 2:0.79050844 3:0.63443312 4:0.78747077 5:0.71217647 6:0.73396589 7:0.80191564 
-0 -0 -0 -0 -3.169378419329159 2.455232283320528 0.6722128490226691 0:0.70959952 1:0.76787206 2:0.66884905 3:0.64769575 4:0.69751267 5:0.81022138 6:0.69777693 7:0.85373964 
-0 -0 -0 -0 -0 -0 3.374145083530168 0:1.1637255 1:1.1022048 2:1.0409152 3:0.94744 4:0.77847328 5:1.0460498 6:0.90444762 7:0.92943314 
-0.1354438843579066 -0.1794914842209166 -0.2533212490305782 -0.4005857587575362 -0.830316273312514 -2.455232283320528 0 0:0.98799375 1:0.91492559 2:0.7816305 3:1.0663084 4:0.83848134 5:0.93841059 6:0.96997123 7:1.0674163 
-0.1354438843579066 -0.1794914842209166 -0.2449080424612502 -0.3506484811931347 -0.7266798034044274 -2.455232283320528 0.4121099926465709 0:0.95419116 1:0.8966336 2:0.89956171 3:0.77029994 4:1.0382054 5:1.1049311 6:1.0101627 7:1.0267946 
-0 -0 -0.00841320656932801 -0.04993727756440153 -0.1036364699080866 -0 2.962035090883597 0:1.0564201 1:0.84004625 2:1.09289 3:1.1208121 4:0.78359102 5:1.1569318 6:0.9558855 7:0.75474935 
-0.0001947374648663857 -0.01104866449775088 -0.0310447500646422 -0.06217367798567042 -0.1609852925444605 -0.4137499080699316 -0.03984371490633673 0:0.9602054 1:1.1930518 2:1.0844915 3:1.2988853 4:1.2773589 5:1.1080116 6:1.1473884 7:1.4337616 
-0.09243091604045499 -0.1161873143064608 -0.1523740234760572 -0.2155157226274834 -0.3566096687521907 -0.6722128490226691 -3.374145083530168 0:1.2877849 1:0.98603171 2:1.4862472 3:1.128083 4:0.89103057 5:1.1643633 6:0.92859914 7:1.140763 
-0.09223617857558861 -0.1051386498087099 -0.121329273411415 -0.153342044641813 -0.1956243762077303 -0.2584629409527374 -3.334301368623831 0:1.2974607 1:1.0227317 2:1.2545854 3:1.1149073 4:1.0207605 5:1.2684857 6:1.2599097 7:1.1100826 
