svm_type nu_svc
kernel_type polynomial
degree 3
gamma 0.142857
coef0 0
nr_class 8
total_sv 26
rho -1 -1 -1 -1 -1 -1 -1 -1.26511 -1.06392 -1.02262 -1.01039 -1.00446 -1.00246 -1.73306 -1.21088 -1.0923 -1.03873 -1.02118 -2.12274 -1.39653 -1.15438 -1.08285 -2.66808 -1.49746 -1.24786 -2.47881 -1.60927 -3.48707
label 0 1 2 3 4 5 6 7
probA -1.61206 -1.60902 -1.59358 -1.58189 -1.56901 -1.63243 -1.5766 -1.60798 -1.55993 -1.74665 -1.58467 -1.63107 -1.58142 -1.56577 -1.54375 -1.56883 -1.68132 -1.58132 -1.46896 -1.56724 -1.64573 -1.58127 -1.60383 -1.68193 -1.58209 -1.70374 -1.58654 -1.71246
probB 0.00269642 0.000299985 -0.00722937 0.0810897 -0.0215273 0.0352579 0.0132391 0.00114505 -0.0426218 0.174367 -0.0113911 0.0352758 0.0184293 -0.0191322 0.0236094 -0.0214988 0.0916718 0.018873 0.0615186 -0.0239046 0.0498792 0.0192191 -0.0735287 0.0569796 0.0253405 0.0710821 0.0245684 0.429153
nr_sv 2 2 3 4 4 4 4 3
SV
165315.2910581526 2262.44248704394 164.34924983312 22.56718528703878 4.588272976393982 0.851383437140832 0.2704546220017147 0:0.0001 1:0.0001 2:0.0001 3:0.0001 4:0.0001 5:0.0001 6:0.0001 7:0.0001 
165315.2910581526 2262.44248704394 164.34924983312 22.56718528703878 4.588272976393982 0.851383437140832 0.2704546220017147 0:0.0001 1:0.0001 2:0.0001 3:0.0001 4:0.0001 5:0.0001 6:0.0001 7:0.0001 
-165315.2910581526 2902.779891821811 175.2423709225717 23.10501959451481 4.636779219467525 0.8552614316534143 0.2711401757719457 0:0.12680259 1:0.12683128 2:0.1258522 3:0.12589063 4:0.12662571 5:0.12616017 6:0.12703806 7:0.12554733 
-165315.2910581526 2902.779891821811 175.2423709225717 23.10501959451481 4.636779219467525 0.8552614316534143 0.2711401757719457 0:0.12685756 1:0.1270185 2:0.12529533 3:0.1252895 4:0.12700586 5:0.12682322 6:0.12666737 7:0.12612645 
-2262.44248704394 -2902.779891821811 296.4839571059001 27.84990656459467 5.031045207450064 0.8855420130174693 0.2764111363471001 0:0.25303952 1:0.26144217 2:0.26170043 3:0.26026439 4:0.26263056 5:0.26270112 6:0.25815941 7:0.25330476 
-2262.44248704394 -2902.779891821811 296.4839571059001 27.84990656459467 0 0 0 0:0.25959839 1:0.25415526 2:0.25322165 3:0.25512358 4:0.26453813 5:0.26185528 6:0.25576759 7:0.25264787 
-0 -0 0 0 5.031045207450064 0.8855420130174693 0.2764111363471001 0:0.25351106 1:0.25668774 2:0.25321177 3:0.25374148 4:0.26181881 5:0.26423165 6:0.26345645 7:0.2654335 
-164.34924983312 -175.2423709225717 -296.4839571059001 58.35617337301393 0 0 0 0:0.42336627 1:0.37902375 2:0.40082905 3:0.40591416 4:0.37897755 5:0.40612304 6:0.41979948 7:0.38744377 
-0 -0 -296.4839571059001 58.35617337301393 6.657489454506783 0.9925035107525545 0.2942099464877067 0:0.41051423 1:0.38928974 2:0.41381756 3:0.4254646 4:0.42109695 5:0.3894354 6:0.40936235 7:0.38598574 
-164.34924983312 -175.2423709225717 -0 0 0 0 0 0:0.37723804 1:0.42476919 2:0.41130204 3:0.40435836 4:0.38830141 5:0.37898178 6:0.38369451 7:0.38452879 
-0 -0 -0 0 6.657489454506783 0.9925035107525545 0.2942099464877067 0:0.4203079 1:0.42304459 2:0.40212495 3:0.39134174 4:0.42414834 5:0.39026155 6:0.39935501 7:0.38124517 
-22.56718528703878 -23.10501959451481 -27.84990656459467 -58.35617337301393 0 0 0 0:0.52590435 1:0.54667501 2:0.58143437 3:0.51224953 4:0.5058114 5:0.50854196 6:0.60326813 7:0.57409129 
-22.56718528703878 -23.10501959451481 -27.84990656459467 -58.35617337301393 0 0 0 0:0.54050539 1:0.50355239 2:0.51702773 3:0.56781349 4:0.50701541 5:0.60246769 6:0.59289095 7:0.58183958 
-0 -0 -0 -0 17.65379099366848 1.374719073043427 0.348311899710096 0:0.61061775 1:0.61149718 2:0.59317324 3:0.53799388 4:0.57762034 5:0.58549383 6:0.51363956 7:0.58540368 
-0 -0 -0 -0 17.65379099366848 1.374719073043427 0.348311899710096 0:0.6247736 1:0.60655749 2:0.51959102 3:0.60612914 4:0.5918222 5:0.60447393 6:0.5546846 7:0.60514518 
-0 -0 -0 -0 -0 2.831144564407314 0.4820062406777524 0:0.86896176 1:0.80410975 2:0.72897232 3:0.71643509 4:0.73910075 5:0.72486844 6:0.69633714 7:0.81557703 
-4.588272976393982 -4.636779219467525 -5.031045207450064 -6.657489454506783 -17.65379099366848 0 0 0:0.67342639 1:0.70802714 2:0.74987107 3:0.68721548 4:0.6755846 5:0.66514366 6:0.75442939 7:0.83395061 
-4.588272976393982 -4.636779219467525 -5.031045207450064 -6.657489454506783 -17.65379099366848 0 0 0:0.63380672 1:0.69142695 2:0.79050844 3:0.63443312 4:0.78747077 5:0.71217647 6:0.73396589 7:0.80191564 
-0 -0 -0 -0 -0 2.831144564407314 0.4820062406777524 0:0.70959952 1:0.76787206 2:0.66884905 3:0.64769575 4:0.69751267 5:0.81022138 6:0.69777693 7:0.85373964 
-0 -0 -0 -0 -0 -0 1.59075087509372 0:1.1637255 1:1.1022048 2:1.0409152 3:0.94744 4:0.77847328 5:1.0460498 6:0.90444762 7:0.92943314 
-0.851383437140832 -0.8552614316534143 -0.8855420130174693 -0.9925035107525545 -1.374719073043427 -2.831144564407314 0 0:0.98799375 1:0.91492559 2:0.7816305 3:1.0663084 4:0.83848134 5:0.93841059 6:0.96997123 7:1.0674163 
-0.851383437140832 -0.8552614316534143 -0.8855420130174693 -0.9925035107525545 -1.344683476140483 -2.831144564407314 0 0:0.95419116 1:0.8966336 2:0.89956171 3:0.77029994 4:1.0382054 5:1.1049311 6:1.0101627 7:1.0267946 
-0 -0 -0 -0 -0.03003559690294328 -0 1.59075087509372 0:1.0564201 1:0.84004625 2:1.09289 3:1.1208121 4:0.78359102 5:1.1569318 6:0.9558855 7:0.75474935 
-0.0003024066709189697 -0.0005868078179204606 -0.002944747657662736 -0.0100370794761593 -0.03790571657598128 -0.1161561066628627 -0 0:0.9602054 1:1.1930518 2:1.0844915 3:1.2988853 4:1.2773589 5:1.1080116 6:1.1473884 7:1.4337616 
-0.2704546220017147 -0.2711401757719457 -0.2764111363471001 -0.2942099464877067 -0.348311899710096 -0.4820062406777524 -1.59075087509372 0:1.2877849 1:0.98603171 2:1.4862472 3:1.128083 4:0.89103057 5:1.1643633 6:0.92859914 7:1.140763 
-0.2701522153307958 -0.2705533679540252 -0.2734663886894374 -0.2841728670115474 -0.3104061831341147 -0.3658501340148897 -1.59075087509372 0:1.2974607 1:1.0227317 2:1.2545854 3:1.1149073 4:1.0207605 5:1.2684857 6:1.2599097 7:1.1100826 
