svm_type c_svc
kernel_type rbf
gamma 1
nr_class 2
total_sv 3012
rho -2.90877
label 0 1
probA -1.55583
probB 0.0976659
nr_sv 1513 1499
SV
256 0:0.5106233 1:0.1584117 2:0.1689098 3:0.1664358 4:0.2327561 5:0 6:0 7:0 8:1 9:0.1989241 
256 0:0.5018305 1:0.0945542 2:0.09242307 3:0.09439687 4:0.1398575 5:0 6:0 7:0 8:1 9:1 
256 0:0.5020829 1:0 2:0 3:0 4:0.1393665 5:1 6:0 7:0 8:1 9:0 
256 0:0.4933203 1:0.1098869 2:0.1048947 3:0.1069601 4:0.2152338 5:0 6:0 7:0 8:1 9:1 
185.6034588890535 0:0.4978503 1:0.2945921 2:0.2925701 3:0.296301 4:0.2544214 5:0 6:0 7:0 8:1 9:1 
256 0:0.4933182 1:0.09935774 2:0.1033853 3:0.1015128 4:0.2153181 5:0 6:0 7:0 8:1 9:1 
256 0:0.5115775 1:0.302995 2:0.3143935 3:0.3115833 4:0.2742138 5:0 6:0 7:0 8:1 9:0.2539527 
256 0:0.5022117 1:0.07775261 2:0.07643682 3:0.07804732 4:0.1102187 5:0 6:0 7:0 8:1 9:0.07237321 
256 0:0.4788579 1:0.07597098 2:0.08052377 3:0.08035635 4:0.03413814 5:0 6:0 7:0 8:1 9:0.1217803 
256 0:0.4746675 1:0.08624163 2:0.09191018 3:0.08878667 4:0.01037523 5:0.6071429 6:0 7:0 8:1 9:0.1458743 
256 0:0.5035954 1:0.1284012 2:0.128116 3:0.1266729 4:0.1804613 5:0 6:0 7:0 8:1 9:1 
256 0:0.5410926 1:0.1244383 2:0.1222366 3:0.1245432 4:0.2358248 5:0 6:0 7:0 8:1 9:0.1707719 
256 0:0.5675319 1:0.2910354 2:0.2869675 3:0.2921733 4:0.3282211 5:0 6:0 7:0 8:1 9:0.2551505 
256 0:0.5520302 1:0.1383252 2:0.1284075 3:0.1321369 4:0.1815537 5:0 6:0 7:0 8:1 9:1 
116.8051131145354 0:0.5777837 1:0.3766387 2:0.381514 3:0.3807239 4:0.2998983 5:0 6:0 7:0 8:1 9:0.338777 
256 0:0.5668865 1:0.2536394 2:0.2570527 3:0.2584586 4:0.322789 5:0 6:0 7:0 8:1 9:0.2296958 
256 0:0.566882 1:0.2548909 2:0.2572574 3:0.2591889 4:0.3228622 5:0 6:0 7:0 8:1 9:0.2300427 
256 0:0.5493397 1:0.2687431 2:0.2759926 3:0.2763699 4:0.2424388 5:0 6:0 7:0 8:1 9:0.2476184 
256 0:0.577967 1:0.364176 2:0.4045509 3:0.3858673 4:0.3010124 5:0 6:0 7:0 8:1 9:1 
256 0:0.5495465 1:0.2701651 2:0.2803226 3:0.2793809 4:0.2541867 5:0 6:0 7:0 8:1 9:0.2892954 
256 0:0.5495235 1:0.2744896 2:0.277404 3:0.2800626 4:0.2540547 5:0 6:0 7:0 8:1 9:0.2359764 
256 0:0.5495523 1:0.2689688 2:0.2747289 3:0.2759474 4:0.2537988 5:0 6:0 7:0 8:1 9:0.2348942 
256 0:0.5669278 1:0.2556298 2:0.2658986 3:0.2637473 4:0.3265592 5:0 6:0 7:0 8:1 9:0.2835688 
256 0:0.3185199 1:0 2:0 3:0 4:0.119171 5:0 6:0 7:0 8:1 9:0.2852721 
256 0:0.3566769 1:0.06997013 2:0.044839 3:0.05723754 4:0.1654895 5:0 6:0 7:0 8:1 9:0.3190559 
256 0:0.3653902 1:0.03711501 2:0.03854997 3:0.037861 4:0.1892146 5:0 6:0 7:0 8:1 9:0.175651 
256 0:0.3765437 1:0.009121273 2:0.02745209 3:0.01817933 4:0.1202018 5:0.9411765 6:0 7:0 8:1 9:0.11664 
256 0:0.3767723 1:0.04151479 2:0.02090311 3:0.02901578 4:0.1640741 5:0 6:0 7:0 8:1 9:1 
256 0:0.3262183 1:0.1640764 2:0.1481147 3:0.157512 4:0.2898753 5:0 6:0 7:0 8:1 9:0.1692034 
256 0:0.376735 1:0.008300381 2:0.01651649 3:0.01120152 4:0.1517936 5:0 6:0 7:0 8:1 9:0.04071848 
256 0:0.3767365 1:0.007928237 2:0.01964588 3:0.0119406 4:0.1500743 5:0 6:0 7:0 8:1 9:0.1008186 
256 0:0.339566 1:0.06618198 2:0.05880599 3:0.0630447 4:0.2234767 5:0 6:0 7:0 8:1 9:0.03941943 
256 0:0.340004 1:0.09714401 2:0.0778074 3:0.08929511 4:0.2460987 5:0 6:0 7:0 8:1 9:1 
256 0:0.3835332 1:0.06517535 2:0.08174809 3:0.07450541 4:0.1809556 5:0 6:0 7:0 8:1 9:0.06273164 
256 0:0.3368327 1:0.1006361 2:0.09694234 3:0.1020829 4:0.3390345 5:0 6:0 7:0 8:1 9:0.2841385 
256 0:0.3567849 1:0.03665829 2:0.02975914 3:0.02989526 4:0.1743081 5:0 6:0 7:0 8:1 9:0.2303915 
256 0:0.3743318 1:0.1157641 2:0.1258807 3:0.1211832 4:0.1281475 5:0.1944444 6:0 7:0 8:1 9:0.1420679 
256 0:0.3829346 1:0.06673947 2:0.07435642 3:0.07064802 4:0.1601942 5:0 6:0 7:0 8:1 9:0.1205453 
256 0:0.3237163 1:0.07968745 2:0.06795482 3:0.07544228 4:0.2059488 5:0 6:0 7:0 8:1 9:0.1056664 
256 0:0.3162418 1:0 2:0 3:0 4:0.07000472 5:0.7692308 6:0 7:0 8:1 9:0.1098714 
256 0:0.3378956 1:0.08865117 2:0.08195259 3:0.08585669 4:0.1723554 5:0 6:0 7:0 8:1 9:0.04932234 
256 0:0.3379007 1:0.08961076 2:0.08277142 3:0.08674199 4:0.1722621 5:0 6:0 7:0 8:1 9:0.05385005 
256 0:0.3580772 1:0.05516217 2:0.04974128 3:0.05460912 4:0.1545135 5:0 6:0 7:0 8:1 9:0.03124082 
156.0268234419021 0:0.3165835 1:0.2227879 2:0.218903 3:0.2242894 4:0.3056493 5:0 6:0 7:0 8:1 9:0.1494969 
256 0:0.3165977 1:0 2:0 3:0 4:0.07478792 5:0 6:0 7:0 8:1 9:0.07293805 
256 0:0.3581208 1:0.05399581 2:0.04802581 3:0.05333875 4:0.1537089 5:0 6:0 7:0 8:1 9:0.1048961 
256 0:0.374776 1:0.2056295 2:0.2199029 3:0.2131477 4:0.06367786 5:0 6:0 7:0 8:1 9:0.1298945 
256 0:0.3634644 1:0.0283877 2:0.03006613 3:0.03084847 4:0.1451089 5:0.4 6:0 7:0 8:1 9:0.06157984 
256 0:0.3191621 1:0.1700999 2:0.1638951 3:0.1712903 4:0.3058064 5:0 6:0 7:0 8:1 9:0.1777291 
256 0:0.381096 1:0.02688913 2:0.03926013 3:0.0339201 4:0.1041562 5:0 6:0 7:0 8:1 9:0.147607 
256 0:0.3274046 1:0.2332565 2:0.2138155 3:0.2271253 4:0.269018 5:0 6:0 7:0 8:1 9:0.1843397 
256 0:0.363494 1:0.04046265 2:0.02196388 3:0.03072366 4:0.1279732 5:0 6:0 7:0 8:1 9:0.1508009 
256 0:0.3810799 1:0 2:0 3:0 4:0.0880521 5:1 6:0 7:0 8:1 9:0.1756016 
256 0:0.3166182 1:0 2:0 3:0 4:0.07769372 5:0.08333334 6:0 7:0 8:1 9:0.2178987 
256 0:0.327575 1:0.153529 2:0.1556525 3:0.1565658 4:0.2731456 5:0 6:0 7:0 8:1 9:0.1364627 
256 0:0.358228 1:0.0254686 2:0.0265882 3:0.02553398 4:0.1667349 5:0 6:0 7:0 8:1 9:0.06397735 
67.32226397907496 0:0.3196709 1:0.2164625 2:0.2225953 3:0.2228854 4:0.3344313 5:0 6:0 7:0 8:1 9:0.1167798 
256 0:0.3165821 1:0.2142725 2:0.224112 3:0.2222284 4:0.3071564 5:0 6:0 7:0 8:1 9:0.1259556 
256 0:0.3193761 1:0.1653378 2:0.1690748 3:0.1700467 4:0.3017603 5:0 6:0 7:0 8:1 9:0.1648514 
256 0:0.3367303 1:0.02290728 2:0.02396608 3:0.01569753 4:0.1820198 5:0 6:0 7:0 8:1 9:0.2185794 
256 0:0.3567458 1:0.05915953 2:0.08401883 3:0.07375223 4:0.1517814 5:0 6:0 7:0 8:1 9:0.2259284 
256 0:0.3537343 1:0.02133556 2:0.0191148 3:0.009446537 4:0.1130324 5:0 6:0 7:0 8:1 9:0.229585 
256 0:0.3159148 1:0 2:0 3:0 4:0.08377162 5:0.96 6:0 7:0 8:1 9:0.1034107 
256 0:0.3745488 1:0.2685509 2:0.261811 3:0.2671319 4:0.1371717 5:0 6:0 7:0 8:1 9:0.4673947 
256 0:0.3159952 1:0 2:0 3:0 4:0.07975854 5:0.9791667 6:0 7:0 8:1 9:0.09441066 
256 0:0.3394173 1:0.05647301 2:0.06155962 3:0.05679378 4:0.1649095 5:0 6:0 7:0 8:1 9:0.3607203 
256 0:0.3395658 1:0.006146675 2:0.01313707 3:0.00939268 4:0.1544323 5:0.2222222 6:0 7:0 8:1 9:0.1136354 
256 0:0.3374344 1:0.08612102 2:0.05455063 3:0.07222076 4:0.1718588 5:0 6:0 7:0 8:1 9:1 
256 0:0.337364 1:0.1177802 2:0.1058741 3:0.1114363 4:0.1588751 5:0.1153846 6:0 7:0 8:1 9:0.3152216 
256 0:0.3807546 1:0.03739335 2:0.03093843 3:0.03512632 4:0.0953275 5:0 6:0 7:0 8:1 9:0.1655792 
256 0:0.3748261 1:0.05523578 2:0.07212114 3:0.06402575 4:0.06030973 5:0 6:0 7:0 8:1 9:0.1139317 
256 0:0.355038 1:0.04569147 2:0.07489565 3:0.05955366 4:0.1092126 5:0 6:0 7:0 8:1 9:0.2258056 
256 0:0.3185541 1:0.1373285 2:0.1160521 3:0.1308162 4:0.2682753 5:0 6:0 7:0 8:1 9:0.1083891 
256 0:0.3159267 1:0.08756804 2:0.07479698 3:0.08398075 4:0.2566671 5:0 6:0 7:0 8:1 9:0.1052714 
256 0:0.3159181 1:0.09660605 2:0.07649571 3:0.08929402 4:0.2565939 5:0 6:0 7:0 8:1 9:0.1637358 
256 0:0.3272897 1:0.1143331 2:0.1192597 3:0.1193719 4:0.22741 5:0 6:0 7:0 8:1 9:0.1301112 
256 0:0.3162118 1:0 2:0 3:0 4:0.05262988 5:1 6:0 7:0 8:1 9:0.117111 
256 0:0.3376403 1:0.006126992 2:0.021444 3:0.01267471 4:0.1225621 5:0 6:0 7:0 8:1 9:0.1271105 
256 0:0.3338833 1:0.0803428 2:0.08908751 3:0.08650365 4:0.2193506 5:0 6:0 7:0 8:1 9:0.05574185 
256 0:0.3401825 1:0.07121216 2:0.05936813 3:0.06457332 4:0.1273078 5:0 6:0 7:0 8:1 9:0.1100794 
256 0:0.3814257 1:0 2:0 3:0 4:0.08689243 5:1 6:0 7:0 8:1 9:0.06572907 
256 0:0.373112 1:0.2432737 2:0.2336937 3:0.2399141 4:0.06008909 5:0 6:0 7:0 8:1 9:0.1392003 
256 0:0.3637453 1:0.1333093 2:0.136851 3:0.135141 4:0.1036743 5:0.04347826 6:0 7:0 8:1 9:0.09246983 
256 0:0.3161336 1:0 2:0 3:0 4:0.05048824 5:0.3157895 6:0 7:0 8:1 9:1 
159.5976903379396 0:0.3750736 1:0.04210627 2:0.05171158 3:0.04768882 4:0.01445732 5:0 6:0 7:0 8:1 9:0.08207329 
256 0:0.3338167 1:0.1560223 2:0.1466521 3:0.1529132 4:0.2077647 5:0.2954545 6:0 7:0 8:1 9:0.1315374 
256 0:0.3552141 1:0 2:0 3:0 4:0.05809205 5:1 6:0 7:0 8:1 9:0.05477189 
256 0:0.3583662 1:0.2306618 2:0.2254266 3:0.2304446 4:0.1399211 5:0 6:0 7:0 8:1 9:0.1339087 
256 0:0.3757519 1:0.2300227 2:0.2251064 3:0.2300102 4:0.1253342 5:0 6:0 7:0 8:1 9:0.1833973 
256 0:0.3245826 1:0.0679217 2:0.0638221 3:0.0668507 4:0.1867395 5:0 6:0 7:0 8:1 9:0.07589216 
256 0:0.3753135 1:0.232527 2:0.2674724 3:0.2505285 4:0.01801915 5:0 6:0 7:0 8:1 9:0.329834 
256 0:0.3190868 1:0.1529998 2:0.1253908 3:0.141672 4:0.2582356 5:0 6:0 7:0 8:1 9:0.1880832 
256 0:0.3627376 1:0.02705845 2:0.03647653 3:0.0323505 4:0.03222326 5:0 6:0 7:0 8:1 9:0.07266943 
256 0:0.3246878 1:0.04426159 2:0.03959243 3:0.04333314 4:0.2294373 5:0 6:0 7:0 8:1 9:0.06891318 
256 0:0.3481188 1:0.03511049 2:0.02730824 3:0.03450432 4:0.2078062 5:0 6:0 7:0 8:1 9:0.3316818 
256 0:0.3965146 1:0.04413195 2:0.03799801 3:0.04533662 4:0.2158058 5:0 6:0 7:0 8:1 9:0.2021739 
256 0:0.3332115 1:0.05317527 2:0.05730977 3:0.05359793 4:0.09852549 5:0 6:0 7:0 8:1 9:0.7840036 
256 0:0.3964469 1:0.04424028 2:0.03934193 3:0.04613696 4:0.217431 5:0 6:0 7:0 8:1 9:0.06455446 
256 0:0.3536991 1:0.003605055 2:0.007183285 3:0.008600547 4:0.1649951 5:0 6:0 7:0 8:1 9:0.09200296 
256 0:0.3537244 1:0.004870539 2:0.007186647 3:0.009210882 4:0.1644836 5:0 6:0 7:0 8:1 9:0.06864354 
256 0:0.3331771 1:0 2:0 3:0 4:0.09717146 5:0.05 6:0 7:0 8:1 9:0.1074272 
256 0:0.3628338 1:0.2204902 2:0.2222935 3:0.2215351 4:0.03985166 5:0 6:0 7:0 8:1 9:0.1653042 
256 0:0.3330931 1:0.0390991 2:0.05516918 3:0.04550854 4:0.0964166 5:0.06666667 6:0 7:0 8:1 9:0.1167962 
256 0:0.3174163 1:0.05820271 2:0.03813707 3:0.05184889 4:0.3048879 5:0 6:0 7:0 8:1 9:0.1430527 
256 0:0.3265512 1:0.02462348 2:0.003781653 3:0.01788187 4:0.2906138 5:0 6:0 7:0 8:1 9:0.1489965 
256 0:0.3536208 1:0.07570693 2:0.09977918 3:0.08785373 4:0.1624152 5:0 6:0 7:0 8:1 9:0.2240053 
256 0:0.3331188 1:0.0208116 2:0.04601259 3:0.03179137 4:0.09602194 5:0 6:0 7:0 8:1 9:0.2042601 
256 0:0.3331103 1:0.02207361 2:0.04698649 3:0.03291263 4:0.09591709 5:0 6:0 7:0 8:1 9:0.1981383 
256 0:0.3337722 1:0.06940152 2:0.05548394 3:0.06748307 4:0.3235743 5:0 6:0 7:0 8:1 9:0.1991777 
256 0:0.3330492 1:0.007372485 2:0.01741366 3:0.0108732 4:0.09523819 5:0 6:0 7:0 8:1 9:0.0377523 
256 0:0.3536552 1:0.2642033 2:0.2627223 3:0.2667773 4:0.1651658 5:0 6:0 7:0 8:1 9:0.2080013 
256 0:0.3367785 1:0.05960765 2:0.03759319 3:0.04792451 4:0.1063808 5:0 6:0 7:0 8:1 9:0.1705804 
256 0:0.3164895 1:0 2:0 3:0 4:0.05039044 5:0 6:0 7:0 8:1 9:0.1602404 
256 0:0.3964348 1:0.2347595 2:0.2556604 3:0.2495479 4:0.2144013 5:0 6:0 7:0 8:1 9:0.2278387 
256 0:0.3596594 1:0.01719165 2:0.02738599 3:0.02298835 4:0.01892681 5:0 6:0 7:0 8:1 9:0.1264753 
256 0:0.3165183 1:0 2:0 3:0 4:0.05072335 5:0 6:0 7:0 8:1 9:0.1139518 
256 0:0.3536667 1:0.2587803 2:0.2503971 3:0.2581487 4:0.1630334 5:0 6:0 7:0 8:1 9:0.1939331 
219.8610012010432 0:0.3197518 1:0.1211415 2:0.1125984 3:0.118175 4:0.2236998 5:0 6:0 7:0 8:1 9:0.09813564 
256 0:0.3249716 1:0.1118554 2:0.1048593 3:0.1101885 4:0.231761 5:0 6:0 7:0 8:1 9:0.2313404 
256 0:0.3331472 1:0 2:0 3:0 4:0.09600351 5:0.09677419 6:0 7:0 8:1 9:0.1415161 
256 0:0.3220249 1:0.01187161 2:0.02589295 3:0.01384442 4:0.2626042 5:0 6:0 7:0 8:1 9:0.2724234 
256 0:0.326473 1:0.164236 2:0.1388084 3:0.1559262 4:0.2891839 5:0 6:0 7:0 8:1 9:0.3055238 
256 0:0.3198408 1:0.05208855 2:0.05423179 3:0.05244898 4:0.223865 5:0 6:0 7:0 8:1 9:0.07572319 
256 0:0.3368314 1:0.02670337 2:0.03365472 3:0.02876653 4:0.1074864 5:0 6:0 7:0 8:1 9:0.08414549 
256 0:0.316484 1:0 2:0 3:0 4:0.05028956 5:0.9756098 6:0 7:0 8:1 9:0.1136611 
256 0:0.3538809 1:0.2153304 2:0.2245877 3:0.223328 4:0.1627275 5:0 6:0 7:0 8:1 9:0.1676589 
256 0:0.3266051 1:0.1355497 2:0.111017 3:0.1275136 4:0.2898201 5:0 6:0 7:0 8:1 9:0.3073397 
256 0:0.3165287 1:0.0002198038 2:0 3:0 4:0.05047435 5:0.9210526 6:0 7:0 8:1 9:1 
256 0:0.3331123 1:0.03882239 2:0.05809662 3:0.04463472 4:0.09553535 5:0.07317073 6:0 7:0 8:1 9:1 
256 0:0.3964154 1:0.06731178 2:0.07092194 3:0.0700614 4:0.2121616 5:0 6:0 7:0 8:1 9:1 
189.3494504282688 0:0.3368757 1:0.2442841 2:0.2830576 3:0.2633913 4:0.1075652 5:0 6:0 7:0 8:1 9:1 
256 0:0.3264911 1:0.2088851 2:0.2129213 3:0.2146165 4:0.2888574 5:0 6:0 7:0 8:1 9:0.1209007 
256 0:0.3331755 1:0.04777595 2:0.04578028 3:0.04600629 4:0.09517349 5:0 6:0 7:0 8:1 9:0.1029092 
256 0:0.3172484 1:0.1337112 2:0.1269921 3:0.134135 4:0.3001968 5:0 6:0 7:0 8:1 9:0.14756 
256 0:0.3476948 1:0.2315157 2:0.2463376 3:0.2430079 4:0.2033509 5:0 6:0 7:0 8:1 9:0.2342044 
256 0:0.324774 1:0.05752378 2:0.04996151 3:0.05357582 4:0.2302958 5:0 6:0 7:0 8:1 9:0.2238752 
256 0:0.3247958 1:0.05696643 2:0.04761067 3:0.05226745 4:0.2305581 5:0 6:0 7:0 8:1 9:0.2094236 
256 0:0.3218882 1:0.145659 2:0.1390806 3:0.1450154 4:0.2613451 5:0 6:0 7:0 8:1 9:0.1978035 
256 0:0.3173335 1:0.1627877 2:0.150091 3:0.1603027 4:0.3019093 5:0 6:0 7:0 8:1 9:0.1590711 
256 0:0.3330518 1:0 2:0.004714277 3:0 4:0.09459727 5:1 6:0 7:0 8:1 9:0.1914002 
256 0:0.3164203 1:0 2:0.0002198038 3:0 4:0.04961911 5:0 6:0 7:0 8:1 9:0.06119174 
256 0:0.3330806 1:0.05749729 2:0.06432626 3:0.05687846 4:0.09505879 5:0.7692308 6:0 7:0 8:1 9:0.04311655 
256 0:0.3263314 1:0.003944244 2:0.02161123 3:0.006343946 4:0.2871873 5:0 6:0 7:0 8:1 9:0.1473054 
256 0:0.4975441 1:0 2:0 3:0.0002198038 4:0.004662753 5:0 6:0 7:0 8:1 9:0.1379784 
256 0:0.5171674 1:0.01222847 2:0.01419084 3:0.01291451 4:0.03187336 5:0 6:0 7:0 8:1 9:0.1705946 
256 0:0.4731396 1:0.03046933 2:0.03273666 3:0.03151039 4:0.05552404 5:0 6:0 7:0 8:1 9:0.05480611 
256 0:0.5636567 1:0.001142134 2:0.00502194 3:0.00338384 4:0.01673735 5:0.3478261 6:0 7:0 8:1 9:0.1406749 
256 0:0.5738806 1:0.04212866 2:0.05066085 3:0.04729373 4:0.05789308 5:0 6:0 7:0 8:1 9:0.2282532 
256 0:0.5835322 1:0.06723911 2:0.05722613 3:0.06238069 4:0.1506359 5:0 6:0 7:0 8:1 9:0.2401116 
256 0:0.5890789 1:0.07995356 2:0.106591 3:0.09452213 4:0.1970255 5:0 6:0 7:0 8:1 9:0.397325 
256 0:0.4182653 1:0.08521026 2:0.07586604 3:0.08426989 4:0.3114909 5:0 6:0 7:0 8:1 9:0.176836 
256 0:0.3902948 1:0.04026142 2:0.03498153 3:0.03320068 4:0.126042 5:0.06666667 6:0 7:0 8:1 9:0.2540103 
256 0:0.5286846 1:0.04356794 2:0.02815949 3:0.03504228 4:0.1235409 5:0 6:0 7:0 8:1 9:1 
256 0:0.568538 1:0.06151558 2:0.06405635 3:0.06220007 4:0.08401766 5:0 6:0 7:0 8:1 9:0.103681 
256 0:0.4144698 1:0.2844276 2:0.2337082 3:0.2581432 4:0.08554909 5:0 6:0 7:0 8:1 9:1 
256 0:0.5532655 1:0.3344736 2:0.3020244 3:0.3193783 4:0.1859023 5:0 6:0 7:0 8:1 9:1 
256 0:0.5650004 1:0.3685164 2:0.3530221 3:0.3624535 4:0.2266352 5:0 6:0 7:0 8:1 9:0.4821306 
256 0:0.4673104 1:0.2723747 2:0.2509839 3:0.2630005 4:0.1319304 5:0 6:0 7:0 8:1 9:1 
256 0:0.5558017 1:0.008061191 2:0.01171181 3:0.009696406 4:0.003311682 5:0.1 6:0 7:0 8:1 9:0.1192666 
256 0:0.5553781 1:0.01383569 2:0.0224136 3:0.01814874 4:0.01020147 5:0.1 6:0 7:0 8:1 9:0.1988997 
256 0:0.5647131 1:0.08927909 2:0.0876325 3:0.08890069 4:0.08839658 5:0 6:0 7:0 8:1 9:0.1186411 
256 0:0.5722768 1:0.03619516 2:0.03292071 3:0.03462807 4:0 5:0 6:0 7:0 8:1 9:0.2141641 
256 0:0.5644036 1:0 2:0.02442248 3:0 4:0.1549272 5:0.02222222 6:0 7:0 8:1 9:0.460315 
256 0:0.5660502 1:0.2220406 2:0.2262937 3:0.226361 4:0.1716779 5:0.1 6:0 7:0 8:1 9:0.2241149 
256 0:0.4062207 1:0.2279338 2:0.2276724 3:0.2322077 4:0.1832948 5:0.07777778 6:0 7:0 8:1 9:0.1578503 
256 0:0.3934074 1:0.1594063 2:0.1635841 3:0.1659075 4:0.2168587 5:0.07777778 6:0 7:0 8:1 9:0.1594222 
256 0:0.5911984 1:0.361225 2:0.3620105 3:0.3631117 4:0.2908403 5:0 6:0 7:0 8:1 9:0.3496613 
256 0:0.4678077 1:0.006244155 2:0.009886384 3:0.004959012 4:0.02175719 5:0 6:0 7:0 8:1 9:0.1631925 
256 0:0.3584942 1:0.07033554 2:0.07021188 3:0.06958786 4:0.1053589 5:0 6:0 7:0 8:1 9:0.1276154 
256 0:0.3845121 1:0.1164341 2:0.1271649 3:0.1251966 4:0.1656894 5:0 6:0 7:0 8:1 9:0.09550344 
256 0:0.5531521 1:0.1048908 2:0.1048642 3:0.1051791 4:0.06684998 5:0.01111111 6:0 7:0 8:1 9:0.1686771 
256 0:0.3729714 1:0.0009581026 2:0 3:0 4:0.03542641 5:0.02222222 6:0 7:0 8:1 9:0.08670066 
218.7457550918258 0:0.4729312 1:0.2616343 2:0.2654659 3:0.266604 4:0.2257333 5:0 6:0 7:0 8:1 9:0.2039971 
256 0:0.4751959 1:0.2976764 2:0.3039154 3:0.3046209 4:0.2898862 5:0 6:0 7:0 8:1 9:0.2354213 
256 0:0.6036952 1:0.08715891 2:0.08954096 3:0.0867755 4:0.1085587 5:0 6:0 7:0 8:1 9:0.10012 
256 0:0.475244 1:0.0690312 2:0.07455576 3:0.07472282 4:0.07885028 5:0 6:0 7:0 8:1 9:0.07227885 
256 0:0.472821 1:0.1137742 2:0.1223711 3:0.121411 4:0.1189437 5:0 6:0 7:0 8:1 9:0.1236943 
256 0:0.6652465 1:0.01806067 2:0.02195728 3:0.0205957 4:0.1353767 5:0 6:0 7:0 8:1 9:0.2993681 
256 0:0.6685261 1:0.04123434 2:0.04447573 3:0.042261 4:0.123081 5:0 6:0 7:0 8:1 9:0.1346513 
256 0:0.4823139 1:0.03843569 2:0.04534088 3:0.0412144 4:0.03696885 5:0 6:0 7:0 8:1 9:0.6946254 
256 0:0.4977016 1:0.04645449 2:0.03854496 3:0.04319176 4:0.05986927 5:0 6:0 7:0 8:1 9:0.2117635 
256 0:0.3640742 1:0.01181245 2:0.006968196 3:0.009113325 4:0.0320337 5:0.02222222 6:0 7:0 8:1 9:0.07646416 
154.6197160816269 0:0.3987699 1:0.2288558 2:0.2286161 3:0.2297584 4:0.2158634 5:0.2444444 6:0 7:0 8:1 9:0.4108879 
256 0:0.5865896 1:0.09343552 2:0.0863096 3:0.08999886 4:0.1500579 5:0 6:0 7:0 8:1 9:0.1340274 
256 0:0.4309413 1:0.1230701 2:0.1146848 3:0.1210757 4:0.2754337 5:0.05555556 6:0 7:0 8:1 9:0.1470935 
256 0:0.4849853 1:0.08928479 2:0.09527077 3:0.09538015 4:0.116968 5:0 6:0 7:0 8:1 9:0.1651288 
256 0:0.6094781 1:0.03657644 2:0.04116862 3:0.03910714 4:0.06908623 5:0 6:0 7:0 8:1 9:0.1958522 
256 0:0.5936095 1:0.03609485 2:0.04526029 3:0.04061114 4:0.04800567 5:0 6:0 7:0 8:1 9:1 
256 0:0.5275512 1:0.07776009 2:0.07511452 3:0.07571461 4:0.1190223 5:0 6:0 7:0 8:1 9:0.07168272 
256 0:0.532977 1:0.00599547 2:0.004647185 3:0.006898512 4:0.08463252 5:0 6:0 7:0 8:1 9:0.0113751 
256 0:0.5773743 1:0.06278164 2:0.0590609 3:0.06274732 4:0.1421265 5:0 6:0 7:0 8:1 9:0.1934983 
256 0:0.5821654 1:0.06682753 2:0.06983543 3:0.07017533 4:0.1467654 5:0 6:0 7:0 8:1 9:0.109023 
256 0:0.5404481 1:0.05555975 2:0.05964174 3:0.05760573 4:0.00910006 5:0 6:0 7:0 8:1 9:0.1914181 
256 0:0.5806353 1:0.0231413 2:0.02017136 3:0.02291888 4:0.1070495 5:0 6:0 7:0 8:1 9:0.1426342 
256 0:0.5988882 1:0.04630435 2:0.04504611 3:0.04657248 4:0.114321 5:0 6:0 7:0 8:1 9:0.08673355 
256 0:0.6217613 1:0.06156434 2:0.06465046 3:0.06346128 4:0.1212153 5:0 6:0 7:0 8:1 9:1 
256 0:0.4475963 1:0.09240524 2:0.07691212 3:0.08814976 4:0.2567122 5:0 6:0 7:0 8:1 9:0.1800698 
256 0:0.4318967 1:0.1176698 2:0.1371705 3:0.131044 4:0.2843267 5:0 6:0 7:0 8:1 9:0.2262703 
256 0:0.4314589 1:0.106126 2:0.1393302 3:0.1262086 4:0.2857186 5:0 6:0 7:0 8:1 9:0.2798184 
256 0:0.4289977 1:0.1435791 2:0.1259679 3:0.1384698 4:0.2962 5:0 6:0 7:0 8:1 9:0.2792053 
256 0:0.4280891 1:0.1567735 2:0.1333479 3:0.1488448 4:0.3049951 5:0 6:0 7:0 8:1 9:1 
256 0:0.5275227 1:0.1033421 2:0.1003636 3:0.1033234 4:0.2178564 5:0 6:0 7:0 8:1 9:0.408692 
256 0:0.5017503 1:0.2780059 2:0.2774109 3:0.280431 4:0.2529319 5:0 6:0 7:0 8:1 9:0.2172666 
256 0:0.4997367 1:0.09017616 2:0.074469 3:0.08283228 4:0.177665 5:0 6:0 7:0 8:1 9:0.2872122 
256 0:0.4997658 1:0.1034986 2:0.09772989 3:0.1020656 4:0.143632 5:0 6:0 7:0 8:1 9:0.1988883 
256 0:0.5165129 1:0.264405 2:0.2695333 3:0.2701829 4:0.2951013 5:0 6:0 7:0 8:1 9:0.2404832 
256 0:0.5206507 1:0.1031953 2:0.09770112 3:0.1005667 4:0.1358453 5:0 6:0 7:0 8:1 9:0.3328699 
256 0:0.5802521 1:0.057205 2:0.06622255 3:0.06186034 4:0.09101785 5:0 6:0 7:0 8:1 9:0.4090809 
256 0:0.7065355 1:0.01846286 2:0.01560491 3:0.01570522 4:0.1393456 5:0 6:0 7:0 8:1 9:0.3871514 
256 0:0.6615414 1:0.02609653 2:0.0274987 3:0.02827767 4:0.1429668 5:0.1444445 6:0 7:0 8:1 9:0.05007612 
256 0:0.6627204 1:0.06693463 2:0.07557824 3:0.0722613 4:0.0968535 5:0 6:0 7:0 8:1 9:0.3314236 
256 0:0.6357725 1:0.01494215 2:0.002387682 3:0.007743258 4:0.03260277 5:0 6:0 7:0 8:1 9:0.343911 
256 0:0.3844971 1:0.2084198 2:0.215512 3:0.2170596 4:0.2070183 5:0 6:0 7:0 8:1 9:0.1352311 
256 0:0.4921308 1:0.268677 2:0.2669514 3:0.2713713 4:0.2663465 5:0 6:0 7:0 8:1 9:0.3500671 
256 0:0.3857862 1:0.2201791 2:0.2236042 3:0.2253154 4:0.1516985 5:0 6:0 7:0 8:1 9:0.1997026 
256 0:0.5023471 1:0.3206991 2:0.2879958 3:0.3075196 4:0.2926079 5:0 6:0 7:0 8:1 9:1 
256 0:0.5563089 1:0.03119048 2:0.03200578 3:0.03212636 4:0.1534823 5:0 6:0 7:0 8:1 9:0.1516969 
256 0:0.495858 1:0.0713334 2:0.05987088 3:0.06440784 4:0.1314354 5:0.01111111 6:0 7:0 8:1 9:1 
256 0:0.4972507 1:0.2793613 2:0.2669398 3:0.2759111 4:0.1925235 5:0 6:0 7:0 8:1 9:0.8086129 
256 0:0.4924805 1:0.2880304 2:0.2912 3:0.2909071 4:0.2513921 5:0 6:0 7:0 8:1 9:0.2588534 
256 0:0.4799479 1:0.05541459 2:0.05226606 3:0.05582684 4:0.1223052 5:0 6:0 7:0 8:1 9:0.07600491 
256 0:0.3965837 1:0.2395566 2:0.2414092 3:0.2419188 4:0.2361056 5:0 6:0 7:0 8:1 9:0.2392275 
256 0:0.4665017 1:0.02270493 2:0.1033982 3:0.03052718 4:0.1384232 5:0 6:0 7:0 8:1 9:0.4465693 
256 0:0.3928749 1:0.1239693 2:0.1144013 3:0.1218367 4:0.1910713 5:0 6:0 7:0 8:1 9:0.2146547 
256 0:0.5126911 1:0.1145916 2:0.1018409 3:0.10829 4:0.1289347 5:0 6:0 7:0 8:1 9:1 
2.827256631660631 0:0.4972924 1:0 2:0 3:0 4:0 5:1 6:0 7:0 8:1 9:1 
256 0:0.4971324 1:0.1016979 2:0.09212725 3:0.09693784 4:0 5:0.8181818 6:0 7:0 8:1 9:0.207622 
256 0:0.5324133 1:0.1628946 2:0.1295412 3:0.1478144 4:0.2288266 5:0 6:0 7:0 8:1 9:1 
256 0:0.5323861 1:0.1522667 2:0.1413234 3:0.1484719 4:0.2284149 5:0 6:0 7:0 8:1 9:0.6740246 
256 0:0.5020114 1:0 2:0.009741148 3:0.008349711 4:0.0708311 5:0.07692308 6:0 7:0 8:1 9:1 
256 0:0.5222157 1:0.07201128 2:0.06816003 3:0.07042874 4:0.1520771 5:0 6:0 7:0 8:1 9:0.1379123 
256 0:0.5027151 1:0.05716227 2:0.04817963 3:0.05406296 4:0.05077672 5:0 6:0 7:0 8:1 9:1 
256 0:0.5170028 1:0.07110533 2:0.03244003 3:0.05178636 4:0.1686717 5:0 6:0 7:0 8:1 9:0.4449092 
256 0:0.5163786 1:0.3248989 2:0.3055815 3:0.3148036 4:0.2140123 5:0 6:0 7:0 8:1 9:0.4000893 
256 0:0.5928811 1:0.2794611 2:0.4228001 3:0.3506705 4:0.2736776 5:0 6:0 7:0 8:1 9:0.5823622 
256 0:0.5344533 1:0.2171143 2:0.2743675 3:0.2456102 4:0.07363034 5:0.05405406 6:0 7:0 8:1 9:0.458106 
256 0:0.5889434 1:0.5034576 2:0.57803 3:0.5430911 4:0.3669447 5:0 6:0 7:0 8:1 9:0.5481231 
256 0:0.5624147 1:0.3155602 2:0.3405913 3:0.3290519 4:0.2512812 5:0 6:0 7:0 8:1 9:1 
155.8669487701037 0:0.5956491 1:0.3570218 2:0.3839952 3:0.3718856 4:0.3107842 5:0 6:0 7:0 8:1 9:0.5507199 
256 0:0.5953011 1:0.4143828 2:0.359794 3:0.3876176 4:0.3046507 5:0 6:0 7:0 8:1 9:0.5341277 
256 0:0.5651264 1:0.06914786 2:0.06931149 3:0.06864443 4:0.2382788 5:0 6:0 7:0 8:1 9:1 
256 0:0.546227 1:0 2:0.004520706 3:0 4:0.0667721 5:1 6:0 7:0 8:1 9:0.4029648 
256 0:0.546235 1:0 2:0 3:0 4:0.06717645 5:1 6:0 7:0 8:1 9:0.263825 
256 0:0.5897902 1:0.3846222 2:0.3809521 3:0.3844025 4:0.3254223 5:0 6:0 7:0 8:1 9:1 
256 0:0.5896661 1:0.1285311 2:0.1474947 3:0.1395017 4:0.3230914 5:0 6:0 7:0 8:1 9:0.4197328 
256 0:0.5360306 1:0.09860867 2:0.06749813 3:0.08235566 4:0.06885812 5:0 6:0 7:0 8:1 9:0.3786351 
256 0:0.5712041 1:0.1121364 2:0.129368 3:0.1207992 4:0.2088537 5:0 6:0 7:0 8:1 9:0.4306512 
256 0:0.3330203 1:0.1276823 2:0.1294394 3:0.1305704 4:0.2629527 5:0 6:0 7:0 8:1 9:0.2332334 
256 0:0.3786775 1:0.05643445 2:0.03480699 3:0.04539204 4:0.1143892 5:0 6:0 7:0 8:1 9:1 
256 0:0.3748235 1:0.01353203 2:0.04478343 3:0.02816379 4:0.04946585 5:0 6:0 7:0 8:1 9:1 
256 0:0.3785203 1:0.08737744 2:0.05875989 3:0.07361522 4:0.1063948 5:0 6:0 7:0 8:1 9:1 
256 0:0.3312992 1:0 2:0 3:0 4:0 5:1 6:0 7:0 8:1 9:0.2840078 
256 0:0.3451558 1:0.1474808 2:0.1224156 3:0.1364238 4:0.1981848 5:0 6:0 7:0 8:1 9:1 
256 0:0.3416135 1:0.01235426 2:0.01560646 3:0.01467295 4:0.1666366 5:0 6:0 7:0 8:1 9:0.02155773 
79.11385336026912 0:0.3965258 1:0.2527081 2:0.2607788 3:0.2581283 4:0.09292088 5:0 6:0 7:0 8:1 9:0.1930872 
256 0:0.3746386 1:0.005517049 2:0 3:0.0002198038 4:0.04367822 5:1 6:0 7:0 8:1 9:1 
256 0:0.3577724 1:0.05196164 2:0.06050557 3:0.05551402 4:0.1080899 5:0 6:0 7:0 8:1 9:0.7627977 
74.66977324669416 0:0.3964198 1:0.1837891 2:0.2918714 3:0.2354814 4:0.09553307 5:0 6:0 7:0 8:1 9:0.3699751 
256 0:0.3312052 1:0 2:0.0002198038 3:0 4:0 5:0.7142857 6:0 7:0 8:1 9:0.1355122 
256 0:0.331177 1:0 2:0 3:0.0002198038 4:0 5:0.7777778 6:0 7:0 8:1 9:0 
256 0:0.400262 1:0.05002294 2:0.06562566 3:0.05868987 4:0.09473633 5:0 6:0 7:0 8:1 9:0.1081964 
256 0:0.3314783 1:0 2:0 3:0 4:0 5:0.9090909 6:0 7:0 8:1 9:0.3254486 
256 0:0.3322467 1:0.09800299 2:0.1347272 3:0.1181441 4:0.236079 5:0 6:0 7:0 8:1 9:0.2407421 
256 0:0.3358408 1:0.1010081 2:0.1352384 3:0.1202499 4:0.2564063 5:0 6:0 7:0 8:1 9:0.2530913 
256 0:0.3488055 1:0.06721571 2:0.08509872 3:0.07634362 4:0.1943617 5:0 6:0 7:0 8:1 9:1 
256 0:0.3744282 1:0.04480178 2:0.04108986 3:0.04117038 4:0.0352335 5:0 6:0 7:0 8:1 9:1 
256 0:0.3350764 1:0.1168689 2:0.1067953 3:0.1146469 4:0.2451372 5:0 6:0 7:0 8:1 9:0.3180036 
256 0:0.3349517 1:0.1129606 2:0.1065249 3:0.112508 4:0.2416213 5:0 6:0 7:0 8:1 9:0.09179471 
256 0:0.3556078 1:0.02896076 2:0.02793895 3:0.02803651 4:0.0835211 5:0 6:0 7:0 8:1 9:0.2234434 
256 0:0.3346046 1:0.1160987 2:0.1028003 3:0.11211 4:0.2339607 5:0 6:0 7:0 8:1 9:0.4152124 
256 0:0.3266249 1:0 2:0 3:0 4:0 5:0.1111111 6:0 7:0 8:1 9:0.3218922 
256 0:0.3426777 1:0.2187211 2:0.2412476 3:0.2322019 4:0.1987649 5:0 6:0 7:0 8:1 9:0.194646 
256 0:0.376135 1:0.1080789 2:0.08553691 3:0.09860744 4:0.1196537 5:0 6:0 7:0 8:1 9:1 
256 0:0.3942222 1:0.09446928 2:0.07878207 3:0.08816735 4:0.1103044 5:0 6:0 7:0 8:1 9:0.293307 
256 0:0.3911493 1:0.04334931 2:0.018715 3:0.03244301 4:0.05332061 5:0 6:0 7:0 8:1 9:1 
256 0:0.3943022 1:0.09570728 2:0.07489339 3:0.08692617 4:0.1064798 5:0 6:0 7:0 8:1 9:0.3671667 
256 0:0.3921286 1:0.03511944 2:0.06239853 3:0.04754664 4:0.02912136 5:0 6:0 7:0 8:1 9:1 
197.5358008079768 0:0.3731735 1:0 2:0.006107247 3:0 4:0.0419527 5:1 6:0 7:0 8:1 9:1 
256 0:0.355155 1:0.07425541 2:0.06722039 3:0.06914296 4:0.1012877 5:0 6:0 7:0 8:1 9:1 
256 0:0.3769665 1:0.1057291 2:0.08205628 3:0.09522495 4:0.08583666 5:0 6:0 7:0 8:1 9:1 
256 0:0.3730434 1:0.07270885 2:0.1295581 3:0.1005529 4:0.03735713 5:0.5 6:0 7:0 8:1 9:0.2782182 
256 0:0.3562405 1:0.03658768 2:0.0504892 3:0.03987895 4:0.1087129 5:0 6:0 7:0 8:1 9:0.2180498 
256 0:0.3932336 1:0.0217472 2:0.05568238 3:0.03033021 4:0.04605146 5:0 6:0 7:0 8:1 9:0.2969911 
178.6954158082286 0:0.3475862 1:0.1096414 2:0.1137723 3:0.1101672 4:0.202664 5:0 6:0 7:0 8:1 9:0.2498021 
256 0:0.3920958 1:0.04061887 2:0.0339614 3:0.03679452 4:0.02298835 5:0 6:0 7:0 8:1 9:0.1348112 
256 0:0.3950993 1:0.02924391 2:0.02560863 3:0.02862505 4:0.06699535 5:0 6:0 7:0 8:1 9:0.09230646 
256 0:0.3562686 1:0.05472548 2:0.06720816 3:0.05943736 4:0.1085093 5:0 6:0 7:0 8:1 9:0.1981936 
256 0:0.3297126 1:0 2:0 3:0 4:0 5:0.4642857 6:0 7:0 8:1 9:0.2486007 
256 0:0.3383643 1:0.1876314 2:0.3187821 3:0.2522489 4:0.2593077 5:0 6:0 7:0 8:1 9:0.3198231 
256 0:0.3928708 1:0.2591961 2:0.2401684 3:0.2501082 4:0.05843003 5:0.01612903 6:0 7:0 8:1 9:0.2772695 
256 0:0.3445694 1:0.2098886 2:0.2719671 3:0.2426163 4:0.185536 5:0 6:0 7:0 8:1 9:0.2681444 
256 0:0.3446151 1:0.2114016 2:0.2595643 3:0.2371658 4:0.185599 5:0 6:0 7:0 8:1 9:0.2511088 
256 0:0.3298201 1:0 2:0 3:0 4:0 5:0.6511628 6:0 7:0 8:1 9:0 
256 0:0.347292 1:0.06765249 2:0.06507949 3:0.06672642 4:0.1762981 5:0 6:0 7:0 8:1 9:0.07951061 
256 0:0.3733703 1:0 2:0.01610621 3:0 4:0.02015338 5:1 6:0 7:0 8:1 9:0.2705688 
256 0:0.3552062 1:0.04785483 2:0.08089022 3:0.06414206 4:0.09324773 5:0.08 6:0 7:0 8:1 9:0.2939503 
256 0:0.3935394 1:0.03436816 2:0.03256494 3:0.03172364 4:0.07439516 5:0 6:0 7:0 8:1 9:0.3633232 
256 0:0.3915387 1:0.1962149 2:0.1903455 3:0.1945047 4:0 5:0 6:0 7:0 8:1 9:0.1266074 
256 0:0.3427954 1:0.04589052 2:0.0344889 3:0.04084321 4:0.1480456 5:0 6:0 7:0 8:1 9:0.05452938 
256 0:0.3426148 1:0.05184889 2:0.03945298 3:0.04643315 4:0.1445458 5:0 6:0 7:0 8:1 9:0.09080996 
256 0:0.3303725 1:0.006240285 2:0 3:0.004445266 4:0.1889571 5:0.03125 6:0 7:0 8:1 9:0.06423582 
256 0:0.3423622 1:0.2726115 2:0.2558791 3:0.2658952 4:0.1523165 5:0 6:0 7:0 8:1 9:0.3895096 
256 0:0.3460513 1:0.01246135 2:0.01681224 3:0.01377795 4:0.1558948 5:0 6:0 7:0 8:1 9:0.3226395 
256 0:0.3418298 1:0.27414 2:0.2543261 3:0.2659719 4:0.1578279 5:0 6:0 7:0 8:1 9:0.240883 
256 0:0.3275997 1:0 2:0 3:0 4:0 5:0.6623377 6:0 7:0 8:1 9:1 
256 0:0.3418683 1:0.2747186 2:0.2528885 3:0.265451 4:0.1608258 5:0 6:0 7:0 8:1 9:0.3111588 
256 0:0.3904298 1:0.272314 2:0.2759094 3:0.2752385 4:0.06243614 5:0 6:0 7:0 8:1 9:0.3619901 
256 0:0.3755211 1:0.3020341 2:0.2928159 3:0.2989017 4:0.1286026 5:0 6:0 7:0 8:1 9:1 
256 0:0.3527564 1:0.02528579 2:0.03676232 3:0.024368 4:0.05274281 5:0 6:0 7:0 8:1 9:1 
256 0:0.3313437 1:0.0508619 2:0.06559432 3:0.0594874 4:0.1799888 5:0 6:0 7:0 8:1 9:0.2908583 
256 0:0.3312332 1:0.04952301 2:0.06621195 3:0.05910144 4:0.1774428 5:0 6:0 7:0 8:1 9:1 
19.71353838980684 0:0.353789 1:0.03977699 2:0.05690993 3:0.04701273 4:0.0429836 5:0 6:0 7:0 8:1 9:1 
256 0:0.398003 1:0.2718377 2:0.2569685 3:0.2665907 4:0.205174 5:0 6:0 7:0 8:1 9:0.3285078 
256 0:0.3796759 1:0.06364442 2:0.04627719 3:0.05075528 4:0.1493676 5:0 6:0 7:0 8:1 9:0.2806265 
256 0:0.3558545 1:0.03192336 2:0.05568455 3:0.04449856 4:0.1174 5:0 6:0 7:0 8:1 9:1 
256 0:0.33817 1:0.05978435 2:0.05903591 3:0.05944387 4:0.1110307 5:0 6:0 7:0 8:1 9:1 
256 0:0.3913146 1:0.06843148 2:0.07977311 3:0.07333943 4:0.08088243 5:0.09090909 6:0 7:0 8:1 9:1 
256 0:0.3707237 1:0.01802853 2:0.01696104 3:0.01829591 4:0.004412539 5:0 6:0 7:0 8:1 9:1 
256 0:0.3898436 1:0.08625709 2:0.06095097 3:0.07436814 4:0.02052873 5:0 6:0 7:0 8:1 9:1 
256 0:0.3964575 1:0.06088465 2:0.0380876 3:0.05099769 4:0.1276287 5:0 6:0 7:0 8:1 9:0.2839409 
256 0:0.3304906 1:0.0002198038 2:0 3:0 4:0.05261885 5:0.1525424 6:0 7:0 8:1 9:1 
256 0:0.330457 1:0 2:0 3:0 4:0.05136906 5:0.147541 6:0 7:0 8:1 9:1 
256 0:0.3987722 1:0.02885041 2:0.04601732 3:0.03847906 4:0.105775 5:0 6:0 7:0 8:1 9:0.1296085 
256 0:0.3551622 1:0.0856261 2:0.07536168 3:0.07894636 4:0.1073194 5:0.2916667 6:0 7:0 8:1 9:1 
256 0:0.3802546 1:0.03865079 2:0.06325696 3:0.05144762 4:0.1237947 5:0 6:0 7:0 8:1 9:1 
256 0:0.3566522 1:0.07132255 2:0.07101028 3:0.07118393 4:0.1176386 5:0 6:0 7:0 8:1 9:1 
256 0:0.3368815 1:0.09681594 2:0.08660528 3:0.09247316 4:0.1667961 5:0 6:0 7:0 8:1 9:0.09505232 
256 0:0.349277 1:0 2:0 3:0 4:0.0195423 5:0.8823529 6:0 7:0 8:1 9:0.1569924 
256 0:0.3549867 1:0.03215569 2:0.06311949 3:0.04708827 4:0.0762973 5:0.01470588 6:0 7:0 8:1 9:0.2788056 
256 0:0.3275116 1:0 2:0 3:0 4:0 5:0.1481481 6:0 7:0 8:1 9:0 
256 0:0.1244893 1:0.2416044 2:0.2545679 3:0.2565931 4:0.3972308 5:0 6:0 7:0 8:1 9:0.1041385 
256 0:0.3395583 1:0.04594265 2:0.04124899 3:0.04123668 4:0.1432891 5:0.04878049 6:0 7:0 8:1 9:0.1035522 
256 0:0.3394006 1:0.0256124 2:0.02308275 3:0.02118555 4:0.144568 5:0.04081633 6:0 7:0 8:1 9:0.1931099 
256 0:0.3394719 1:0.04554094 2:0.02961425 3:0.03495388 4:0.1459535 5:0.03703704 6:0 7:0 8:1 9:0.1444123 
256 0:0.3294069 1:0.08518723 2:0.1073739 3:0.09753764 4:0.1776329 5:0 6:0 7:0 8:1 9:1 
256 0:0.3764777 1:0.02732593 2:0.02356448 3:0.02650537 4:0 5:0 6:0 7:0 8:1 9:1 
256 0:0.3276796 1:0 2:0 3:0 4:0 5:0.4 6:0 7:0 8:1 9:0.2728505 
256 0:0.3767867 1:0.01330518 2:0 3:0.011718 4:0 5:0.2352941 6:0 7:0 8:1 9:1 
256 0:0.327769 1:0 2:0 3:0 4:0 5:0.4705882 6:0 7:0 8:1 9:1 
256 0:0.348805 1:0.1290747 2:0.1348588 3:0.1342843 4:0.2352812 5:0 6:0 7:0 8:1 9:0.1485203 
256 0:0.327947 1:0 2:0 3:0 4:0 5:0.4 6:0 7:0 8:1 9:0.0991861 
256 0:0.3411218 1:0.1020453 2:0.1097218 3:0.1065126 4:0.1949378 5:0 6:0 7:0 8:1 9:0.06354685 
256 0:0.3714385 1:0.05125925 2:0.01286578 3:0.02845231 4:0.1190519 5:0.03703704 6:0 7:0 8:1 9:0.2476729 
256 0:0.379192 1:0.2396723 2:0.24068 3:0.2407044 4:0.08380401 5:0 6:0 7:0 8:1 9:0.145431 
256 0:0.3776056 1:0.02896827 2:0.004667931 3:0.01351953 4:0 5:0 6:0 7:0 8:1 9:0.2255474 
256 0:0.3652256 1:0.0174206 2:0.03753915 3:0.0300798 4:0.137936 5:0 6:0 7:0 8:1 9:0.1963547 
256 0:0.330827 1:0.02151262 2:0.0549033 3:0.03982679 4:0.2081646 5:0 6:0 7:0 8:1 9:0.228536 
256 0:0.3364532 1:0.2568654 2:0.2472511 3:0.2522941 4:0.1456761 5:0 6:0 7:0 8:1 9:0.2273043 
256 0:0.3476683 1:0.05615732 2:0.02195397 3:0.03975815 4:0.1399677 5:0 6:0 7:0 8:1 9:0.2868182 
11.33582707673405 0:0.3505547 1:0.2618279 2:0.259542 3:0.2619973 4:0.1546979 5:0 6:0 7:0 8:1 9:0.2447164 
256 0:0.3480514 1:0 2:0 3:0.0002198038 4:0 5:1 6:0 7:0 8:1 9:0.1997158 
256 0:0.3400651 1:0.04590737 2:0.01038919 3:0.02866049 4:0.1237491 5:0 6:0 7:0 8:1 9:1 
256 0:0.3703976 1:0.09050778 2:0.05627177 3:0.07559618 4:0.08932171 5:0 6:0 7:0 8:1 9:1 
256 0:0.3349468 1:0.02995421 2:0.06049997 3:0.04470671 4:0.09616553 5:0 6:0 7:0 8:1 9:1 
256 0:0.3357102 1:0.01875111 2:0.032197 3:0.01248653 4:0.1171552 5:0 6:0 7:0 8:1 9:0.2447678 
87.86102208505767 0:0.1240823 1:0.3389184 2:0.3449609 3:0.3521684 4:0.3705119 5:0 6:0 7:0 8:1 9:0.08270863 
256 0:0.3504471 1:0.2405771 2:0.240396 3:0.2407274 4:0.09409563 5:0 6:0 7:0 8:1 9:0.1552439 
256 0:0.3293492 1:0 2:0 3:0 4:0 5:0 6:0 7:0 8:1 9:1 
256 0:0.3317968 1:0.2312981 2:0.2701795 3:0.2528748 4:0.2246902 5:0 6:0 7:0 8:1 9:0.2343888 
256 0:0.350433 1:0.255773 2:0.2344482 3:0.2479311 4:0.2631483 5:0 6:0 7:0 8:1 9:0.2377912 
256 0:0.3295711 1:0 2:0 3:0 4:0 5:0 6:0 7:0 8:1 9:1 
256 0:0.4179223 1:0.1589715 2:0.1474743 3:0.1563141 4:0.1985269 5:0 6:0 7:0 8:1 9:0.2147803 
256 0:0.3524496 1:0.01974402 2:0.06321947 3:0.04022718 4:0.07104062 5:0 6:0 7:0 8:1 9:0.2728603 
256 0:0.3381705 1:0.147902 2:0.3279541 3:0.2372736 4:0.1712501 5:0 6:0 7:0 8:1 9:0.3294779 
256 0:0.5462373 1:0.01907178 2:0.04038791 3:0.02884036 4:0.05631045 5:0 6:0 7:0 8:1 9:1 
256 0:0.5902075 1:0.06801037 2:0.0497301 3:0.05857269 4:0.03242885 5:0 6:0 7:0 8:1 9:1 
256 0:0.6037723 1:0.1180884 2:0.1049902 3:0.1113419 4:0.09231494 5:0 6:0 7:0 8:1 9:1 
256 0:0.4980085 1:0.1831317 2:0.15221 3:0.1684355 4:0.1512665 5:0 6:0 7:0 8:1 9:1 
256 0:0.5755363 1:0.06288368 2:0.02692416 3:0.04516457 4:0.09532598 5:0.03333334 6:0 7:0 8:1 9:1 
256 0:0.5933697 1:0.1049754 2:0.06004801 3:0.08250172 4:0.0823689 5:0.03333334 6:0 7:0 8:1 9:1 
256 0:0.4810182 1:0.1528106 2:0.1318632 3:0.1430155 4:0.117334 5:0 6:0 7:0 8:1 9:1 
256 0:0.6948648 1:0.07728808 2:0.03739464 3:0.05667226 4:0.04984861 5:0 6:0 7:0 8:1 9:0.6585431 
256 0:0.4431209 1:0.09442256 2:0.04339056 3:0.07052971 4:0.1201775 5:0 6:0 7:0 8:1 9:1 
256 0:0.4910027 1:0.08604698 2:0.05644559 3:0.07216476 4:0.08465111 5:0 6:0 7:0 8:1 9:1 
256 0:0.4981038 1:0.1498493 2:0.1244606 3:0.1387049 4:0.1580243 5:0 6:0 7:0 8:1 9:1 
256 0:0.4981299 1:0.1522169 2:0.1305797 3:0.1434338 4:0.1569924 5:0 6:0 7:0 8:1 9:1 
256 0:0.4184301 1:0.05711528 2:0.06066171 3:0.05777764 4:0.0637728 5:0 6:0 7:0 8:1 9:1 
256 0:0.3856892 1:0.04276482 2:0 3:0.01597216 4:0.08532251 5:0 6:0 7:0 8:1 9:0.3769092 
256 0:0.6862788 1:0.02756892 2:0.08306125 3:0.05371738 4:0.02763108 5:0 6:0 7:0 8:1 9:0.6646827 
256 0:0.5177343 1:0.08131253 2:0.1190643 3:0.0999145 4:0.1439619 5:0 6:0 7:0 8:1 9:1 
256 0:0.6859423 1:0.06370597 2:0.0917827 3:0.07581719 4:0.02065662 5:0 6:0 7:0 8:1 9:1 
256 0:0.4846065 1:0.05052175 2:0.08900913 3:0.06462838 4:0.02096889 5:0.02222222 6:0 7:0 8:1 9:1 
256 0:0.4086837 1:0.07866578 2:0.09562363 3:0.08422531 4:0.1724717 5:0.01111111 6:0 7:0 8:1 9:1 
256 0:0.4132627 1:0.1144936 2:0.07103518 3:0.08868069 4:0.07205094 5:0.04444445 6:0 7:0 8:1 9:1 
256 0:0.4868875 1:0.1002114 2:0.1389918 3:0.1168398 4:0.04917561 5:0.02222222 6:0 7:0 8:1 9:1 
256 0:0.4159779 1:0.2614669 2:0.2129628 3:0.2407776 4:0.2427616 5:0 6:0 7:0 8:1 9:1 
256 0:0.4700328 1:0.1467349 2:0.09906533 3:0.1253377 4:0.1417144 5:0.04444445 6:0 7:0 8:1 9:1 
256 0:0.4821939 1:0.05875372 2:0.09991862 3:0.07896231 4:0.05296701 5:0 6:0 7:0 8:1 9:1 
256 0:0.4168805 1:0.1076856 2:0.05298116 3:0.08144082 4:0.1119836 5:0 6:0 7:0 8:1 9:1 
256 0:0.4051348 1:0.09692533 2:0.06486421 3:0.08268884 4:0.1297712 5:0 6:0 7:0 8:1 9:1 
256 0:0.4951388 1:0.09656513 2:0.1259641 3:0.1128634 4:0.1156667 5:0 6:0 7:0 8:1 9:1 
256 0:0.5681641 1:0.07248075 2:0.09616327 3:0.08541787 4:0.07591549 5:0 6:0 7:0 8:1 9:0.4778794 
256 0:0.3978493 1:0.04025842 2:0.02567366 3:0.03431961 4:0.1067475 5:0 6:0 7:0 8:1 9:1 
256 0:0.4819412 1:0.1393499 2:0.1298908 3:0.1339615 4:0.04587892 5:0.07777778 6:0 7:0 8:1 9:1 
256 0:0.6118201 1:0.02204732 2:0.007721389 3:0.008174275 4:0.124313 5:0.04444445 6:0 7:0 8:1 9:0.5633934 
256 0:0.5756429 1:0.08632223 2:0.1101832 3:0.09873623 4:0.1026177 5:0.1428571 6:0 7:0 8:1 9:1 
160.8588674840119 0:0.5036182 1:0.2200841 2:0.1750705 3:0.1994814 4:0.2901241 5:0 6:0 7:0 8:1 9:0.4566633 
256 0:0.4364354 1:0.1496474 2:0.1782428 3:0.1644346 4:0.09689806 5:0.03333334 6:0 7:0 8:1 9:1 
256 0:0.4535092 1:0.1588012 2:0.1513639 3:0.1546465 4:0.07450053 5:0.03333334 6:0 7:0 8:1 9:0.3141511 
256 0:0.4635033 1:0.1345367 2:0.1347648 3:0.1343283 4:0.06729092 5:0.03333334 6:0 7:0 8:1 9:0.3150717 
256 0:0.4722423 1:0.144287 2:0.1371934 3:0.1411948 4:0.2392412 5:0 6:0 7:0 8:1 9:1 
81.6074504383726 0:0.6060279 1:0.1081472 2:0.1068689 3:0.1078732 4:0.06678406 5:0 6:0 7:0 8:1 9:1 
256 0:0.5821069 1:0.01752706 2:0.02386201 3:0.01219484 4:0.06541477 5:0.01111111 6:0 7:0 8:1 9:1 
256 0:0.5360792 1:0.1269379 2:0.1492629 3:0.1357269 4:0.02978917 5:0.1777778 6:0 7:0 8:1 9:0.5236257 
256 0:0.5490351 1:0.006975126 2:0.06044196 3:0.03241916 4:0.07987475 5:0.04444445 6:0 7:0 8:1 9:0.5187988 
256 0:0.4639246 1:0.2290796 2:0.244454 3:0.2366355 4:0.1188221 5:0.1222222 6:0 7:0 8:1 9:0.4339065 
256 0:0.4167588 1:0.1409643 2:0.1148543 3:0.1297433 4:0.1951383 5:0 6:0 7:0 8:1 9:1 
256 0:0.5409767 1:0.152365 2:0.1829868 3:0.1680757 4:0.1341648 5:0.03333334 6:0 7:0 8:1 9:1 
256 0:0.4274332 1:0.2604027 2:0.2424252 3:0.2522961 4:0.241707 5:0 6:0 7:0 8:1 9:0.2551546 
256 0:0.4301578 1:0.2171952 2:0.2282253 3:0.2254293 4:0.1754435 5:0 6:0 7:0 8:1 9:0.184547 
256 0:0.5138862 1:0.2042715 2:0.2317535 3:0.2194099 4:0.2026645 5:0.03333334 6:0 7:0 8:1 9:0.3461847 
256 0:0.3887737 1:0.1054402 2:0.1270371 3:0.1167231 4:0.07596875 5:0.02222222 6:0 7:0 8:1 9:0.2099261 
256 0:0.6418501 1:0.07456777 2:0.09068409 3:0.08097433 4:0.1232014 5:0.02222222 6:0 7:0 8:1 9:0.4715622 
256 0:0.5157962 1:0.03682998 2:0.04708673 3:0.04085741 4:0.07390112 5:0 6:0 7:0 8:1 9:1 
256 0:0.4308935 1:0.01938091 2:0.02076278 3:0 4:0.1935393 5:0.01111111 6:0 7:0 8:1 9:1 
256 0:0.4648567 1:0.1667876 2:0.1976788 3:0.1836868 4:0.2698796 5:0 6:0 7:0 8:1 9:0.4024812 
256 0:0.5772386 1:0.06988914 2:0.09313405 3:0.08175283 4:0.07558369 5:0.1 6:0 7:0 8:1 9:1 
256 0:0.5319533 1:0 2:0.02506889 3:0.01091976 4:0.06685794 5:0 6:0 7:0 8:1 9:1 
256 0:0.4863809 1:0.02842087 2:0.03787823 3:0.02668255 4:0.02810796 5:0.09090909 6:0 7:0 8:1 9:0.451078 
256 0:0.5260676 1:0.04424739 2:0.05480321 3:0.04756545 4:0.1083886 5:0 6:0 7:0 8:1 9:0.5031049 
256 0:0.5253655 1:0.04731673 2:0.06009634 3:0.0500007 4:0.111617 5:0 6:0 7:0 8:1 9:0.5029503 
256 0:0.4878308 1:0.02186575 2:0.06377734 3:0.04204307 4:0.09149677 5:0 6:0 7:0 8:1 9:0.4427992 
256 0:0.6137309 1:0.0712492 2:0.08294158 3:0.0751854 4:0.05500761 5:0 6:0 7:0 8:1 9:0.5992464 
256 0:0.5196404 1:0.0927846 2:0.09906044 3:0.09530843 4:0.1517642 5:0 6:0 7:0 8:1 9:0.5051219 
256 0:0.4661919 1:0.06781579 2:0.09163205 3:0.07927943 4:0.1112859 5:0 6:0 7:0 8:1 9:1 
256 0:0.5688114 1:0.02876905 2:0.03066618 3:0.02647709 4:0.063221 5:0 6:0 7:0 8:1 9:1 
256 0:0.4197052 1:0.1016666 2:0.05950448 3:0.08194697 4:0 5:0.03225806 6:0 7:0 8:1 9:0.3555215 
256 0:0.5223604 1:0.054071 2:0.06728733 3:0.06035944 4:0.1731387 5:0 6:0 7:0 8:1 9:1 
256 0:0.4208823 1:0.0859588 2:0.06300362 3:0.07644284 4:0.1681425 5:0 6:0 7:0 8:1 9:1 
256 0:0.4009019 1:0.2835896 2:0.2989575 3:0.2925605 4:0.1884 5:0 6:0 7:0 8:1 9:1 
256 0:0.7185852 1:0.05071476 2:0.05525067 3:0.05295651 4:0.09031904 5:0 6:0 7:0 8:1 9:0.6382235 
256 0:0.590128 1:0.02904325 2:0.008498827 3:0.0178074 4:0.08134232 5:0 6:0 7:0 8:1 9:1 
256 0:0.5879594 1:0.03215493 2:0.0168682 3:0.02430048 4:0.08039222 5:0 6:0 7:0 8:1 9:1 
256 0:0.6899474 1:0.08750216 2:0.08521708 3:0.08620425 4:0.06267131 5:0 6:0 7:0 8:1 9:1 
256 0:0.4528594 1:0.06316394 2:0.08717503 3:0.07480703 4:0.1018245 5:0 6:0 7:0 8:1 9:1 
256 0:0.505372 1:0.09453189 2:0.09614182 3:0.0959095 4:0.0740484 5:0 6:0 7:0 8:1 9:1 
256 0:0.3986188 1:0.03579225 2:0.06480487 3:0.04697208 4:0.0613419 5:0 6:0 7:0 8:1 9:1 
256 0:0.4605944 1:0.1316677 2:0.1146816 3:0.1229974 4:0.07041808 5:0 6:0 7:0 8:1 9:1 
256 0:0.4982557 1:0.1145375 2:0.09454702 3:0.1046497 4:0.106578 5:0 6:0 7:0 8:1 9:0.4314736 
256 0:0.7066427 1:0.07812703 2:0.06872196 3:0.07232728 4:0.0699601 5:0 6:0 7:0 8:1 9:1 
153.9423222513251 0:0.4221686 1:0.2225785 2:0.1900441 3:0.209473 4:0.2285573 5:0 6:0 7:0 8:1 9:1 
89.96856416211484 0:0.5143593 1:0.1374593 2:0.185023 3:0.1567119 4:0.2333028 5:0 6:0 7:0 8:1 9:1 
256 0:0.6036319 1:0.02988798 2:0.05813159 3:0.04255458 4:0.06419522 5:0 6:0 7:0 8:1 9:0.5973423 
256 0:0.6026893 1:0.1312941 2:0.1061205 3:0.1192949 4:0.1254854 5:0 6:0 7:0 8:1 9:1 
256 0:0.6034926 1:0.1200438 2:0.08348396 3:0.1021523 4:0.1161435 5:0 6:0 7:0 8:1 9:1 
256 0:0.7041072 1:0.04083552 2:0.0299655 3:0.03447699 4:0.07496835 5:0.02222222 6:0 7:0 8:1 9:0.5281366 
256 0:0.4699111 1:0.1313909 2:0.09745605 3:0.1151625 4:0.1536395 5:0 6:0 7:0 8:1 9:1 
256 0:0.5027086 1:0.05802163 2:0.04354184 3:0.04994214 4:0.1632192 5:0 6:0 7:0 8:1 9:1 
256 0:0.4018298 1:0.0331934 2:0.02566236 3:0.02682886 4:0.1805186 5:0 6:0 7:0 8:1 9:1 
256 0:0.5981287 1:0.01706329 2:0.02681714 3:0.02115588 4:0.1314791 5:0.01111111 6:0 7:0 8:1 9:0.2902814 
154.735999813758 0:0.4938489 1:0.0535695 2:0.1482363 3:0.09894407 4:0.09070492 5:0 6:0 7:0 8:1 9:0.4583744 
256 0:0.5556673 1:0.09753391 2:0.147777 3:0.1221944 4:0.1779957 5:0.04444445 6:0 7:0 8:1 9:0.4905475 
256 0:0.6097056 1:0.01931098 2:0.07958039 3:0.0465673 4:0.1378984 5:0 6:0 7:0 8:1 9:0.5193249 
256 0:0.4238679 1:0.2158224 2:0.2175596 3:0.2202713 4:0.2305936 5:0 6:0 7:0 8:1 9:0.2240818 
256 0:0.5429066 1:0.0386808 2:0.04806356 3:0.04234501 4:0.1499924 5:0 6:0 7:0 8:1 9:0.2234166 
256 0:0.5247381 1:0.07912746 2:0.1020468 3:0.08995656 4:0.2061746 5:0 6:0 7:0 8:1 9:0.3621734 
256 0:0.7282726 1:0 2:0.03583072 3:0.01009913 4:0.1909683 5:0 6:0 7:0 8:1 9:0.6003507 
256 0:0.5962443 1:0.1155558 2:0.1082616 3:0.1117349 4:0.1045451 5:0 6:0 7:0 8:1 9:1 
256 0:0.634544 1:0.08180822 2:0.09811231 3:0.08875883 4:0.02272832 5:0 6:0 7:0 8:1 9:1 
256 0:0.5251763 1:0.07977676 2:0.06274501 3:0.07182211 4:0.115665 5:0 6:0 7:0 8:1 9:0.3788086 
256 0:0.5146227 1:0.1278796 2:0.1198797 3:0.1242946 4:0.1673003 5:0 6:0 7:0 8:1 9:0.2117627 
256 0:0.5147985 1:0.1267492 2:0.1143803 3:0.1209457 4:0.1676861 5:0 6:0 7:0 8:1 9:0.2742576 
256 0:0.4124335 1:0.2567212 2:0.2582358 3:0.2601596 4:0.1963901 5:0 6:0 7:0 8:1 9:0.2717878 
256 0:0.4873829 1:0.0275233 2:0.01105826 3:0.01762192 4:0.0880766 5:0.04761905 6:0 7:0 8:1 9:1 
256 0:0.5264582 1:0.1487682 2:0.159311 3:0.1553225 4:0.2951545 5:0 6:0 7:0 8:1 9:0.5118199 
256 0:0.5011999 1:0.3070887 2:0.3053532 3:0.3073715 4:0.1713784 5:0 6:0 7:0 8:1 9:1 
256 0:0.5013696 1:0.3236669 2:0.2986671 3:0.312655 4:0.1855224 5:0 6:0 7:0 8:1 9:0.4676515 
256 0:0.5046261 1:0.06429202 2:0.07552376 3:0.06883738 4:0.171618 5:0 6:0 7:0 8:1 9:1 
256 0:0.4869576 1:0.1134741 2:0.1168188 3:0.1166754 4:0.08158941 5:0 6:0 7:0 8:1 9:1 
256 0:0.5113545 1:0 2:0 3:0 4:0.1573813 5:1 6:0 7:0 8:1 9:0.468357 
256 0:0.5619064 1:0.2683229 2:0.2691001 3:0.2722457 4:0.2574827 5:0 6:0 7:0 8:1 9:0.2704532 
256 0:0.5525895 1:0.2814893 2:0.2701994 3:0.2781175 4:0.2586407 5:0 6:0 7:0 8:1 9:0.3093837 
256 0:0.5214739 1:0.1795742 2:0.1673363 3:0.1734354 4:0.07260723 5:0.5277778 6:0 7:0 8:1 9:0.2649192 
256 0:0.5779885 1:0.2456687 2:0.2458463 3:0.2489821 4:0.3413446 5:0 6:0 7:0 8:1 9:0.2556325 
256 0:0.578009 1:0.2458986 2:0.2528105 3:0.2526075 4:0.341709 5:0 6:0 7:0 8:1 9:0.2392188 
256 0:0.5807155 1:0.5093482 2:0.4495623 3:0.4813156 4:0.292056 5:0 6:0 7:0 8:1 9:0.5369052 
256 0:0.548031 1:0.382415 2:0.303024 3:0.3436699 4:0.2457529 5:0 6:0 7:0 8:1 9:0.5064315 
53.41736581964908 0:0.5454984 1:0.2594902 2:0.3502404 3:0.3051819 4:0.1779373 5:0 6:0 7:0 8:1 9:0.5050921 
256 0:0.5760766 1:0.1339791 2:0.114585 3:0.1244236 4:0.3093241 5:0 6:0 7:0 8:1 9:0.4696454 
256 0:0.5791388 1:0.4169442 2:0.3729156 3:0.3965522 4:0.2542198 5:0 6:0 7:0 8:1 9:0.4999753 
256 0:0.3433501 1:0.005706458 2:0 3:0.005289026 4:0.1333995 5:0 6:0 7:0 8:1 9:0.0714522 
256 0:0.3604135 1:0.02592373 2:0.02734802 3:0.02535164 4:0.05714195 5:0.08 6:0 7:0 8:1 9:0.02171154 
256 0:0.3244879 1:0.214037 2:0.2158256 3:0.2189554 4:0.2790467 5:0 6:0 7:0 8:1 9:0.1227839 
256 0:0.3208342 1:0.07571077 2:0.07198238 3:0.07636741 4:0.2506473 5:0 6:0 7:0 8:1 9:0.04110293 
256 0:0.3431639 1:0.08009128 2:0.06575387 3:0.07352109 4:0.1147433 5:0.03333334 6:0 7:0 8:1 9:0.1070003 
256 0:0.3197045 1:0.2619294 2:0.2393374 3:0.2540355 4:0.2513662 5:0 6:0 7:0 8:1 9:0.2541416 
256 0:0.379133 1:0.02399429 2:0.01509977 3:0.01824037 4:0.02865037 5:0 6:0 7:0 8:1 9:0.2513689 
256 0:0.3433661 1:0.05949472 2:0.06653646 3:0.06044716 4:0.1426124 5:0 6:0 7:0 8:1 9:0.1254989 
256 0:0.3248198 1:0.07951432 2:0.06770507 3:0.07763916 4:0.2942148 5:0 6:0 7:0 8:1 9:0.104769 
256 0:0.3824432 1:0.1057252 2:0.09521349 3:0.1020551 4:0.1131084 5:0 6:0 7:0 8:1 9:1 
256 0:0.379035 1:0.03887155 2:0.04449041 3:0.03760991 4:0.05737979 5:0 6:0 7:0 8:1 9:1 
256 0:0.319807 1:0 2:0 3:0 4:0.05215814 5:0.3 6:0 7:0 8:1 9:1 
256 0:0.324576 1:0.2131926 2:0.210952 3:0.2164101 4:0.2857712 5:0 6:0 7:0 8:1 9:0.1184677 
256 0:0.3246257 1:0.2169101 2:0.2203859 3:0.2230015 4:0.2859492 5:0 6:0 7:0 8:1 9:0.1273885 
219.1712501713419 0:0.3204857 1:0.1623985 2:0.1628838 3:0.166469 4:0.2625706 5:0 6:0 7:0 8:1 9:0.09758287 
256 0:0.3277408 1:0.1346146 2:0.1359892 3:0.1389597 4:0.2755016 5:0 6:0 7:0 8:1 9:0.07552797 
256 0:0.3604573 1:0.03942049 2:0.04795729 3:0.04336883 4:0.06213119 5:0 6:0 7:0 8:1 9:0.09635319 
256 0:0.3791234 1:0.0216224 2:0.02053461 3:0.02117186 4:0.06004197 5:0 6:0 7:0 8:1 9:1 
256 0:0.3604564 1:0.1005309 2:0.09345239 3:0.09526085 4:0.06207509 5:0.04545455 6:0 7:0 8:1 9:0.1024957 
256 0:0.3198945 1:0 2:0.0002198038 3:0 4:0.05377993 5:0.3076923 6:0 7:0 8:1 9:0 
256 0:0.3198982 1:0 2:0 3:0 4:0.05384734 5:0.3448276 6:0 7:0 8:1 9:0.167106 
256 0:0.3198635 1:0 2:0 3:0 4:0.05376418 5:0.5116279 6:0 7:0 8:1 9:0 
256 0:0.3217712 1:0.1328464 2:0.124905 3:0.1319023 4:0.2614231 5:0 6:0 7:0 8:1 9:0.09349806 
256 0:0.3290769 1:0.04412812 2:0.03639493 3:0.04272354 4:0.1905204 5:0 6:0 7:0 8:1 9:0.05957593 
256 0:0.320749 1:0.1182594 2:0.1111877 3:0.1188533 4:0.2665653 5:0 6:0 7:0 8:1 9:0.0603083 
256 0:0.3333589 1:0.06466655 2:0.07456616 3:0.07310003 4:0.2295537 5:0 6:0 7:0 8:1 9:0.1099573 
256 0:0.3791779 1:0.2491245 2:0.2603021 3:0.2550609 4:0.05967012 5:0 6:0 7:0 8:1 9:0.1970754 
256 0:0.3277137 1:0.03818711 2:0.03313219 3:0.03652156 4:0.270967 5:0 6:0 7:0 8:1 9:0.1395148 
256 0:0.3206801 1:0.1536582 2:0.1516674 3:0.1566683 4:0.2626053 5:0 6:0 7:0 8:1 9:0.07911951 
256 0:0.3279905 1:0.217504 2:0.2164439 3:0.2204073 4:0.2760687 5:0 6:0 7:0 8:1 9:0.1212118 
256 0:0.3296736 1:0.09140664 2:0.08769111 3:0.09204144 4:0.201471 5:0 6:0 7:0 8:1 9:0.07290103 
2.584257888664146 0:0.3832901 1:0.0974675 2:0.1022197 3:0.1021185 4:0.1171724 5:0 6:0 7:0 8:1 9:0.0884086 
256 0:0.3613137 1:0 2:0 3:0 4:0.0774721 5:1 6:0 7:0 8:1 9:0.01397272 
256 0:0.3208168 1:0 2:0 3:0 4:0.06232909 5:0.04166667 6:0 7:0 8:1 9:0.1464286 
256 0:0.3207816 1:0 2:0 3:0 4:0.06279203 5:0.03030303 6:0 7:0 8:1 9:0.09690119 
256 0:0.3444786 1:0.08756472 2:0.08232213 3:0.086295 4:0.1444161 5:0 6:0 7:0 8:1 9:0.1019968 
256 0:0.3444521 1:0.08940957 2:0.08740074 3:0.08981797 4:0.1442682 5:0 6:0 7:0 8:1 9:0.07797964 
256 0:0.3232797 1:0.05749518 2:0.04505095 3:0.05373764 4:0.279935 5:0 6:0 7:0 8:1 9:0.115955 
256 0:0.334847 1:0.1053228 2:0.1042822 3:0.1077093 4:0.2504268 5:0 6:0 7:0 8:1 9:0.06444649 
256 0:0.3682352 1:0.235535 2:0.2187215 3:0.22732 4:0.1165642 5:0 6:0 7:0 8:1 9:0.1948469 
256 0:0.3682314 1:0.05899287 2:0.06472117 3:0.06055433 4:0.1155091 5:0 6:0 7:0 8:1 9:0.1248754 
256 0:0.3454418 1:0.03274921 2:0.03852803 3:0.03478893 4:0.1390671 5:0.07692308 6:0 7:0 8:1 9:0.08803423 
256 0:0.3345471 1:0.2318991 2:0.2457624 3:0.2413276 4:0.2446142 5:0 6:0 7:0 8:1 9:0.1679267 
256 0:0.3302342 1:0.09195527 2:0.1015859 3:0.09729292 4:0.2037365 5:0 6:0 7:0 8:1 9:0.1149027 
256 0:0.321243 1:0 2:0 3:0 4:0.06224791 5:0.4545455 6:0 7:0 8:1 9:0.1425645 
256 0:0.3374558 1:0.1301327 2:0.1236668 3:0.1291983 4:0.2249756 5:0 6:0 7:0 8:1 9:0.1285135 
256 0:0.321319 1:0 2:0.0002198038 3:0 4:0.0623931 5:1 6:0 7:0 8:1 9:0.07685105 
256 0:0.3446906 1:0.08609146 2:0.08954962 3:0.08896609 4:0.1513246 5:0 6:0 7:0 8:1 9:0.1196772 
256 0:0.3212766 1:0 2:0.0002198038 3:0 4:0.06143254 5:0 6:0 7:0 8:1 9:0 
256 0:0.3805459 1:0 2:0 3:0 4:0.06984271 5:1 6:0 7:0 8:1 9:0.08274392 
256 0:0.3229333 1:0.2410001 2:0.2478627 3:0.2472936 4:0.2711942 5:0 6:0 7:0 8:1 9:0.1419522 
256 0:0.3446879 1:0.07876699 2:0.09064077 3:0.08586094 4:0.1513139 5:0 6:0 7:0 8:1 9:0.06021364 
256 0:0.3219621 1:0.1485077 2:0.146077 3:0.1504195 4:0.2787371 5:0 6:0 7:0 8:1 9:0.09336751 
256 0:0.3619218 1:0.1573887 2:0.1668346 3:0.1610124 4:0.07522565 5:0.04166667 6:0 7:0 8:1 9:0.1879797 
256 0:0.3229371 1:0.02066597 2:0.02045445 3:0.02152609 4:0.2702339 5:0 6:0 7:0 8:1 9:0.1220629 
256 0:0.3454807 1:0.0704363 2:0.07932463 3:0.07207782 4:0.1349714 5:0.02631579 6:0 7:0 8:1 9:0.1547012 
256 0:0.3812367 1:0.05237931 2:0.051394 3:0.05133986 4:0.03274257 5:0 6:0 7:0 8:1 9:0.07084183 
256 0:0.3212689 1:0 2:0 3:0 4:0.06091483 5:0 6:0 7:0 8:1 9:0.1773883 
256 0:0.3447313 1:0.05181063 2:0.04779264 3:0.052017 4:0.1507716 5:0 6:0 7:0 8:1 9:0.1516618 
256 0:0.3303024 1:0.08929185 2:0.09870798 3:0.09646916 4:0.200921 5:0 6:0 7:0 8:1 9:0.1271945 
256 0:0.3212609 1:0 2:0 3:0 4:0.05996254 5:0.5416667 6:0 7:0 8:1 9:0 
256 0:0.3346385 1:0.1040556 2:0.08400296 3:0.09784795 4:0.2414941 5:0 6:0 7:0 8:1 9:0.204531 
256 0:0.3661846 1:0.02688105 2:0.04045667 3:0.03281262 4:0.02633801 5:0 6:0 7:0 8:1 9:0.1045064 
256 0:0.3391101 1:0.0132961 2:0.02563692 3:0.01665632 4:0.1113537 5:0.95 6:0 7:0 8:1 9:0.08671398 
256 0:0.328625 1:0.1689908 2:0.1592414 3:0.1675317 4:0.2787197 5:0 6:0 7:0 8:1 9:0.088949 
256 0:0.3623203 1:0.2335855 2:0.2363405 3:0.2382373 4:0.1766709 5:0 6:0 7:0 8:1 9:0.133686 
256 0:0.3283245 1:0.09419993 2:0.09276604 3:0.09653274 4:0.2384255 5:0 6:0 7:0 8:1 9:0.05012672 
256 0:0.3283798 1:0.09398116 2:0.09462392 3:0.09731062 4:0.2383278 5:0 6:0 7:0 8:1 9:0.0729249 
256 0:0.3571041 1:0.1469613 2:0.148662 3:0.1519044 4:0.2189508 5:0 6:0 7:0 8:1 9:0.08899906 
256 0:0.3236644 1:0.03810029 2:0.03803362 3:0.04214816 4:0.3179209 5:0 6:0 7:0 8:1 9:0.1335008 
256 0:0.3339799 1:0.1258256 2:0.1154599 3:0.125466 4:0.3022587 5:0 6:0 7:0 8:1 9:0.3116083 
256 0:0.3234567 1:0.1707589 2:0.1603921 3:0.1701777 4:0.3137318 5:0 6:0 7:0 8:1 9:0.1642974 
256 0:0.3285832 1:0.171429 2:0.1694376 3:0.1748075 4:0.276089 5:0 6:0 7:0 8:1 9:0.1698841 
256 0:0.342164 1:0.2450895 2:0.2444003 3:0.2502491 4:0.3373604 5:0 6:0 7:0 8:1 9:0.1430651 
256 0:0.3569488 1:0.1830853 2:0.1956248 3:0.1933363 4:0.2172555 5:0 6:0 7:0 8:1 9:0.1579981 
256 0:0.3682047 1:0.225674 2:0.2251266 3:0.2241625 4:0.03239828 5:0 6:0 7:0 8:1 9:0.175846 
256 0:0.3235631 1:0.04932144 2:0.04384451 3:0.05094978 4:0.315565 5:0 6:0 7:0 8:1 9:0.07151057 
256 0:0.3212472 1:0 2:0 3:0 4:0.05724134 5:0.4285714 6:0 7:0 8:1 9:0.1365738 
256 0:0.3212387 1:0.0002198038 2:0 3:0 4:0.057183 5:0.375 6:0 7:0 8:1 9:0.08907013 
256 0:0.3341374 1:0.01340648 2:0.01241084 3:0.008857919 4:0.3045771 5:0.05 6:0 7:0 8:1 9:0.1127974 
256 0:0.3390706 1:0.08851767 2:0.08631718 3:0.08456866 4:0.1054278 5:0.04 6:0 7:0 8:1 9:0.1712154 
256 0:0.3235043 1:0.0426261 2:0.05647515 3:0.05373628 4:0.3141959 5:0 6:0 7:0 8:1 9:0.127965 
256 0:0.3569871 1:0.07023566 2:0.05603917 3:0.06481831 4:0.21917 5:0 6:0 7:0 8:1 9:0.08613081 
256 0:0.3221393 1:0.2033403 2:0.2170668 3:0.2126815 4:0.229035 5:0 6:0 7:0 8:1 9:0.1205821 
256 0:0.4033462 1:0.07208554 2:0.06011445 3:0.06789034 4:0.06330553 5:0 6:0 7:0 8:1 9:0.06971151 
221.7293945121053 0:0.35398 1:0.06520542 2:0.07502486 3:0.06755046 4:0.07800511 5:0 6:0 7:0 8:1 9:1 
256 0:0.3659268 1:0.2643404 2:0.2856004 3:0.2766375 4:0.1691687 5:0 6:0 7:0 8:1 9:1 
256 0:0.5347017 1:0.05835588 2:0.05888738 3:0.05993994 4:0.05534864 5:0 6:0 7:0 8:1 9:0.3961 
256 0:0.4947866 1:0.03708635 2:0.04080591 3:0.04024701 4:0.04025602 5:0 6:0 7:0 8:1 9:0.09204868 
256 0:0.5446118 1:0.0926523 2:0.08768226 3:0.08958561 4:0.08317871 5:0 6:0 7:0 8:1 9:0.2519679 
256 0:0.407528 1:0.2412342 2:0.2335907 3:0.2404693 4:0.2549842 5:0 6:0 7:0 8:1 9:0.1550825 
256 0:0.4678537 1:0.2518637 2:0.2546043 3:0.2573394 4:0.2704133 5:0 6:0 7:0 8:1 9:0.1971072 
197.9119127731036 0:0.3879029 1:0.1762301 2:0.1653203 3:0.1751254 4:0.2374349 5:0 6:0 7:0 8:1 9:0.7661753 
256 0:0.4450928 1:0.06330705 2:0.07214195 3:0.06795127 4:0.01542114 5:0 6:0 7:0 8:1 9:0.6721677 
256 0:0.3788094 1:0.2417365 2:0.2458487 3:0.2476 4:0.1981682 5:0 6:0 7:0 8:1 9:0.1516458 
256 0:0.3733022 1:0.2185478 2:0.2159294 3:0.2205027 4:0.1628282 5:0 6:0 7:0 8:1 9:0.1576894 
256 0:0.5141401 1:0.3014754 2:0.295872 3:0.3014365 4:0.2642879 5:0 6:0 7:0 8:1 9:0.2935359 
256 0:0.4626258 1:0.08627225 2:0.09266642 3:0.09040487 4:0.03995949 5:0 6:0 7:0 8:1 9:0.1631814 
256 0:0.4134975 1:0.1483627 2:0.1288061 3:0.1403794 4:0.2402518 5:0 6:0 7:0 8:1 9:0.3290488 
256 0:0.6831022 1:0.09565279 2:0.1004805 3:0.09797304 4:0.0956903 5:0.08888889 6:0 7:0 8:1 9:0.449269 
191.7143991509985 0:0.5041298 1:0.3263243 2:0.3571355 3:0.3428892 4:0.2142579 5:0 6:0 7:0 8:1 9:1 
256 0:0.5881813 1:0.1749065 2:0.2081431 3:0.1911336 4:0.06326882 5:0.08888889 6:0 7:0 8:1 9:1 
256 0:0.5850826 1:0.1196878 2:0.09581161 3:0.1009413 4:0.1338931 5:0 6:0 7:0 8:1 9:0.524207 
256 0:0.391945 1:0.07818342 2:0.1244424 3:0.1007902 4:0.2182117 5:0 6:0 7:0 8:1 9:0.3263552 
256 0:0.6844119 1:0.2300604 2:0.2460822 3:0.2401703 4:0.1979414 5:0.1333333 6:0 7:0 8:1 9:0.4493698 
256 0:0.4739779 1:0.06159538 2:0.05553406 3:0.05812078 4:0.06800823 5:0 6:0 7:0 8:1 9:0.158966 
256 0:0.4636253 1:0.007985921 2:0.003944244 3:0.004875496 4:0 5:0 6:0 7:0 8:1 9:0.1605874 
256 0:0.4705219 1:0.1091801 2:0.09687002 3:0.1056798 4:0.1410251 5:0.01111111 6:0 7:0 8:1 9:0.138422 
256 0:0.3992279 1:0.2055667 2:0.2180593 3:0.213213 4:0.1909809 5:0.08888889 6:0 7:0 8:1 9:0.7647255 
256 0:0.5905762 1:0.05100812 2:0.05619865 3:0.05351258 4:0.03061255 5:0.01111111 6:0 7:0 8:1 9:0.7463244 
256 0:0.5682316 1:0.07399476 2:0.08586404 3:0.07958556 4:0.1821745 5:0 6:0 7:0 8:1 9:1 
256 0:0.3977212 1:0.06038549 2:0.106061 3:0.08121507 4:0.1312692 5:0 6:0 7:0 8:1 9:1 
256 0:0.3796754 1:0.04879155 2:0.04446541 3:0.04558869 4:0.1269224 5:0 6:0 7:0 8:1 9:0.05448955 
256 0:0.4660315 1:0.07082802 2:0.06588218 3:0.0710815 4:0.1768552 5:0 6:0 7:0 8:1 9:0.4637865 
256 0:0.3747677 1:0.04525281 2:0.05631131 3:0.04929053 4:0.1260499 5:0 6:0 7:0 8:1 9:1 
256 0:0.4078098 1:0.2220653 2:0.2333952 3:0.2299871 4:0.2448371 5:0 6:0 7:0 8:1 9:0.1671525 
256 0:0.4641155 1:0.0435163 2:0.04355406 3:0.04527258 4:0.06723299 5:0 6:0 7:0 8:1 9:0.08096097 
256 0:0.4602669 1:0.2712377 2:0.2700215 3:0.2747924 4:0.2811607 5:0 6:0 7:0 8:1 9:0.2360543 
256 0:0.4846137 1:0.08338059 2:0.09242149 3:0.08768668 4:0.0412572 5:0 6:0 7:0 8:1 9:0.2194578 
256 0:0.4106997 1:0.0401544 2:0.05732749 3:0.04732133 4:0.07121793 5:0 6:0 7:0 8:1 9:0.2337023 
256 0:0.3729683 1:0.2531306 2:0.2613746 3:0.258794 4:0.128419 5:0 6:0 7:0 8:1 9:0.2144454 
256 0:0.5664918 1:0.1040239 2:0.05171299 3:0.07360831 4:0.1869019 5:0 6:0 7:0 8:1 9:0.492567 
256 0:0.5729027 1:0.1014784 2:0.05466976 3:0.07422019 4:0.1848617 5:0 6:0 7:0 8:1 9:0.4870876 
256 0:0.4870159 1:0.2224589 2:0.2292034 3:0.2265347 4:0.1086626 5:0.04 6:0 7:0 8:1 9:0.4416791 
256 0:0.486608 1:0.2640419 2:0.2632967 3:0.2647955 4:0.1310262 5:0.02985075 6:0 7:0 8:1 9:0.2184003 
256 0:0.6742142 1:0.01786429 2:0.01200316 3:0.01344247 4:0.1087004 5:0 6:0 7:0 8:1 9:0.4051788 
256 0:0.3774683 1:0.0450767 2:0.05555539 3:0.05007271 4:0.1104249 5:0 6:0 7:0 8:1 9:0.2827272 
256 0:0.4028745 1:0.04804645 2:0.03964734 3:0.04776683 4:0.2818802 5:0 6:0 7:0 8:1 9:0.09634881 
256 0:0.6083195 1:0.2514594 2:0.2655563 3:0.2584633 4:0.08114942 5:0.07777778 6:0 7:0 8:1 9:1 
256 0:0.4256296 1:0.09011701 2:0.07195041 3:0.08409923 4:0.335453 5:0 6:0 7:0 8:1 9:1 
256 0:0.4897517 1:0.07609327 2:0.06043075 3:0.06706613 4:0.22086 5:0 6:0 7:0 8:1 9:1 
256 0:0.599661 1:0.07098949 2:0.06256814 3:0.06395806 4:0.198302 5:0.03333334 6:0 7:0 8:1 9:1 
256 0:0.6861921 1:0.006378125 2:0.01633706 3:0.009891271 4:0.1392251 5:0.1777778 6:0 7:0 8:1 9:0.1773802 
256 0:0.4286196 1:0.1485215 2:0.1474651 3:0.1489243 4:0.1880813 5:0.01333333 6:0 7:0 8:1 9:0.1367168 
256 0:0.5442262 1:0.08884615 2:0.05048201 3:0.07174758 4:0.2175076 5:0 6:0 7:0 8:1 9:1 
256 0:0.5253034 1:0.1168649 2:0.09429922 3:0.1073974 4:0.1318988 5:0 6:0 7:0 8:1 9:0.4779474 
256 0:0.5758666 1:0.02948913 2:0.04838496 3:0.0378744 4:0.06775973 5:0 6:0 7:0 8:1 9:1 
256 0:0.4911649 1:0.03696427 2:0.04417466 3:0.04126833 4:0.1685116 5:0.2888889 6:0 7:0 8:1 9:0.3207886 
256 0:0.4571673 1:0.063641 2:0.05928984 3:0.06282324 4:0.1989654 5:0.2888889 6:0 7:0 8:1 9:0.06560336 
256 0:0.4863851 1:0.2747183 2:0.2749334 3:0.2774244 4:0.2434747 5:0 6:0 7:0 8:1 9:0.2160263 
256 0:0.4215164 1:0.2495579 2:0.2506062 3:0.2529239 4:0.2406186 5:0 6:0 7:0 8:1 9:0.218395 
256 0:0.3885676 1:0.1155133 2:0.1183941 3:0.1190439 4:0.2095329 5:0 6:0 7:0 8:1 9:0.1579506 
256 0:0.4413003 1:0.03909663 2:0.03237664 3:0.03639626 4:0.1865872 5:0.01111111 6:0 7:0 8:1 9:0.2075089 
256 0:0.5190626 1:0.006075521 2:0.001281666 3:0.001390162 4:0.0212675 5:0 6:0 7:0 8:1 9:0.2803203 
256 0:0.5073292 1:0.1072165 2:0.1045156 3:0.1065905 4:0.1500055 5:0 6:0 7:0 8:1 9:0.1199289 
256 0:0.6259104 1:0.0840612 2:0.0799069 3:0.08231653 4:0.01889743 5:0 6:0 7:0 8:1 9:0.12797 
256 0:0.436104 1:0.1309692 2:0.136292 3:0.1347395 4:0.1985681 5:0.03076923 6:0 7:0 8:1 9:0.1604581 
256 0:0.68538 1:0.06029969 2:0.05335824 3:0.05771942 4:0.1396538 5:0 6:0 7:0 8:1 9:1 
256 0:0.5025409 1:0.1297941 2:0.1580506 3:0.142575 4:0.1951133 5:0 6:0 7:0 8:1 9:1 
256 0:0.5638682 1:0.01319579 2:0.04591791 3:0.02783236 4:0.1392971 5:0 6:0 7:0 8:1 9:0.561201 
256 0:0.6532986 1:0.01878973 2:0.02241037 3:0.01252323 4:0.1537503 5:0 6:0 7:0 8:1 9:1 
256 0:0.6785008 1:0.03804505 2:0.03778943 3:0.03433861 4:0.1489699 5:0 6:0 7:0 8:1 9:1 
256 0:0.6828798 1:0.02544202 2:0.03722686 3:0.02757943 4:0.1490532 5:0 6:0 7:0 8:1 9:1 
256 0:0.4644594 1:0.02276126 2:0.03255232 3:0.02611319 4:0.1496834 5:0 6:0 7:0 8:1 9:0.2676423 
256 0:0.5133247 1:0.03205256 2:0.01795602 3:0.02643051 4:0.199107 5:0.1444445 6:0 7:0 8:1 9:0.4167614 
256 0:0.4755064 1:0.04250513 2:0.05478864 3:0.04779163 4:0.1661228 5:0 6:0 7:0 8:1 9:0.4742251 
256 0:0.6966194 1:0 2:0.0111453 3:0.003108498 4:0.1500701 5:0 6:0 7:0 8:1 9:0.580645 
256 0:0.4789088 1:0.05188293 2:0.06169938 3:0.05612544 4:0.1710939 5:0 6:0 7:0 8:1 9:0.3962003 
256 0:0.4400703 1:0.2204599 2:0.2300601 3:0.2271279 4:0.2711424 5:0 6:0 7:0 8:1 9:0.23878 
256 0:0.5655009 1:0.05547741 2:0.04555474 3:0.05167041 4:0.1904202 5:0 6:0 7:0 8:1 9:0.4514898 
256 0:0.4503947 1:0.11274 2:0.09114798 3:0.103282 4:0.1146704 5:0 6:0 7:0 8:1 9:0.3833756 
256 0:0.4614039 1:0.1031857 2:0.07977007 3:0.09314108 4:0.1367608 5:0 6:0 7:0 8:1 9:0.43672 
256 0:0.4274541 1:0.1335421 2:0.1214989 3:0.1300164 4:0.2207676 5:0.03333334 6:0 7:0 8:1 9:1 
256 0:0.4853013 1:0.08419655 2:0.08546948 3:0.08735442 4:0.1933347 5:0 6:0 7:0 8:1 9:1 
181.010994176707 0:0.4786395 1:0.2673715 2:0.2392933 3:0.2534622 4:0.08638481 5:0 6:0 7:0 8:1 9:1 
256 0:0.6156539 1:0.3757626 2:0.3737322 3:0.3764135 4:0.2411074 5:0 6:0 7:0 8:1 9:0.3863713 
256 0:0.6164004 1:0.3762048 2:0.3686219 3:0.3741504 4:0.2500607 5:0 6:0 7:0 8:1 9:0.3508524 
256 0:0.6843878 1:0.04660415 2:0.03488952 3:0.04151304 4:0.05991895 5:0.01111111 6:0 7:0 8:1 9:0.4223102 
256 0:0.5595082 1:0.1347451 2:0.1224369 3:0.1309287 4:0.1654204 5:0 6:0 7:0 8:1 9:1 
256 0:0.5952868 1:0.1199693 2:0.12825 3:0.125831 4:0.2311309 5:0 6:0 7:0 8:1 9:0.2005879 
256 0:0.4687738 1:0.08385342 2:0.07632934 3:0.08065872 4:0.06842016 5:0 6:0 7:0 8:1 9:0.1335504 
256 0:0.5557799 1:0 2:0.004785479 3:0.002780325 4:0.1129451 5:0 6:0 7:0 8:1 9:0.1819583 
256 0:0.6666951 1:0.04058196 2:0.06326614 3:0.05286646 4:0.09236534 5:0 6:0 7:0 8:1 9:0.4705335 
256 0:0.4424392 1:0.1665238 2:0.1621504 3:0.166702 4:0.1550796 5:0.02222222 6:0 7:0 8:1 9:0.1459138 
256 0:0.4550172 1:0.06037788 2:0.04601049 3:0.05333149 4:0.07425737 5:0.03333334 6:0 7:0 8:1 9:0.1884994 
256 0:0.3989978 1:0.1146085 2:0.09630688 3:0.1067757 4:0.1761927 5:0 6:0 7:0 8:1 9:0.2074198 
256 0:0.4037198 1:0.1494245 2:0.1012163 3:0.1261965 4:0.1980671 5:0 6:0 7:0 8:1 9:0.3818255 
256 0:0.3950832 1:0.1776117 2:0.1763737 3:0.1805783 4:0.232696 5:0 6:0 7:0 8:1 9:0.1193823 
256 0:0.4011956 1:0.208349 2:0.2134088 3:0.2136713 4:0.2359733 5:0 6:0 7:0 8:1 9:0.194156 
256 0:0.6187705 1:0.04083374 2:0.06809963 3:0.05414029 4:0.0707083 5:0 6:0 7:0 8:1 9:1 
256 0:0.5432858 1:0.1038861 2:0.101416 3:0.1031727 4:0.04577816 5:0.03333334 6:0 7:0 8:1 9:0.2811282 
256 0:0.5889778 1:0.09834933 2:0.08040819 3:0.08923076 4:0 5:0.08888889 6:0 7:0 8:1 9:1 
256 0:0.4825897 1:0.1112942 2:0.1041271 3:0.1086144 4:0.1910978 5:0 6:0 7:0 8:1 9:0.2134958 
256 0:0.4594305 1:0 2:0.0002198038 3:0 4:0.006685102 5:1 6:0 7:0 8:1 9:0.1879651 
256 0:0.4820043 1:0.135074 2:0.1075914 3:0.1213297 4:0.1519247 5:0 6:0 7:0 8:1 9:1 
256 0:0.4586363 1:0 2:0 3:0 4:0.0002198038 5:1 6:0 7:0 8:1 9:0.1894588 
256 0:0.4615616 1:0.1196911 2:0.0940562 3:0.1053269 4:0.07454732 5:0 6:0 7:0 8:1 9:1 
256 0:0.4616415 1:0.1572752 2:0.1121793 3:0.1339856 4:0.05703772 5:0 6:0 7:0 8:1 9:1 
256 0:0.4817026 1:0.09525754 2:0.0863402 3:0.09143661 4:0.1711158 5:0 6:0 7:0 8:1 9:0.1753406 
256 0:0.4846159 1:0.2430769 2:0.2620317 3:0.2570844 4:0.2162514 5:0 6:0 7:0 8:1 9:0.2608857 
256 0:0.4816333 1:0.09093979 2:0.08080123 3:0.08649077 4:0.1705384 5:0 6:0 7:0 8:1 9:0.2193791 
256 0:0.4814652 1:0.1007048 2:0.1047058 3:0.1057413 4:0.1942651 5:0 6:0 7:0 8:1 9:0.09431993 
256 0:0.4583864 1:0.1326088 2:0.133369 3:0.1311409 4:0 5:0.6315789 6:0 7:0 8:1 9:0.1004325 
256 0:0.4583289 1:0.1304895 2:0.141642 3:0.134271 4:0 5:0.4705882 6:0 7:0 8:1 9:0.134588 
256 0:0.4812948 1:0.1037644 2:0.09426863 3:0.0991603 4:0.1640616 5:0 6:0 7:0 8:1 9:0.2644021 
256 0:0.5604216 1:0.2589855 2:0.2680953 3:0.2666593 4:0.3203772 5:0 6:0 7:0 8:1 9:0.2851534 
256 0:0.5368873 1:0.2873613 2:0.2984836 3:0.2977908 4:0.2826599 5:0 6:0 7:0 8:1 9:0.2844794 
256 0:0.5604358 1:0.3594708 2:0.3657695 3:0.3660291 4:0.3201814 5:0 6:0 7:0 8:1 9:0.3393829 
147.3304400205652 0:0.5293864 1:0.3929662 2:0.3461265 3:0.3708793 4:0.231975 5:0 6:0 7:0 8:1 9:1 
143.0793037656931 0:0.5623713 1:0.2026959 2:0.1650969 3:0.1834414 4:0.2699568 5:0 6:0 7:0 8:1 9:1 
256 0:0.5604012 1:0.2557082 2:0.2694907 3:0.2650759 4:0.3149346 5:0 6:0 7:0 8:1 9:0.3164141 
256 0:0.5604618 1:0.2585414 2:0.2692292 3:0.2665899 4:0.3151108 5:0 6:0 7:0 8:1 9:0.3035667 
256 0:0.5604295 1:0.2571434 2:0.2629929 3:0.2625816 4:0.3139938 5:0 6:0 7:0 8:1 9:0.3035433 
256 0:0.5364713 1:0.2782744 2:0.2895072 3:0.2883923 4:0.2468009 5:0 6:0 7:0 8:1 9:0.3009923 
222.7977208561494 0:0.5626336 1:0.3866756 2:0.367552 3:0.3792332 4:0.3044668 5:0 6:0 7:0 8:1 9:0.3913484 
256 0:0.4976262 1:0 2:0 3:0 4:0.0911985 5:1 6:0 7:0 8:1 9:0.2378548 
4.997814998889504 0:0.4976099 1:0.1443653 2:0.1208199 3:0.1326656 4:0.08976857 5:0.8695652 6:0 7:0 8:1 9:1 
256 0:0.5608464 1:0.2567714 2:0.268611 3:0.2656587 4:0.34647 5:0 6:0 7:0 8:1 9:0.3369487 
256 0:0.5369131 1:0.2842406 2:0.2994382 3:0.296629 4:0.2826739 5:0 6:0 7:0 8:1 9:0.3366957 
256 0:0.539192 1:0.2840994 2:0.2741463 3:0.2833492 4:0.2377059 5:0 6:0 7:0 8:1 9:0.3324001 
256 0:0.532642 1:0.1384322 2:0.1382498 3:0.1382095 4:0.2115514 5:0 6:0 7:0 8:1 9:1 
256 0:0.3114892 1:0 2:0 3:0 4:0.06014664 5:0 6:0 7:0 8:1 9:0.1278055 
256 0:0.3640968 1:0.2075669 2:0.2054786 3:0.2091838 4:0.1098944 5:0 6:0 7:0 8:1 9:0.1352615 
256 0:0.3182353 1:0.1905859 2:0.1841263 3:0.191384 4:0.3126402 5:0 6:0 7:0 8:1 9:0.1016783 
256 0:0.3111504 1:0 2:0 3:0 4:0.05837825 5:0 6:0 7:0 8:1 9:0.04760469 
256 0:0.3493949 1:0.04663422 2:0.04228216 3:0.04541282 4:0.12352 5:0 6:0 7:0 8:1 9:0.05582495 
256 0:0.3118306 1:0.2192209 2:0.2113144 3:0.2191302 4:0.2909702 5:0 6:0 7:0 8:1 9:0.1092034 
256 0:0.3180864 1:0.2329078 2:0.2235563 3:0.2323057 4:0.3082707 5:0 6:0 7:0 8:1 9:0.1180163 
256 0:0.365787 1:0.04358125 2:0.04077331 3:0.04348962 4:0.09363174 5:0 6:0 7:0 8:1 9:0.08743808 
256 0:0.3181337 1:0.2347139 2:0.2296222 3:0.2362568 4:0.3096041 5:0 6:0 7:0 8:1 9:0.1234857 
256 0:0.3181301 1:0.2250841 2:0.2227061 3:0.2280763 4:0.309526 5:0 6:0 7:0 8:1 9:0.1149047 
256 0:0.3180539 1:0.2239466 2:0.2252284 3:0.2287994 4:0.3137491 5:0 6:0 7:0 8:1 9:0.1473952 
256 0:0.3272806 1:0.05202862 2:0.05096733 3:0.05206486 4:0.1450802 5:0 6:0 7:0 8:1 9:0.09981156 
256 0:0.3179707 1:0.2248712 2:0.2236521 3:0.228514 4:0.3124191 5:0 6:0 7:0 8:1 9:0.1297795 
256 0:0.3109044 1:0.0002198038 2:0.0002198038 3:0 4:0.05737009 5:0.05263158 6:0 7:0 8:1 9:0.1522302 
256 0:0.3654275 1:0.2263275 2:0.2299452 3:0.2296845 4:0.1297283 5:0 6:0 7:0 8:1 9:0.131454 
256 0:0.3155768 1:0.0328244 2:0.04135025 3:0.03879187 4:0.204583 5:0 6:0 7:0 8:1 9:0.05053506 
256 0:0.3144422 1:0.1908186 2:0.1959151 3:0.1979734 4:0.293062 5:0 6:0 7:0 8:1 9:0.09996371 
256 0:0.3280761 1:0 2:0 3:0 4:0.1456222 5:0.125 6:0 7:0 8:1 9:0.07068923 
256 0:0.3117215 1:0 2:0 3:0 4:0 5:1 6:0 7:0 8:1 9:0.1102739 
256 0:0.3171561 1:0.04367435 2:0.05715 3:0.05115252 4:0.1518582 5:0 6:0 7:0 8:1 9:0.09131483 
256 0:0.3483894 1:0.03646725 2:0.03941682 3:0.03973199 4:0.1107864 5:0 6:0 7:0 8:1 9:0.05998601 
217.2041195334859 0:0.3114601 1:0 2:0 3:0 4:0 5:1 6:0 7:0 8:1 9:0.1038086 
256 0:0.3120599 1:0.02423477 2:0.03087431 3:0.02869504 4:0.2293712 5:0 6:0 7:0 8:1 9:0.07086964 
256 0:0.3608403 1:0.2130458 2:0.1968735 3:0.2068647 4:0.01243223 5:0 6:0 7:0 8:1 9:0.1419122 
256 0:0.3101605 1:0.04965565 2:0.06110954 3:0.05592035 4:0.2237314 5:0 6:0 7:0 8:1 9:0.1609341 
256 0:0.3144596 1:0.04765382 2:0.05796824 3:0.0547458 4:0.249918 5:0 6:0 7:0 8:1 9:0.1523572 
256 0:0.3203165 1:0.08898571 2:0.1004996 3:0.09852279 4:0.1793579 5:0 6:0 7:0 8:1 9:0.1235725 
256 0:0.3102109 1:0 2:0 3:0.0002198038 4:0 5:0.0625 6:0 7:0 8:1 9:0.1347517 
256 0:0.3093766 1:0 2:0 3:0 4:0 5:0.1764706 6:0 7:0 8:1 9:0.1137485 
256 0:0.3089882 1:0.02954644 2:0.02417487 3:0.02669251 4:0.18709 5:0 6:0 7:0 8:1 9:0.1104917 
256 0:0.3470402 1:0.06001698 2:0.06858729 3:0.06765893 4:0.1126256 5:0 6:0 7:0 8:1 9:0.1017949 
256 0:0.347011 1:0.00727352 2:0.005329974 3:0.005375106 4:0.1111501 5:0 6:0 7:0 8:1 9:0.1074695 
256 0:0.3419355 1:0 2:0.004693735 3:0.004729624 4:0 5:0 6:0 7:0 8:1 9:0.1088023 
256 0:0.3170489 1:0.231336 2:0.2201224 3:0.2282422 4:0.2393981 5:0 6:0 7:0 8:1 9:0.1494534 
256 0:0.3483329 1:0.06830334 2:0.05728908 3:0.06474023 4:0.1037122 5:0 6:0 7:0 8:1 9:0.1482104 
256 0:0.3110451 1:0.2073892 2:0.2154466 3:0.2152155 4:0.2550619 5:0 6:0 7:0 8:1 9:0.13838 
256 0:0.311057 1:0.2094923 2:0.2150431 3:0.2162605 4:0.2550894 5:0 6:0 7:0 8:1 9:0.1068924 
256 0:0.3287156 1:0.1091408 2:0.1107268 3:0.1153833 4:0.2866085 5:0 6:0 7:0 8:1 9:0.07351658 
256 0:0.3474132 1:0.2274531 2:0.2157619 3:0.2226076 4:0.05288339 5:0 6:0 7:0 8:1 9:0.1578491 
256 0:0.3472522 1:0.2453583 2:0.2324564 3:0.2401702 4:0.06913001 5:0 6:0 7:0 8:1 9:0.1695124 
256 0:0.3102193 1:0.06775831 2:0.06475406 3:0.06529184 4:0.1597091 5:0 6:0 7:0 8:1 9:0.07920422 
256 0:0.3102095 1:0.0202598 2:0.02652086 3:0.02275488 4:0.1590251 5:0.05714286 6:0 7:0 8:1 9:0.07236903 
256 0:0.3197345 1:0.2034857 2:0.2141408 3:0.2133934 4:0.2379057 5:0 6:0 7:0 8:1 9:0.129296 
256 0:0.343183 1:0.2129681 2:0.2229751 3:0.2223751 4:0.1600082 5:0 6:0 7:0 8:1 9:0.1468469 
256 0:0.3473206 1:0.2707955 2:0.2451078 3:0.2589501 4:0.1050096 5:0 6:0 7:0 8:1 9:0.2148975 
256 0:0.3235565 1:0.2101137 2:0.2142582 3:0.2124846 4:0.08593456 5:0 6:0 7:0 8:1 9:0.1246362 
256 0:0.3136792 1:0.01763699 2:0.003185263 3:0.005196875 4:0.1875941 5:0 6:0 7:0 8:1 9:0.1362871 
256 0:0.3841751 1:0.254865 2:0.2691579 3:0.2672936 4:0.2003114 5:0 6:0 7:0 8:1 9:0.2192202 
256 0:0.3428941 1:0.221038 2:0.2220532 3:0.2254392 4:0.1444126 5:0 6:0 7:0 8:1 9:0.1202827 
256 0:0.3428553 1:0.2157445 2:0.2274843 3:0.2255962 4:0.1461924 5:0 6:0 7:0 8:1 9:0.1613232 
256 0:0.3278876 1:0.2154762 2:0.2262633 3:0.2257508 4:0.2701099 5:0 6:0 7:0 8:1 9:0.1472383 
256 0:0.3448198 1:0.02237368 2:0.02289356 3:0.02450348 4:0 5:0.07692308 6:0 7:0 8:1 9:0.1049852 
256 0:0.3087277 1:0 2:0.0002198038 3:0 4:0 5:0.3333333 6:0 7:0 8:1 9:0.1175161 
256 0:0.346935 1:0.03269603 2:0.03056278 3:0.03371212 4:0.0769565 5:0 6:0 7:0 8:1 9:0.0587974 
256 0:0.3233701 1:0.02554723 2:0.01891788 3:0.02331916 4:0.08553154 5:0 6:0 7:0 8:1 9:0.06839062 
256 0:0.3233581 1:0.02932808 2:0.02022041 3:0.02584064 4:0.08512691 5:0 6:0 7:0 8:1 9:0.08795417 
256 0:0.3396552 1:0.1949232 2:0.2112122 3:0.2074999 4:0.1835527 5:0 6:0 7:0 8:1 9:0.161619 
256 0:0.3451909 1:0 2:0 3:0 4:0 5:1 6:0 7:0 8:1 9:0.07820584 
256 0:0.3452705 1:0 2:0 3:0 4:0 5:1 6:0 7:0 8:1 9:0.05894046 
242.5741977834286 0:0.3092598 1:0 2:0 3:0 4:0 5:0 6:0 7:0 8:1 9:0 
256 0:0.3452365 1:0 2:0 3:0 4:0 5:1 6:0 7:0 8:1 9:0.05535559 
256 0:0.3091519 1:0 2:0 3:0 4:0 5:0.28125 6:0 7:0 8:1 9:0.1830636 
256 0:0.3472526 1:0.258462 2:0.2359192 3:0.2472843 4:0.0761518 5:0 6:0 7:0 8:1 9:0.2094946 
256 0:0.3432264 1:0.02399429 2:0 3:0.01280744 4:0.1382532 5:0.02631579 6:0 7:0 8:1 9:0.1810953 
256 0:0.343125 1:0.05485217 2:0.01646081 3:0.03102189 4:0.1323704 5:0.02173913 6:0 7:0 8:1 9:0.2302329 
256 0:0.3431186 1:0.05249415 2:0.01843536 3:0.03103202 4:0.1313763 5:0.0212766 6:0 7:0 8:1 9:0.2218369 
256 0:0.3452481 1:0.06420389 2:0.06375192 3:0.06381603 4:0 5:0.6666667 6:0 7:0 8:1 9:0.07037971 
256 0:0.3143217 1:0.1017658 2:0.08804633 3:0.09637308 4:0.2112391 5:0 6:0 7:0 8:1 9:0.07052179 
256 0:0.3471833 1:0.2228887 2:0.2139886 3:0.2187979 4:0.03880496 5:0 6:0 7:0 8:1 9:0.1406257 
256 0:0.3089343 1:0 2:0 3:0 4:0 5:0.525 6:0 7:0 8:1 9:0 
256 0:0.3212881 1:0.04923065 2:0.04132569 3:0.04448009 4:0.04250513 5:0.07317073 6:0 7:0 8:1 9:0.06663873 
256 0:0.327943 1:0.03601843 2:0.04320575 3:0.04456968 4:0.2706255 5:0 6:0 7:0 8:1 9:0.0819784 
256 0:0.3104262 1:0.05135588 2:0.06197366 3:0.05979163 4:0.2513538 5:0 6:0 7:0 8:1 9:0.09179275 
256 0:0.339565 1:0.07435903 2:0.07745178 3:0.07900064 4:0.1637015 5:0 6:0 7:0 8:1 9:0.1388886 
256 0:0.3840237 1:0.2127348 2:0.206302 3:0.2127771 4:0.1770771 5:0 6:0 7:0 8:1 9:0.1917398 
256 0:0.4785165 1:0 2:0.002026492 3:0 4:0.01982949 5:1 6:0 7:0 8:1 9:0.1899026 
256 0:0.4637883 1:0.009461869 2:0.0196385 3:0.01553664 4:0 5:0 6:0 7:0 8:1 9:0.2395494 
256 0:0.5804049 1:0.09542285 2:0.08135989 3:0.08824071 4:0.1065835 5:0 6:0 7:0 8:1 9:0.3095046 
256 0:0.547624 1:0.04967123 2:0.03516896 3:0.04208789 4:0.04977579 5:0 6:0 7:0 8:1 9:0.2717689 
256 0:0.5703794 1:0 2:0 3:0 4:0.03917507 5:0.03333334 6:0 7:0 8:1 9:0.2569149 
256 0:0.5810934 1:0.003913501 2:0 3:0 4:0.04545485 5:0.02857143 6:0 7:0 8:1 9:0.3217888 
256 0:0.6041289 1:0.06320109 2:0.04698649 3:0.05557759 4:0.1034292 5:0 6:0 7:0 8:1 9:0.3347294 
256 0:0.6350986 1:0.0002198038 2:0 3:0 4:0.06897578 5:0.08450704 6:0 7:0 8:1 9:0.3123492 
256 0:0.6438547 1:0 2:0.0002198038 3:0.0002198038 4:0.06993311 5:0.07228915 6:0 7:0 8:1 9:0.2106587 
256 0:0.4405649 1:0.03397492 2:0.03750243 3:0.03692567 4:0.007848615 5:0.04444445 6:0 7:0 8:1 9:0.03789935 
256 0:0.6562774 1:0.07520956 2:0.07006901 3:0.07355336 4:0.1349523 5:0 6:0 7:0 8:1 9:0.196312 
102.1914217032219 0:0.3575772 1:0.2636378 2:0.2630501 3:0.2690473 4:0.1765274 5:0 6:0 7:0 8:1 9:0.1521515 
256 0:0.6380149 1:0.008764702 2:0.0008512965 3:0.004678269 4:0.08930732 5:0.05555556 6:0 7:0 8:1 9:0.2501757 
256 0:0.3804564 1:0.1658321 2:0.1764393 3:0.1750452 4:0.2397451 5:0 6:0 7:0 8:1 9:0.1510683 
256 0:0.4617946 1:0.09343112 2:0.08596162 3:0.0900667 4:0.1005437 5:0 6:0 7:0 8:1 9:0.1517591 
256 0:0.411653 1:0.2185509 2:0.2249029 3:0.2259991 4:0.3116888 5:0 6:0 7:0 8:1 9:0.163827 
256 0:0.4584962 1:0.09720389 2:0.0837855 3:0.09083924 4:0.1018562 5:0 6:0 7:0 8:1 9:0.2042148 
256 0:0.6466974 1:0.02737452 2:0.01973667 3:0.0227432 4:0.03760284 5:0 6:0 7:0 8:1 9:0.4085805 
256 0:0.6443057 1:0.06984306 2:0.0823386 3:0.07750773 4:0.1147316 5:0 6:0 7:0 8:1 9:0.3927404 
256 0:0.4522792 1:0.2654292 2:0.260698 3:0.2671281 4:0.1568465 5:0 6:0 7:0 8:1 9:0.2493939 
256 0:0.4643619 1:0.01902358 2:0.02455863 3:0.02160899 4:0.1402455 5:0.03333334 6:0 7:0 8:1 9:0.1940781 
256 0:0.4809163 1:0.06919336 2:0.0770106 3:0.07428964 4:0.195046 5:0.03333334 6:0 7:0 8:1 9:0.2001112 
256 0:0.4448497 1:0.04923262 2:0.04738261 3:0.04908849 4:0.03174649 5:0 6:0 7:0 8:1 9:0.1747355 
256 0:0.5613211 1:0.04151944 2:0.04552235 3:0.04368652 4:0.05518452 5:0 6:0 7:0 8:1 9:0.3160764 
256 0:0.4975629 1:0.073927 2:0.06666727 3:0.07062643 4:0.1870572 5:0 6:0 7:0 8:1 9:0.2695747 
256 0:0.5594935 1:0.04134382 2:0.04327619 3:0.04265671 4:0.0543841 5:0 6:0 7:0 8:1 9:0.282322 
256 0:0.5481323 1:0.05562544 2:0.07321421 3:0.06576196 4:0.1759201 5:0 6:0 7:0 8:1 9:0.3039089 
256 0:0.4409294 1:0.1812335 2:0.1728738 3:0.1785799 4:0.02209768 5:0.1 6:0 7:0 8:1 9:0.2217452 
256 0:0.4788253 1:0.04556695 2:0.04327508 3:0.04503109 4:0.1461692 5:0 6:0 7:0 8:1 9:0.1244264 
256 0:0.4409747 1:0.1800383 2:0.161976 3:0.1722474 4:0.02228278 5:0.1 6:0 7:0 8:1 9:1 
256 0:0.5831495 1:0.06024349 2:0.06210704 3:0.06102951 4:0.1286075 5:0 6:0 7:0 8:1 9:0.09082045 
256 0:0.5726264 1:0.05698214 2:0.05053468 3:0.05389493 4:0.04048773 5:0 6:0 7:0 8:1 9:0.335157 
256 0:0.3822096 1:0.1913397 2:0.1758945 3:0.1860077 4:0.2031058 5:0.08888889 6:0 7:0 8:1 9:0.1893256 
256 0:0.4644604 1:0.06457257 2:0.05079195 3:0.05869358 4:0.04732133 5:0 6:0 7:0 8:1 9:0.2096437 
256 0:0.5259369 1:0.0107974 2:0.01680937 3:0.01421635 4:0.1197225 5:0.2111111 6:0 7:0 8:1 9:0.3596472 
2.132418606459454 0:0.539987 1:0.2613508 2:0.2520361 3:0.2578596 4:0.0340261 5:0 6:0 7:0 8:1 9:0.3065389 
256 0:0.4125245 1:0.2272995 2:0.2194967 3:0.2264267 4:0.1599035 5:0 6:0 7:0 8:1 9:0.1775721 
256 0:0.4794134 1:0.04673987 2:0.04948394 3:0.04650858 4:0.05054233 5:0 6:0 7:0 8:1 9:0.2273419 
256 0:0.4505578 1:0.03939167 2:0.0469484 3:0.04228045 4:0.07208924 5:0 6:0 7:0 8:1 9:0.150979 
256 0:0.611208 1:0.03883858 2:0.03759062 3:0.0367735 4:0.0282255 5:0 6:0 7:0 8:1 9:0.288961 
256 0:0.4602367 1:0.1334981 2:0.1437641 3:0.1426235 4:0.1589461 5:0 6:0 7:0 8:1 9:0.2241998 
256 0:0.3650061 1:0.03646924 2:0.03604862 3:0.03540389 4:0.111777 5:0 6:0 7:0 8:1 9:0.03091348 
256 0:0.6480377 1:0.394814 2:0.4086896 3:0.4053033 4:0.2557265 5:0 6:0 7:0 8:1 9:0.4414944 
24.00022500463905 0:0.6623065 1:0.3760647 2:0.3852213 3:0.3844804 4:0.2679453 5:0 6:0 7:0 8:1 9:0.4556502 
256 0:0.3779164 1:0.2175072 2:0.2269794 3:0.2275962 4:0.2774948 5:0 6:0 7:0 8:1 9:0.1546722 
256 0:0.6185519 1:0.07527296 2:0.06056752 3:0.0677072 4:0.1190597 5:0.05555556 6:0 7:0 8:1 9:0.3334615 
256 0:0.3775121 1:0.1974404 2:0.2064535 3:0.2066015 4:0.228764 5:0 6:0 7:0 8:1 9:0.1698233 
256 0:0.5102252 1:0.09209831 2:0.08668806 3:0.08895247 4:0.0574194 5:0 6:0 7:0 8:1 9:0.2617318 
256 0:0.5478185 1:0.07016532 2:0.05691035 3:0.0627045 4:0.07911001 5:0 6:0 7:0 8:1 9:0.3178454 
256 0:0.5854056 1:0.1841695 2:0.173113 3:0.1795123 4:0 5:0.05555556 6:0 7:0 8:1 9:0.37502 
256 0:0.3660923 1:0.01620789 2:0.008739861 3:0.01180017 4:0.1266362 5:0 6:0 7:0 8:1 9:1 
256 0:0.5807382 1:0.3526288 2:0.3741978 3:0.3649753 4:0.2709345 5:0 6:0 7:0 8:1 9:0.5162797 
256 0:0.5858017 1:0.3630962 2:0.3839822 3:0.3753597 4:0.297041 5:0 6:0 7:0 8:1 9:0.5170223 
256 0:0.3589368 1:0.00295716 2:0 3:0 4:0.08436787 5:0.01111111 6:0 7:0 8:1 9:0.1904004 
256 0:0.6270659 1:0.06002585 2:0.05079576 3:0.0561866 4:0.1340626 5:0 6:0 7:0 8:1 9:0.2814535 
256 0:0.6429432 1:0.06150379 2:0.0603001 3:0.06092477 4:0.1579301 5:0 6:0 7:0 8:1 9:0.5687931 
256 0:0.6550311 1:0.07679807 2:0.08215748 3:0.08038288 4:0.1324683 5:0 6:0 7:0 8:1 9:0.08518938 
256 0:0.5684597 1:0.01218691 2:0.03498844 3:0.02339674 4:0.08630455 5:0 6:0 7:0 8:1 9:1 
256 0:0.3978634 1:0.3001188 2:0.2984809 3:0.2995847 4:0.1876569 5:0 6:0 7:0 8:1 9:1 
256 0:0.4559346 1:0.1042429 2:0.09778473 3:0.1024049 4:0.2394919 5:0 6:0 7:0 8:1 9:0.1930112 
256 0:0.4637503 1:0.1122258 2:0.1082042 3:0.1108316 4:0.2016802 5:0 6:0 7:0 8:1 9:0.1867318 
140.0492522096679 0:0.6624024 1:0.204359 2:0.2038919 3:0.2064288 4:0.1091641 5:0.06666667 6:0 7:0 8:1 9:0.4057728 
256 0:0.4142259 1:0.1416831 2:0.1446043 3:0.1451457 4:0.2512905 5:0.02222222 6:0 7:0 8:1 9:0.1476689 
256 0:0.4818987 1:0.259469 2:0.2494626 3:0.2571355 4:0.1107943 5:0 6:0 7:0 8:1 9:0.262844 
256 0:0.5616349 1:0.05590391 2:0.03634243 3:0.04458053 4:0.04436798 5:0 6:0 7:0 8:1 9:1 
256 0:0.4411781 1:0.2172936 2:0.218976 3:0.2211043 4:0.08197357 5:0 6:0 7:0 8:1 9:0.1703559 
256 0:0.4711043 1:0.02262177 2:0.04159565 3:0.03340316 4:0.007112312 5:0 6:0 7:0 8:1 9:0.2835609 
256 0:0.6185182 1:0.05756204 2:0.04428453 3:0.05158985 4:0.1006277 5:0 6:0 7:0 8:1 9:0.3129663 
256 0:0.4146455 1:0.2648903 2:0.2650652 3:0.2698763 4:0.2517802 5:0 6:0 7:0 8:1 9:0.1750601 
256 0:0.5872206 1:0.3695405 2:0.3644454 3:0.3692015 4:0.2814628 5:0 6:0 7:0 8:1 9:0.3507747 
256 0:0.5642136 1:0.3337859 2:0.3226383 3:0.3302639 4:0.2637165 5:0 6:0 7:0 8:1 9:0.3583632 
256 0:0.3632065 1:0.2590113 2:0.2419388 3:0.2536448 4:0.1150025 5:0 6:0 7:0 8:1 9:0.1922871 
256 0:0.56645 1:0.06645165 2:0.04971649 3:0.05766616 4:0.08866265 5:0 6:0 7:0 8:1 9:0.328688 
256 0:0.4887203 1:0.2639627 2:0.2579556 3:0.2621632 4:0.2387646 5:0 6:0 7:0 8:1 9:0.2881535 
256 0:0.4289743 1:0.1336586 2:0.1324356 3:0.1341007 4:0.1920204 5:0.03333334 6:0 7:0 8:1 9:0.1083193 
256 0:0.4879151 1:0.2473494 2:0.2500079 3:0.253247 4:0.2001722 5:0 6:0 7:0 8:1 9:0.2231288 
256 0:0.4013743 1:0.2275592 2:0.2228751 3:0.2278111 4:0.2788436 5:0.03333334 6:0 7:0 8:1 9:0.2054527 
256 0:0.4331048 1:0.132662 2:0.125195 3:0.1301751 4:0.1936831 5:0.03333334 6:0 7:0 8:1 9:0.1795972 
256 0:0.4972126 1:0 2:0.002437743 3:0 4:0.03149965 5:1 6:0 7:0 8:1 9:0.237225 
256 0:0.5136315 1:0.02103676 2:0.0321617 3:0.02728256 4:0.01256752 5:0 6:0 7:0 8:1 9:0.2786974 
256 0:0.4792835 1:0.02162129 2:0.03319268 3:0.02727371 4:0.06589541 5:0.3529412 6:0 7:0 8:1 9:0.2400374 
256 0:0.4776806 1:0.2321859 2:0.2511441 3:0.2458595 4:0.1846198 5:0 6:0 7:0 8:1 9:0.2853636 
256 0:0.6225491 1:0.07070179 2:0.05224339 3:0.06234189 4:0.1182818 5:0 6:0 7:0 8:1 9:0.3679228 
256 0:0.4099665 1:0.2173288 2:0.2088773 3:0.217421 4:0.1892797 5:0 6:0 7:0 8:1 9:0.1735207 
256 0:0.4705662 1:0.2414669 2:0.2544799 3:0.2518573 4:0.1906294 5:0 6:0 7:0 8:1 9:0.2507592 
256 0:0.4604196 1:0.09155158 2:0.1051325 3:0.09960887 4:0.1192143 5:0.08695652 6:0 7:0 8:1 9:0.2078903 
256 0:0.6427689 1:0.07749304 2:0.06091046 3:0.07010423 4:0.1278058 5:0 6:0 7:0 8:1 9:0.3781582 
256 0:0.4005245 1:0.2685042 2:0.2683459 3:0.2737496 4:0.2362686 5:0 6:0 7:0 8:1 9:0.2139624 
256 0:0.6171864 1:0.05536219 2:0.03531161 3:0.04573378 4:0.08436787 5:0 6:0 7:0 8:1 9:0.3838302 
256 0:0.4689251 1:0.256068 2:0.2664005 3:0.2653605 4:0.1722842 5:0 6:0 7:0 8:1 9:0.2627004 
256 0:0.3730839 1:0.1031878 2:0.105474 3:0.1072776 4:0.1236583 5:0.1 6:0 7:0 8:1 9:0.07583123 
256 0:0.3645022 1:0.1277564 2:0.1323007 3:0.1326341 4:0.07542688 5:0.05555556 6:0 7:0 8:1 9:0.0990922 
256 0:0.4709432 1:0.102317 2:0.09776712 3:0.1005758 4:0.1883083 5:0 6:0 7:0 8:1 9:0.1381311 
256 0:0.512906 1:0.2656003 2:0.2746621 3:0.2726549 4:0.2245911 5:0 6:0 7:0 8:1 9:0.3186433 
256 0:0.5008268 1:0.07658429 2:0.09049036 3:0.08491659 4:0.01385663 5:0 6:0 7:0 8:1 9:0.2360717 
256 0:0.5805996 1:0.3401563 2:0.3410734 3:0.3434929 4:0.300552 5:0 6:0 7:0 8:1 9:0.3767522 
256 0:0.4840467 1:0.0681579 2:0.06651499 3:0.06686735 4:0.1194045 5:0 6:0 7:0 8:1 9:0.1673991 
256 0:0.4974202 1:0.03577605 2:0.04090827 3:0.03827309 4:0.006895009 5:0 6:0 7:0 8:1 9:0.1226753 
256 0:0.519074 1:0.01961388 2:0.03537111 3:0.02714137 4:0.09665097 5:0 6:0 7:0 8:1 9:0.288865 
256 0:0.4207261 1:0.2520691 2:0.2380956 3:0.2482051 4:0.2529249 5:0 6:0 7:0 8:1 9:0.2144779 
256 0:0.4540156 1:0.0804115 2:0.06459954 3:0.07274746 4:0.07739203 5:0 6:0 7:0 8:1 9:0.2201783 
256 0:0.4464852 1:0.08337768 2:0.1017186 3:0.0947087 4:0.1606025 5:0 6:0 7:0 8:1 9:0.2325817 
256 0:0.6097315 1:0.02753822 2:0.02260895 3:0.02543917 4:0.0309954 5:0.2333333 6:0 7:0 8:1 9:0.3238369 
256 0:0.5798662 1:0.4147891 2:0.3705436 3:0.3937007 4:0.2191652 5:0 6:0 7:0 8:1 9:0.5028663 
256 0:0.5901831 1:0.368045 2:0.3469264 3:0.3592695 4:0.2301314 5:0 6:0 7:0 8:1 9:0.5510625 
256 0:0.6009576 1:0.3808722 2:0.3533132 3:0.3689171 4:0.241291 5:0 6:0 7:0 8:1 9:0.5979092 
256 0:0.5576072 1:0.3496144 2:0.3149502 3:0.3336223 4:0.184806 5:0 6:0 7:0 8:1 9:1 
256 0:0.4653782 1:0.2439284 2:0.2576292 3:0.253659 4:0.2304877 5:0 6:0 7:0 8:1 9:0.2463992 
256 0:0.5071891 1:0.2870569 2:0.2864729 3:0.290042 4:0.2793831 5:0 6:0 7:0 8:1 9:0.2268405 
256 0:0.4722514 1:0.06900104 2:0.06268984 3:0.06535184 4:0.1168071 5:0.01111111 6:0 7:0 8:1 9:0.05618268 
256 0:0.458726 1:0.1710137 2:0.1681194 3:0.1706926 4:0.1160163 5:0.01111111 6:0 7:0 8:1 9:0.1554496 
256 0:0.461578 1:0.1361368 2:0.1457355 3:0.1438358 4:0.1767049 5:0.01111111 6:0 7:0 8:1 9:0.1825908 
256 0:0.5943039 1:0 2:0.01964219 3:0.009646449 4:0.07436065 5:0 6:0 7:0 8:1 9:0.3667942 
256 0:0.5142582 1:0.02477122 2:0.01241279 3:0.01668241 4:0.03085865 5:0 6:0 7:0 8:1 9:0.2631897 
256 0:0.3792473 1:0.02294522 2:0.02329531 3:0.02638017 4:0.07351089 5:0 6:0 7:0 8:1 9:0.01441605 
256 0:0.6501435 1:0.05862058 2:0.06208327 3:0.0583882 4:0.01466966 5:0 6:0 7:0 8:1 9:0.3680066 
256 0:0.6637309 1:0.05288339 2:0.05826419 3:0.05540105 4:0.07749835 5:0 6:0 7:0 8:1 9:0.3696859 
256 0:0.6668388 1:0.05573491 2:0.067916 3:0.06243343 4:0.08611145 5:0 6:0 7:0 8:1 9:0.3416229 
256 0:0.3962696 1:0.0462589 2:0.05585283 3:0.05261425 4:0.04184885 5:0 6:0 7:0 8:1 9:0.1319434 
256 0:0.4882507 1:0.0569231 2:0.04464393 3:0.05049112 4:0.1132481 5:0 6:0 7:0 8:1 9:0.2226015 
256 0:0.5703281 1:0.01560491 2:0.03751274 3:0.02737717 4:0.04294027 5:0.04444445 6:0 7:0 8:1 9:0.3514956 
256 0:0.4896696 1:0.2009072 2:0.2144119 3:0.2111304 4:0.172694 5:0.04444445 6:0 7:0 8:1 9:0.2484301 
256 0:0.4733536 1:0.2354868 2:0.2500096 3:0.2467432 4:0.2087993 5:0.04444445 6:0 7:0 8:1 9:0.2613119 
256 0:0.4869593 1:0 2:0 3:0 4:0.005573681 5:1 6:0 7:0 8:1 9:0.3080877 
175.9736131161404 0:0.5219212 1:0.1395813 2:0.1192748 3:0.1309564 4:0.1788398 5:0 6:0 7:0 8:1 9:0.3697594 
256 0:0.487 1:0.1513909 2:0.1196098 3:0.135473 4:0 5:0.5333334 6:0 7:0 8:1 9:1 
256 0:0.5095 1:0.1505925 2:0.1353585 3:0.1447614 4:0.1901249 5:0 6:0 7:0 8:1 9:1 
256 0:0.5163552 1:0 2:0 3:0 4:0.1347135 5:0.1111111 6:0 7:0 8:1 9:0.4731949 
256 0:0.493063 1:0.3369899 2:0.27324 3:0.3065247 4:0.04836747 5:0 6:0 7:0 8:1 9:1 
256 0:0.486907 1:0.02530489 2:0.08087465 3:0.02545911 4:0 5:0.03846154 6:0 7:0 8:1 9:1 
256 0:0.4869297 1:0.2012082 2:0.200759 3:0.1981659 4:0 5:0.02777778 6:0 7:0 8:1 9:0.329624 
256 0:0.4869708 1:0.1830653 2:0.2023385 3:0.1902073 4:0 5:0.025 6:0 7:0 8:1 9:0.3700901 
256 0:0.5620124 1:0.007537744 2:0.001990409 3:0.0002198038 4:0.02292415 5:1 6:0 7:0 8:1 9:0.4571296 
256 0:0.563707 1:0.4087798 2:0.4029219 3:0.4096809 4:0.4666186 5:0 6:0 7:0 8:1 9:0.3479952 
256 0:0.5512041 1:0.1570165 2:0.1396863 3:0.1513015 4:0.4026064 5:0 6:0 7:0 8:1 9:1 
256 0:0.550557 1:0.1536055 2:0.1302816 3:0.1428505 4:0.3592808 5:0 6:0 7:0 8:1 9:1 
256 0:0.5496667 1:0.1485525 2:0.1367781 3:0.1441572 4:0.2988224 5:0 6:0 7:0 8:1 9:0.2717018 
256 0:0.5606279 1:0.3246343 2:0.3256778 3:0.3278893 4:0.2869217 5:0 6:0 7:0 8:1 9:0.9398683 
134.7230062332895 0:0.5864963 1:0.42543 2:0.4119846 3:0.4214989 4:0.4451842 5:0 6:0 7:0 8:1 9:0.3873355 
256 0:0.5590783 1:0.3149117 2:0.3103774 3:0.3158829 4:0.2556685 5:0 6:0 7:0 8:1 9:0.301112 
256 0:0.5741528 1:0.1132667 2:0.1328211 3:0.1247176 4:0.3533328 5:0 6:0 7:0 8:1 9:0.3826147 
256 0:0.5872153 1:0.2481217 2:0.248467 3:0.2497881 4:0.3615399 5:0 6:0 7:0 8:1 9:0.2387408 
256 0:0.5497516 1:0.1246288 2:0.1356074 3:0.128965 4:0.1709325 5:0 6:0 7:0 8:1 9:1 
256 0:0.5746378 1:0.3129634 2:0.3233753 3:0.3196135 4:0.3478835 5:0 6:0 7:0 8:1 9:0.3176089 
256 0:0.5676432 1:0.3099325 2:0.2906386 3:0.3022926 4:0.4116987 5:0 6:0 7:0 8:1 9:0.3637132 
213.7597270227951 0:0.5757285 1:0.3910784 2:0.3999602 3:0.3974623 4:0.4291433 5:0 6:0 7:0 8:1 9:0.4195703 
256 0:0.5519342 1:0.2596755 2:0.2643887 3:0.2638324 4:0.301718 5:0 6:0 7:0 8:1 9:0.2243306 
256 0:0.5377017 1:0 2:0 3:0 4:0.004934595 5:1 6:0 7:0 8:1 9:0.08062938 
256 0:0.3724624 1:0.2532583 2:0.2376387 3:0.2459165 4:0.1392952 5:0 6:0 7:0 8:1 9:0.2923818 
256 0:0.3818636 1:0.235481 2:0.2035813 3:0.22058 4:0.01776393 5:0 6:0 7:0 8:1 9:0.3386112 
256 0:0.3182215 1:0 2:0 3:0.0002198038 4:0 5:0.2708333 6:0 7:0 8:1 9:0.2333629 
256 0:0.320867 1:0.02670065 2:0.0298459 3:0.03024484 4:0.2466819 5:0 6:0 7:0 8:1 9:0.1853625 
256 0:0.3180863 1:0 2:0 3:0.0002198038 4:0 5:0.1884058 6:0 7:0 8:1 9:0.1888371 
256 0:0.3437704 1:0.1454462 2:0.1112737 3:0.1277676 4:0.09883861 5:0.1621622 6:0 7:0 8:1 9:0.2271776 
256 0:0.3202428 1:0.0695976 2:0.07176816 3:0.07161047 4:0.2260703 5:0 6:0 7:0 8:1 9:0.1671907 
256 0:0.3389057 1:0.04984424 2:0.02287667 3:0.03548095 4:0.2096931 5:0 6:0 7:0 8:1 9:0.2013452 
256 0:0.3430943 1:0.2332583 2:0.22211 3:0.2277506 4:0.07526362 5:0 6:0 7:0 8:1 9:0.2219754 
256 0:0.3384006 1:0.05872777 2:0.02461563 3:0.04097439 4:0.178953 5:0 6:0 7:0 8:1 9:0.3361328 
256 0:0.3298934 1:0.2630357 2:0.2445875 3:0.2552888 4:0.1699928 5:0 6:0 7:0 8:1 9:0.2686186 
176.5877561781922 0:0.1058108 1:0.237307 2:0.2305883 3:0.2418455 4:0.4109402 5:0 6:0 7:0 8:1 9:0.0428941 
256 0:0.3290583 1:0 2:0 3:0.0002198038 4:0.2273855 5:1 6:0 7:0 8:1 9:0.2428076 
256 0:0.3298785 1:0.249886 2:0.2491237 3:0.2510594 4:0.1689326 5:0 6:0 7:0 8:1 9:0.2020089 
256 0:0.3382674 1:0.0696831 2:0.07164426 3:0.07116965 4:0.1713095 5:0 6:0 7:0 8:1 9:0.07255699 
256 0:0.3170496 1:0 2:0 3:0 4:0 5:0.0882353 6:0 7:0 8:1 9:0.1961318 
256 0:0.3293711 1:0.1262134 2:0.1200116 3:0.1241061 4:0.2326435 5:0 6:0 7:0 8:1 9:0.07171539 
256 0:0.3172716 1:0 2:0 3:0 4:0 5:0 6:0 7:0 8:1 9:0 
256 0:0.371537 1:0.05901009 2:0.05633922 3:0.05802622 4:0.1059593 5:0 6:0 7:0 8:1 9:0.1879064 
256 0:0.3432986 1:0.04662282 2:0.04641179 3:0.04765179 4:0.0744651 5:0 6:0 7:0 8:1 9:0.02604359 
256 0:0.3722138 1:0.2280155 2:0.234911 3:0.2323173 4:0.1211353 5:0 6:0 7:0 8:1 9:0.2355573 
196.8953275979455 0:0.3816034 1:0.2237382 2:0.190502 3:0.2082893 4:0.02642868 5:0 6:0 7:0 8:1 9:0.2693479 
256 0:0.3177632 1:0 2:0 3:0 4:0 5:0.07692308 6:0 7:0 8:1 9:0.1866767 
256 0:0.381619 1:0.2284564 2:0.194738 3:0.2128081 4:0.02540496 5:0 6:0 7:0 8:1 9:0.272412 
256 0:0.3816031 1:0.2266774 2:0.189313 3:0.2092148 4:0.02540115 5:0 6:0 7:0 8:1 9:0.2822049 
256 0:0.330468 1:0.04122144 2:0.008538529 3:0.02416688 4:0.1656711 5:0.01818182 6:0 7:0 8:1 9:0.2105848 
256 0:0.3304884 1:0.03847843 2:0.01761095 3:0.02735421 4:0.1639815 5:0 6:0 7:0 8:1 9:0.1572716 
256 0:0.3468021 1:0.04456914 2:0.03210002 3:0.03328719 4:0.0946964 5:0 6:0 7:0 8:1 9:0.2431081 
256 0:0.3393467 1:0.07942746 2:0.09030078 3:0.08448897 4:0.1940936 5:0 6:0 7:0 8:1 9:0.1357269 
256 0:0.3651033 1:0.2164051 2:0.2189502 3:0.2188465 4:0.08427966 5:0 6:0 7:0 8:1 9:0.1886721 
256 0:0.3467893 1:0.03040502 2:0.02801841 3:0.02758819 4:0.09502256 5:0 6:0 7:0 8:1 9:0.04757924 
107.2152504108076 0:0.3437418 1:0.2588547 2:0.1194568 3:0.1758079 4:0.07343246 5:0 6:0 7:0 8:1 9:0.3293591 
256 0:0.3179856 1:0.08992665 2:0 3:0 4:0 5:0.2727273 6:0 7:0 8:1 9:1 
256 0:0.3912309 1:0.01646375 2:0 3:0.001203915 4:0.1171179 5:0 6:0 7:0 8:1 9:0.2965955 
256 0:0.3818208 1:0.02478877 2:0.03390513 3:0.02757593 4:0.0227899 5:0.01538462 6:0 7:0 8:1 9:0.2268609 
256 0:0.3820326 1:0.02703343 2:0.03380734 3:0.02874047 4:0.02147215 5:0 6:0 7:0 8:1 9:0.1284688 
256 0:0.3186319 1:0.02949569 2:0.05197328 3:0.03967294 4:0.2155642 5:0 6:0 7:0 8:1 9:0.1413601 
256 0:0.3209286 1:0.01970727 2:0.02728876 3:0.02445313 4:0.2326398 5:0 6:0 7:0 8:1 9:0.1791856 
256 0:0.3471109 1:0.05678781 2:0.05714745 3:0.05730005 4:0.1045989 5:0 6:0 7:0 8:1 9:0.04860785 
256 0:0.3209489 1:0.1208229 2:0.1166531 3:0.1209958 4:0.2322539 5:0 6:0 7:0 8:1 9:0.1106814 
256 0:0.3222912 1:0.06548797 2:0.07929227 3:0.07315069 4:0.2273481 5:0 6:0 7:0 8:1 9:0.08532384 
256 0:0.343918 1:0.06182709 2:0.05078957 3:0.05711951 4:0.08408627 5:0 6:0 7:0 8:1 9:0.07445809 
256 0:0.330463 1:0.1346171 2:0.1248343 3:0.131313 4:0.2606583 5:0 6:0 7:0 8:1 9:0.1072448 
256 0:0.3222366 1:0.0266907 2:0.04406891 3:0.03575036 4:0.2271345 5:0 6:0 7:0 8:1 9:0.125489 
256 0:0.3180897 1:0 2:0.0002198038 3:0 4:0.0002198038 5:0.04255319 6:0 7:0 8:1 9:0.2302243 
256 0:0.3288353 1:0.1413904 2:0.1191292 3:0.1293246 4:0.1455047 5:0.4230769 6:0 7:0 8:1 9:0.3252092 
256 0:0.3288531 1:0.03702373 2:0.05161094 3:0.04344513 4:0.1468061 5:0 6:0 7:0 8:1 9:0.2515644 
256 0:0.3181742 1:0 2:0 3:0 4:0 5:0.1923077 6:0 7:0 8:1 9:0 
256 0:0.3289295 1:0.04311052 2:0.05984704 3:0.0505763 4:0.1472401 5:0 6:0 7:0 8:1 9:0.09172317 
256 0:0.3310009 1:0.05775167 2:0.03708309 3:0.04874296 4:0.1730668 5:0 6:0 7:0 8:1 9:0.1234152 
256 0:0.365395 1:0.05968796 2:0.06051197 3:0.06177659 4:0.0809034 5:0 6:0 7:0 8:1 9:0.08388722 
256 0:0.3441011 1:0.03573211 2:0.04789625 3:0.03978549 4:0.08543885 5:0 6:0 7:0 8:1 9:0.2653829 
256 0:0.3915767 1:0.07220902 2:0.03649375 3:0.05277581 4:0.1248202 5:0 6:0 7:0 8:1 9:0.2878264 
256 0:0.3182357 1:0 2:0 3:0 4:0 5:0.1333333 6:0 7:0 8:1 9:0.1585017 
256 0:0.338546 1:0 2:0 3:0 4:0.06249463 5:0.9047619 6:0 7:0 8:1 9:1 
256 0:0.3355545 1:0.07694171 2:0.06312639 3:0.07300758 4:0.2694913 5:0 6:0 7:0 8:1 9:0.1230228 
256 0:0.3248627 1:0.02173275 2:0.02135141 3:0.01588418 4:0.2128109 5:0 6:0 7:0 8:1 9:0.08535625 
256 0:0.3248574 1:0.03563864 2:0.0218359 3:0.02545911 4:0.2127939 5:0 6:0 7:0 8:1 9:0.1203399 
256 0:0.3182594 1:0 2:0 3:0 4:0 5:0.1607143 6:0 7:0 8:1 9:0.1829359 
256 0:0.3192094 1:0.01396777 2:0.02937912 3:0.02309845 4:0.2522397 5:0 6:0 7:0 8:1 9:1 
170.7004998262759 0:0.3714786 1:0.2924931 2:0.3052332 3:0.2989016 4:0.08371203 5:0 6:0 7:0 8:1 9:1 
256 0:0.3354327 1:0.02919843 2:0 3:0.01452567 4:0.26409 5:0 6:0 7:0 8:1 9:1 
256 0:0.328729 1:0.002326186 2:0.02559353 3:0.01062827 4:0.232325 5:0 6:0 7:0 8:1 9:0.2724376 
256 0:0.3515846 1:0.08425178 2:0.06316969 3:0.07267888 4:0.1580771 5:0 6:0 7:0 8:1 9:1 
256 0:0.3353932 1:0.02417187 2:0 3:0.0136847 4:0.264072 5:0 6:0 7:0 8:1 9:1 
256 0:0.328684 1:0 2:0.02465585 3:0.007336352 4:0.2320721 5:0 6:0 7:0 8:1 9:1 
256 0:0.3385959 1:0.02721605 2:0.02848203 3:0.02662725 4:0.06802069 5:0 6:0 7:0 8:1 9:0.09551895 
256 0:0.3191139 1:0.1197656 2:0.1137287 3:0.1181505 4:0.2582577 5:0 6:0 7:0 8:1 9:0.1215572 
256 0:0.3243834 1:0.120182 2:0.09486116 3:0.1075201 4:0.2098903 5:0 6:0 7:0 8:1 9:1 
256 0:0.3190107 1:0.1150724 2:0.1005061 3:0.1086032 4:0.2528972 5:0 6:0 7:0 8:1 9:1 
256 0:0.3384733 1:0 2:0 3:0 4:0.06518204 5:1 6:0 7:0 8:1 9:0 
256 0:0.335474 1:0.2092729 2:0.2091979 3:0.2125374 4:0.2706092 5:0 6:0 7:0 8:1 9:0.1119592 
256 0:0.3231871 1:0.04308584 2:0.05159501 3:0.04649923 4:0.1902071 5:0 6:0 7:0 8:1 9:0.2028224 
256 0:0.3181812 1:0 2:0 3:0.0002198038 4:0 5:0.07142857 6:0 7:0 8:1 9:0.1554383 
256 0:0.3385209 1:0.03564745 2:0.04644668 3:0.03851861 4:0.06733838 5:0.07142857 6:0 7:0 8:1 9:0.8351882 
256 0:0.358954 1:0.02119695 2:0.02773495 3:0.02149464 4:0.1135964 5:0 6:0 7:0 8:1 9:0.2237953 
256 0:0.3429011 1:0.04440665 2:0.06079358 3:0.0514838 4:0.1100296 5:0 6:0 7:0 8:1 9:0.1391593 
256 0:0.3673359 1:0.02133443 2:0.04128707 3:0.03062123 4:0 5:0.06976745 6:0 7:0 8:1 9:0.1789093 
256 0:0.3428888 1:0.05386575 2:0.0606948 3:0.05619778 4:0.1083665 5:0 6:0 7:0 8:1 9:0.1756727 
256 0:0.4028146 1:0.1169456 2:0.09710081 3:0.1086894 4:0.1777494 5:0 6:0 7:0 8:1 9:0.3589805 
256 0:0.4027882 1:0.07386376 2:0.06068483 3:0.06922972 4:0.1758737 5:0 6:0 7:0 8:1 9:0.09840983 
256 0:0.3581423 1:0.009420929 2:0.01952498 3:0.01128745 4:0.119648 5:0.02702703 6:0 7:0 8:1 9:0.2082306 
256 0:0.3175756 1:0 2:0 3:0 4:0.0002198038 5:0.5106383 6:0 7:0 8:1 9:0 
256 0:0.3581117 1:0.01254636 2:0.01084651 3:0.00887971 4:0.1177364 5:0.01851852 6:0 7:0 8:1 9:0.1079319 
256 0:0.3378098 1:0.02322884 2:0.0002198038 3:0.01030748 4:0.07476623 5:0.1111111 6:0 7:0 8:1 9:0.1851353 
256 0:0.3378201 1:0.0625136 2:0.04483037 3:0.05328794 4:0.07469592 5:0.06060606 6:0 7:0 8:1 9:0.1201049 
256 0:0.3226438 1:0.09657945 2:0.1061136 3:0.1008805 4:0.2012725 5:0 6:0 7:0 8:1 9:0.09034316 
48.96718361576211 0:0.4028302 1:0.2332028 2:0.2178894 3:0.227999 4:0.1610619 5:0 6:0 7:0 8:1 9:0.1906655 
238.691674969238 0:0.4028226 1:0.2322631 2:0.2150794 3:0.2261214 4:0.1610811 5:0 6:0 7:0 8:1 9:0.1959894 
256 0:0.3281427 1:0.04989855 2:0.03489368 3:0.04443114 4:0.2387801 5:0 6:0 7:0 8:1 9:0.1765259 
256 0:0.3349085 1:0.1322569 2:0.1360205 3:0.1349718 4:0.2687137 5:0 6:0 7:0 8:1 9:1 
256 0:0.3350679 1:0.1334542 2:0.1393323 3:0.1374363 4:0.2729989 5:0 6:0 7:0 8:1 9:1 
256 0:0.3510682 1:0.04396234 2:0.02348024 3:0.03663257 4:0.1456515 5:0 6:0 7:0 8:1 9:0.2219217 
256 0:0.3180882 1:0 2:0 3:0 4:0.0002198038 5:0.8125 6:0 7:0 8:1 9:0.2945713 
256 0:0.3285997 1:0.05701694 2:0.08528671 3:0.07178874 4:0.2343689 5:0 6:0 7:0 8:1 9:0.2444868 
256 0:0.4998958 1:0 2:0 3:0.0002198038 4:0.01738728 5:1 6:0 7:0 8:1 9:0.2836858 
256 0:0.4801439 1:0.02119581 2:0.01256945 3:0.01646375 4:0.01639169 5:0.5714286 6:0 7:0 8:1 9:0.3030388 
256 0:0.5509538 1:0.06506015 2:0.06817352 3:0.06606266 4:0.1077052 5:0 6:0 7:0 8:1 9:0.3586733 
256 0:0.4377019 1:0.09146337 2:0.07924552 3:0.08678221 4:0.06607731 5:0.2222222 6:0 7:0 8:1 9:0.2206123 
256 0:0.4288821 1:0.1003022 2:0.09588472 3:0.09959108 4:0.08126187 5:0.1904762 6:0 7:0 8:1 9:0.2144344 
256 0:0.5026948 1:0.06587925 2:0.05405445 3:0.06083058 4:0.09228815 5:0 6:0 7:0 8:1 9:0.3471546 
256 0:0.5102342 1:0.005938793 2:0.02675038 3:0.01552887 4:0.07188949 5:0 6:0 7:0 8:1 9:0.4125455 
256 0:0.5086603 1:0.03111912 2:0.03204276 3:0.03198236 4:0 5:0.04597701 6:0 7:0 8:1 9:0.05132132 
256 0:0.4377584 1:0.09798813 2:0.09105991 3:0.09597091 4:0.04312062 5:0.08888889 6:0 7:0 8:1 9:0.1048351 
256 0:0.5617192 1:0.08491061 2:0.08221406 3:0.08502752 4:0.1329099 5:0 6:0 7:0 8:1 9:0.07695153 
256 0:0.412334 1:0.2243717 2:0.2130429 3:0.2216147 4:0.1661327 5:0.08888889 6:0 7:0 8:1 9:0.247384 
256 0:0.6553916 1:0.06318348 2:0.03220675 3:0.04658183 4:0.06275117 5:0 6:0 7:0 8:1 9:0.5013359 
256 0:0.6743093 1:0.07976249 2:0.04934202 3:0.06282902 4:0.07027459 5:0 6:0 7:0 8:1 9:0.5622021 
256 0:0.4975606 1:0.2891243 2:0.3420341 3:0.3151922 4:0.2479396 5:0 6:0 7:0 8:1 9:0.4366755 
256 0:0.6187118 1:0.1746561 2:0.1959189 3:0.1798296 4:0.1004218 5:0.07777778 6:0 7:0 8:1 9:0.5693049 
256 0:0.6163036 1:0.1821497 2:0.2043749 3:0.1904644 4:0.1027797 5:0.07777778 6:0 7:0 8:1 9:0.5560068 
256 0:0.3879872 1:0.08134203 2:0.02114559 3:0.04911016 4:0.1089148 5:0 6:0 7:0 8:1 9:0.3494439 
256 0:0.4806705 1:0.304749 2:0.3403815 3:0.3235903 4:0.2401938 5:0 6:0 7:0 8:1 9:1 
74.70363460134152 0:0.3811848 1:0.2378311 2:0.2608467 3:0.2492525 4:0.1871577 5:0 6:0 7:0 8:1 9:1 
256 0:0.6970864 1:0.07818311 2:0.05181996 3:0.06390242 4:0.1553969 5:0 6:0 7:0 8:1 9:0.5592311 
256 0:0.4658901 1:0.2823629 2:0.245801 3:0.2647298 4:0.01615265 5:0 6:0 7:0 8:1 9:0.4048213 
256 0:0.6882914 1:0.06139591 2:0.05757128 3:0.06016474 4:0.1099656 5:0 6:0 7:0 8:1 9:0.1867595 
256 0:0.5396406 1:0.05313295 2:0.06266861 3:0.05880188 4:0.0284642 5:0 6:0 7:0 8:1 9:0.1486408 
256 0:0.5191253 1:0.01074132 2:0.008555487 3:0.009807879 4:0.07802436 5:0 6:0 7:0 8:1 9:0.1735295 
256 0:0.6751892 1:0 2:0 3:0 4:0.1200711 5:0.8111111 6:0 7:0 8:1 9:0.2368084 
256 0:0.6134844 1:0.08861016 2:0.1169161 3:0.1021933 4:0.08162651 5:0.4333333 6:0 7:0 8:1 9:0.5029461 
256 0:0.5181679 1:0.08615196 2:0.07765381 3:0.08362343 4:0.04456534 5:0 6:0 7:0 8:1 9:0.1200071 
256 0:0.4776306 1:0.1045404 2:0.1131277 3:0.1087776 4:0.1500873 5:0 6:0 7:0 8:1 9:0.1234509 
256 0:0.477647 1:0.1105223 2:0.1156119 3:0.1130128 4:0.1497884 5:0 6:0 7:0 8:1 9:0.09864521 
256 0:0.5239108 1:0.04499403 2:0.04316432 3:0.04354851 4:0.1396151 5:0 6:0 7:0 8:1 9:0.3669876 
256 0:0.5514547 1:0.09013932 2:0.06752967 3:0.07883277 4:0.11522 5:0 6:0 7:0 8:1 9:0.5004382 
256 0:0.5653332 1:0.1094018 2:0.07996537 3:0.09461828 4:0.10463 5:0 6:0 7:0 8:1 9:0.5430224 
256 0:0.490344 1:0.1785202 2:0.1513845 3:0.165816 4:0.1040332 5:0.06666667 6:0 7:0 8:1 9:0.4291631 
256 0:0.4076553 1:0.2573682 2:0.2257082 3:0.2434281 4:0.1745049 5:0 6:0 7:0 8:1 9:1 
256 0:0.4062201 1:0.2572659 2:0.2276094 3:0.2444894 4:0.1826739 5:0 6:0 7:0 8:1 9:1 
256 0:0.4025664 1:0.192834 2:0.16455 3:0.1812665 4:0.205559 5:0 6:0 7:0 8:1 9:1 
256 0:0.5732369 1:0.1184009 2:0.09303378 3:0.1057232 4:0.1593956 5:0 6:0 7:0 8:1 9:1 
256 0:0.6472991 1:0.01275073 2:0.02996873 3:0.01956084 4:0.05758725 5:0.01111111 6:0 7:0 8:1 9:0.503554 
256 0:0.5633715 1:0.06461864 2:0.04739638 3:0.05668335 4:0.06069002 5:0.01111111 6:0 7:0 8:1 9:0.4604333 
256 0:0.4689896 1:0.07116965 2:0.07445177 3:0.07255052 4:0.145533 5:0 6:0 7:0 8:1 9:0.0656715 
256 0:0.5121127 1:0.1766428 2:0.1763639 3:0.1785603 4:0.1509005 5:0.01111111 6:0 7:0 8:1 9:0.2393541 
256 0:0.5366501 1:0.1520775 2:0.1573994 3:0.1553832 4:0.2485559 5:0 6:0 7:0 8:1 9:0.185287 
256 0:0.4992069 1:0.2073678 2:0.2027526 3:0.2073445 4:0.1706428 5:0.01111111 6:0 7:0 8:1 9:0.1949933 
256 0:0.5753251 1:0.09563378 2:0.1052778 3:0.1010177 4:0.2392508 5:0 6:0 7:0 8:1 9:0.1036006 
256 0:0.3993612 1:0.09217434 2:0.1080538 3:0.1008112 4:0.2451174 5:0 6:0 7:0 8:1 9:0.3611575 
256 0:0.595856 1:0.132192 2:0.1160347 3:0.124075 4:0.173269 5:0.025 6:0 7:0 8:1 9:0.3731618 
256 0:0.6769404 1:0.09845728 2:0.1212219 3:0.1093497 4:0.0461097 5:0.1529412 6:0 7:0 8:1 9:1 
256 0:0.427645 1:0.3093812 2:0.3572007 3:0.3323888 4:0.2050076 5:0 6:0 7:0 8:1 9:1 
256 0:0.4863565 1:0 2:0.01295747 3:0 4:0.2213413 5:0.03333334 6:0 7:0 8:1 9:1 
256 0:0.3958677 1:0.04840495 2:0.03366621 3:0.03606403 4:0.1700192 5:0.03333334 6:0 7:0 8:1 9:1 
256 0:0.6054968 1:0.09452496 2:0.1124692 3:0.1041481 4:0.2596675 5:0 6:0 7:0 8:1 9:0.464187 
256 0:0.4726116 1:0.04029803 2:0.03289647 3:0.03612765 4:0.1179041 5:0 6:0 7:0 8:1 9:0.06379244 
256 0:0.473446 1:0.03327122 2:0.02435214 3:0.02839706 4:0.1208024 5:0 6:0 7:0 8:1 9:0.08020414 
256 0:0.5421535 1:0.077993 2:0.07418136 3:0.07616706 4:0.08762116 5:0 6:0 7:0 8:1 9:0.1978961 
256 0:0.6083954 1:0.07873655 2:0.08206926 3:0.08042475 4:0.09663743 5:0 6:0 7:0 8:1 9:0.3039543 
256 0:0.3859091 1:0.07122881 2:0.05726079 3:0.06450132 4:0.1492797 5:0 6:0 7:0 8:1 9:0.1951811 
256 0:0.3892793 1:0.2121498 2:0.2259861 3:0.21981 4:0.2240452 5:0.07777778 6:0 7:0 8:1 9:0.1405703 
256 0:0.513997 1:0.2046576 2:0.2060619 3:0.206435 4:0.2156135 5:0.0625 6:0 7:0 8:1 9:0.1665656 
256 0:0.522429 1:0.3180682 2:0.324377 3:0.3228501 4:0.3026072 5:0 6:0 7:0 8:1 9:0.2975758 
256 0:0.5219328 1:0.3615664 2:0.3133021 3:0.3372741 4:0.3135309 5:0 6:0 7:0 8:1 9:0.4516991 
256 0:0.3826117 1:0.02460974 2:0.0348618 3:0.02782194 4:0.1443113 5:0 6:0 7:0 8:1 9:0.3350834 
256 0:0.3811255 1:0.01275262 2:0.0215687 3:0.004900207 4:0.1073773 5:0 6:0 7:0 8:1 9:1 
229.9468614157484 0:0.6060981 1:0.3004848 2:0.3435453 3:0.3229839 4:0.3304994 5:0 6:0 7:0 8:1 9:1 
256 0:0.3953072 1:0.03985227 2:0.06609929 3:0.05222718 4:0.02283756 5:0 6:0 7:0 8:1 9:1 
256 0:0.5471456 1:0.08194874 2:0.09830123 3:0.09019282 4:0.003664867 5:0 6:0 7:0 8:1 9:1 
256 0:0.5828722 1:0.09083711 2:0.1012863 3:0.09605072 4:0.01010869 5:0 6:0 7:0 8:1 9:1 
256 0:0.5790802 1:0.06742638 2:0.08039463 3:0.07329386 4:0.04413797 5:0 6:0 7:0 8:1 9:1 
256 0:0.5509653 1:0.0252303 2:0.02844212 3:0.02665083 4:0.1076566 5:0.01111111 6:0 7:0 8:1 9:0.3126009 
256 0:0.5438986 1:0.08031897 2:0.06151165 3:0.06988706 4:0.1380194 5:0 6:0 7:0 8:1 9:0.365575 
256 0:0.5249933 1:0.03885103 2:0.04797544 3:0.04454906 4:0.05890381 5:0 6:0 7:0 8:1 9:0.07168479 
256 0:0.5861877 1:0.1004315 2:0.09820891 3:0.09798963 4:0.1339582 5:0 6:0 7:0 8:1 9:0.5342716 
