svm_type c_svc
kernel_type linear
nr_class 2
total_sv 6
rho 2.45195
label 0 1
probA -3.09609
probB -0.368652
nr_sv 3 3
SV
0.0625 0:0.6619648 1:0.8464851 2:0.4801146 3:0 4:0 5:0.02131653 6:0 7:0 8:0 9:0
0.0625 0:0.5861949 1:0.5556895 2:0.619291 3:0 4:0 5:0 6:0 7:0 8:0 9:0
0.0625 0:0.44675 1:0.4914977 2:0.4227562 3:0.2904663 4:0.2904663 5:0.268158 6:0 7:0 8:0 9:0
-0.0625 0:0 1:0.1434638 2:0 3:0.2680054 4:0.2680054 5:0.2680054 6:0.2452316 7:0.08911133 8:0.2680054 9:0.02228546
-0.0625 0:0.1415583 1:0 2:0.2664559 3:0.06700897 4:0.06700897 5:0.0895462 6:0.02233887 7:0.02233887 8:0 9:0
-0.0625 0:0.1732933 1:0.07444935 2:0.2714897 3:0.1341782 4:0.1341782 5:0.1567154 6:0 7:0.08950806 8:0 9:0
