svm_type nu_svr
kernel_type sigmoid
gamma 0.142857
coef0 0
nr_class 2
total_sv 17
rho -0.396055
SV
-0.07126313890942337 0:0.0001 1:0.0001 2:0.0001 3:0.0001 4:0.0001 5:0.0001 6:0.0001 7:0.0001 
-1 0:0.12680259 1:0.12683128 2:0.1258522 3:0.12589063 4:0.12662571 5:0.12616017 6:0.12703806 7:0.12554733 
-1 0:0.12685756 1:0.1270185 2:0.12529533 3:0.1252895 4:0.12700586 5:0.12682322 6:0.12666737 7:0.12612645 
-1 0:0.1265332 1:0.12612684 2:0.12641443 3:0.1251251 4:0.12599642 5:0.12666065 6:0.12633562 7:0.12690917 
-1 0:0.12598966 1:0.12530658 2:0.12527633 3:0.12597508 4:0.12563571 5:0.12645731 6:0.1260042 7:0.12691523 
-1 0:0.25303952 1:0.26144217 2:0.26170043 3:0.26026439 4:0.26263056 5:0.26270112 6:0.25815941 7:0.25330476 
-0.9287368610905766 0:0.25959839 1:0.25415526 2:0.25322165 3:0.25512358 4:0.26453813 5:0.26185528 6:0.25576759 7:0.25264787 
-1 0:0.25351106 1:0.25668774 2:0.25321177 3:0.25374148 4:0.26181881 5:0.26423165 6:0.26345645 7:0.2654335 
-1 0:0.25411916 1:0.25527507 2:0.2509588 3:0.26088419 4:0.261445 5:0.25447298 6:0.26268092 7:0.25779679 
1 0:1.1637255 1:1.1022048 2:1.0409152 3:0.94744 4:0.77847328 5:1.0460498 6:0.90444762 7:0.92943314 
1 0:0.98799375 1:0.91492559 2:0.7816305 3:1.0663084 4:0.83848134 5:0.93841059 6:0.96997123 7:1.0674163 
1 0:0.95419116 1:0.8966336 2:0.89956171 3:0.77029994 4:1.0382054 5:1.1049311 6:1.0101627 7:1.0267946 
1 0:1.0564201 1:0.84004625 2:1.09289 3:1.1208121 4:0.78359102 5:1.1569318 6:0.9558855 7:0.75474935 
1 0:0.9602054 1:1.1930518 2:1.0844915 3:1.2988853 4:1.2773589 5:1.1080116 6:1.1473884 7:1.4337616 
1 0:1.2877849 1:0.98603171 2:1.4862472 3:1.128083 4:0.89103057 5:1.1643633 6:0.92859914 7:1.140763 
1 0:1.3762721 1:1.2137094 2:0.96113248 3:1.5327037 4:1.1825098 5:1.0904822 6:1.3621734 7:1.3787356 
1 0:1.2974607 1:1.0227317 2:1.2545854 3:1.1149073 4:1.0207605 5:1.2684857 6:1.2599097 7:1.1100826 
