svm_type nu_svc
kernel_type sigmoid
gamma 0.142857
coef0 0
nr_class 8
total_sv 28
rho -1.00159 -1.00078 -1.0005 -1.00037 -1.00031 -1.00028 -1.00029 -2.92445 -1.93466 -1.61466 -1.49075 -1.45073 -1.48982 -4.70795 -2.86647 -2.3815 -2.28937 -2.66475 -6.7587 -4.42485 -4.3559 -7.08462 -12.5887 -15.7013 22.9644 79.5105 7.82407 8.47145
label 0 1 2 3 4 5 6 7
nr_sv 2 2 4 4 4 4 4 4
SV
54.97627944915266 13.21676163358129 5.541586847479238 2.94540820695671 1.858246733119812 1.276390376000145 1.095639204689422 0:0.0001 1:0.0001 2:0.0001 3:0.0001 4:0.0001 5:0.0001 6:0.0001 7:0.0001 
54.97627944915266 13.21676163358129 5.541586847479238 2.94540820695671 1.858246733119812 1.276390376000145 1.095639204689422 0:0.0001 1:0.0001 2:0.0001 3:0.0001 4:0.0001 5:0.0001 6:0.0001 7:0.0001 
-54.97627944915266 50.62969552448473 11.97435043937474 5.06075732996718 2.871909860303036 1.899225516738506 1.669177879128346 0:0.12680259 1:0.12683128 2:0.1258522 3:0.12589063 4:0.12662571 5:0.12616017 6:0.12703806 7:0.12554733 
-54.97627944915266 50.62969552448473 11.97435043937474 5.06075732996718 2.871909860303036 1.899225516738506 1.669177879128346 0:0.12685756 1:0.1270185 2:0.12529533 3:0.1252895 4:0.12700586 5:0.12682322 6:0.12666737 7:0.12612645 
-0 -50.62969552448473 45.68133648250137 11.10456170077573 5.184893848491762 3.253701776053768 3.091607317301531 0:0.25303952 1:0.26144217 2:0.26170043 3:0.26026439 4:0.26263056 5:0.26270112 6:0.25815941 7:0.25330476 
-13.21676163358129 -50.62969552448473 45.68133648250137 0 0 0 0 0:0.25959839 1:0.25415526 2:0.25322165 3:0.25512358 4:0.26453813 5:0.26185528 6:0.25576759 7:0.25264787 
-0 -0 0 11.10456170077573 5.184893848491762 3.253701776053768 3.091607317301531 0:0.25351106 1:0.25668774 2:0.25321177 3:0.25374148 4:0.26181881 5:0.26423165 6:0.26345645 7:0.2654335 
-13.21676163358129 -0 0 0 0 0 0 0:0.25411916 1:0.25527507 2:0.2509588 3:0.26088419 4:0.261445 5:0.25447298 6:0.26268092 7:0.25779679 
-5.541586847479238 -11.97435043937474 -45.68133648250137 45.33668190469306 0 0 0 0:0.42336627 1:0.37902375 2:0.40082905 3:0.40591416 4:0.37897755 5:0.40612304 6:0.41979948 7:0.38744377 
-0 -0 -0 45.33668190469306 12.65445892669006 7.316649019187524 9.353340550676647 0:0.41051423 1:0.38928974 2:0.41381756 3:0.4254646 4:0.42109695 5:0.3894354 6:0.40936235 7:0.38598574 
-5.541586847479238 -11.97435043937474 -45.68133648250137 0 0 0 0 0:0.37723804 1:0.42476919 2:0.41130204 3:0.40435836 4:0.38830141 5:0.37898178 6:0.38369451 7:0.38452879 
-0 -0 -0 0 12.65445892669006 7.316649019187524 9.353340550676647 0:0.4203079 1:0.42304459 2:0.40212495 3:0.39134174 4:0.42414834 5:0.39026155 6:0.39935501 7:0.38124517 
-2.94540820695671 -5.06075732996718 -11.10456170077573 -45.33668190469306 0 0 -0 0:0.52590435 1:0.54667501 2:0.58143437 3:0.51224953 4:0.5058114 5:0.50854196 6:0.60326813 7:0.57409129 
-2.94540820695671 -5.06075732996718 -11.10456170077573 -45.33668190469306 0 0 -0 0:0.54050539 1:0.50355239 2:0.51702773 3:0.56781349 4:0.50701541 5:0.60246769 6:0.59289095 7:0.58183958 
-0 -0 -0 -0 73.43318183812509 37.20679866785115 -40.12888820587766 0:0.61061775 1:0.61149718 2:0.59317324 3:0.53799388 4:0.57762034 5:0.58549383 6:0.51363956 7:0.58540368 
-0 -0 -0 -0 73.43318183812509 37.20679866785115 -40.12888820587766 0:0.6247736 1:0.60655749 2:0.51959102 3:0.60612914 4:0.5918222 5:0.60447393 6:0.5546846 7:0.60514518 
-0 -0 -0 -0 -16.24244536993578 -343.7133517146158 -4.476601864043459 0:0.86896176 1:0.80410975 2:0.72897232 3:0.71643509 4:0.73910075 5:0.72486844 6:0.69633714 7:0.81557703 
-1.858246733119812 -2.871909860303036 -5.184893848491762 -12.65445892669006 -73.43318183812509 -0 -19.50020514556346 0:0.67342639 1:0.70802714 2:0.74987107 3:0.68721548 4:0.6755846 5:0.66514366 6:0.75442939 7:0.83395061 
-1.858246733119812 -2.871909860303036 -5.184893848491762 -12.65445892669006 -0 -0 -0 0:0.63380672 1:0.69142695 2:0.79050844 3:0.63443312 4:0.78747077 5:0.71217647 6:0.73396589 7:0.80191564 
-0 -0 -0 -0 -57.19073646818932 -343.7133517146158 -15.02360328152 0:0.70959952 1:0.76787206 2:0.66884905 3:0.64769575 4:0.69751267 5:0.81022138 6:0.69777693 7:0.85373964 
-0 -0 -0 -0 -37.20679866785115 343.7133517146158 -0 0:1.1637255 1:1.1022048 2:1.0409152 3:0.94744 4:0.77847328 5:1.0460498 6:0.90444762 7:0.92943314 
-1.276390376000145 -1.899225516738506 -3.253701776053768 -6.399766475295666 -11.27591546588642 57.82736512340432 -53.5365890823419 0:0.98799375 1:0.91492559 2:0.7816305 3:1.0663084 4:0.83848134 5:0.93841059 6:0.96997123 7:1.0674163 
-1.276390376000145 -1.783145434138486 -2.770561109524729 -5.335031440816998 -25.93088320196474 285.8859865912115 -44.72250767496477 0:0.95419116 1:0.8966336 2:0.89956171 3:0.77029994 4:1.0382054 5:1.1049311 6:1.0101627 7:1.0267946 
-0 -0.1160800826000196 -0.4831406665290392 -2.898500122262385 -0 0 -8.81408140737712 0:1.0564201 1:0.84004625 2:1.09289 3:1.1208121 4:0.78359102 5:1.1569318 6:0.9558855 7:0.75474935 
-0.004443650682465093 -1.016844821779863 -1.918460180024377 -8.111043240403268 40.12888820587766 19.50020514556346 34.68924634373494 0:0.9602054 1:1.1930518 2:1.0844915 3:1.2988853 4:1.2773589 5:1.1080116 6:1.1473884 7:1.4337616 
-1.095639204689422 -1.669177879128346 -0 -0 0 0 0 0:1.2877849 1:0.98603171 2:1.4862472 3:1.128083 4:0.89103057 5:1.1643633 6:0.92859914 7:1.140763 
-0 -0 -3.091607317301531 -9.353340550676647 40.12888820587766 19.50020514556346 53.5365890823419 0:1.3762721 1:1.2137094 2:0.96113248 3:1.5327037 4:1.1825098 5:1.0904822 6:1.3621734 7:1.3787356 
-1.091195554006957 -0.6523330573484829 -1.173147137277154 -1.24229731027338 0 0 18.84734273860696 0:1.2974607 1:1.0227317 2:1.2545854 3:1.1149073 4:1.0207605 5:1.2684857 6:1.2599097 7:1.1100826 
