svm_type nu_svr
kernel_type linear
nr_class 2
total_sv 18
rho -0.470908
probA 0.271219
SV
-1 0:0.0001 1:0.0001 2:0.0001 3:0.0001 4:0.0001 5:0.0001 6:0.0001 7:0.0001 
-1 0:0.0001 1:0.0001 2:0.0001 3:0.0001 4:0.0001 5:0.0001 6:0.0001 7:0.0001 
-1 0:0.0001 1:0.0001 2:0.0001 3:0.0001 4:0.0001 5:0.0001 6:0.0001 7:0.0001 
-1 0:0.0001 1:0.0001 2:0.0001 3:0.0001 4:0.0001 5:0.0001 6:0.0001 7:0.0001 
-0.9398916530301763 0:0.12685756 1:0.1270185 2:0.12529533 3:0.1252895 4:0.12700586 5:0.12682322 6:0.12666737 7:0.12612645 
1 0:0.42336627 1:0.37902375 2:0.40082905 3:0.40591416 4:0.37897755 5:0.40612304 6:0.41979948 7:0.38744377 
0.9086438845911964 0:0.41051423 1:0.38928974 2:0.41381756 3:0.4254646 4:0.42109695 5:0.3894354 6:0.40936235 7:0.38598574 
1 0:0.37723804 1:0.42476919 2:0.41130204 3:0.40435836 4:0.38830141 5:0.37898178 6:0.38369451 7:0.38452879 
1 0:0.52590435 1:0.54667501 2:0.58143437 3:0.51224953 4:0.5058114 5:0.50854196 6:0.60326813 7:0.57409129 
1 0:0.54050539 1:0.50355239 2:0.51702773 3:0.56781349 4:0.50701541 5:0.60246769 6:0.59289095 7:0.58183958 
1 0:0.67342639 1:0.70802714 2:0.74987107 3:0.68721548 4:0.6755846 5:0.66514366 6:0.75442939 7:0.83395061 
1 0:0.63380672 1:0.69142695 2:0.79050844 3:0.63443312 4:0.78747077 5:0.71217647 6:0.73396589 7:0.80191564 
1 0:0.70959952 1:0.76787206 2:0.66884905 3:0.64769575 4:0.69751267 5:0.81022138 6:0.69777693 7:0.85373964 
-0.06010834696982311 0:1.1637255 1:1.1022048 2:1.0409152 3:0.94744 4:0.77847328 5:1.0460498 6:0.90444762 7:0.92943314 
0.09135611540880344 0:0.98799375 1:0.91492559 2:0.7816305 3:1.0663084 4:0.83848134 5:0.93841059 6:0.96997123 7:1.0674163 
-1 0:0.9602054 1:1.1930518 2:1.0844915 3:1.2988853 4:1.2773589 5:1.1080116 6:1.1473884 7:1.4337616 
-1 0:1.3762721 1:1.2137094 2:0.96113248 3:1.5327037 4:1.1825098 5:1.0904822 6:1.3621734 7:1.3787356 
-1 0:1.2974607 1:1.0227317 2:1.2545854 3:1.1149073 4:1.0207605 5:1.2684857 6:1.2599097 7:1.1100826 
