svm_type nu_svr
kernel_type rbf
gamma 0.142857
nr_class 2
total_sv 17
rho -3.61493
SV
-1 0:0.0001 1:0.0001 2:0.0001 3:0.0001 4:0.0001 5:0.0001 6:0.0001 7:0.0001 
-1 0:0.0001 1:0.0001 2:0.0001 3:0.0001 4:0.0001 5:0.0001 6:0.0001 7:0.0001 
-1 0:0.0001 1:0.0001 2:0.0001 3:0.0001 4:0.0001 5:0.0001 6:0.0001 7:0.0001 
-1 0:0.0001 1:0.0001 2:0.0001 3:0.0001 4:0.0001 5:0.0001 6:0.0001 7:0.0001 
-1 0:0.12680259 1:0.12683128 2:0.1258522 3:0.12589063 4:0.12662571 5:0.12616017 6:0.12703806 7:0.12554733 
-1 0:0.12685756 1:0.1270185 2:0.12529533 3:0.1252895 4:0.12700586 5:0.12682322 6:0.12666737 7:0.12612645 
-0.3309719456392221 0:0.1265332 1:0.12612684 2:0.12641443 3:0.1251251 4:0.12599642 5:0.12666065 6:0.12633562 7:0.12690917 
1 0:0.42336627 1:0.37902375 2:0.40082905 3:0.40591416 4:0.37897755 5:0.40612304 6:0.41979948 7:0.38744377 
1 0:0.37723804 1:0.42476919 2:0.41130204 3:0.40435836 4:0.38830141 5:0.37898178 6:0.38369451 7:0.38452879 
1 0:0.4203079 1:0.42304459 2:0.40212495 3:0.39134174 4:0.42414834 5:0.39026155 6:0.39935501 7:0.38124517 
1 0:0.52590435 1:0.54667501 2:0.58143437 3:0.51224953 4:0.5058114 5:0.50854196 6:0.60326813 7:0.57409129 
-0.6820359218426056 0:0.86896176 1:0.80410975 2:0.72897232 3:0.71643509 4:0.73910075 5:0.72486844 6:0.69633714 7:0.81557703 
-0.9869921325181723 0:1.1637255 1:1.1022048 2:1.0409152 3:0.94744 4:0.77847328 5:1.0460498 6:0.90444762 7:0.92943314 
1 0:0.9602054 1:1.1930518 2:1.0844915 3:1.2988853 4:1.2773589 5:1.1080116 6:1.1473884 7:1.4337616 
1 0:1.2877849 1:0.98603171 2:1.4862472 3:1.128083 4:0.89103057 5:1.1643633 6:0.92859914 7:1.140763 
1 0:1.3762721 1:1.2137094 2:0.96113248 3:1.5327037 4:1.1825098 5:1.0904822 6:1.3621734 7:1.3787356 
1 0:1.2974607 1:1.0227317 2:1.2545854 3:1.1149073 4:1.0207605 5:1.2684857 6:1.2599097 7:1.1100826 
