svm_type c_svc
kernel_type linear
nr_class 8
total_sv 32
rho -0.127452 -0.875887 -0.999685 -0.99996 -0.999682 -0.999865 -0.999476 -0.747397 -0.915915 -1.0015 -0.98212 -1.06225 -1.01805 -0.565609 -0.809022 -0.901923 -0.963004 -1.05783 -0.412145 -0.528436 -0.834831 -0.982599 -0.362985 -0.800237 -0.880054 -0.492298 -0.600869 -0.179948
label 0 1 2 3 4 5 6 7
probA 1.71382 2.74001 -0.361148 -7.26457 -7.45924 -8.39808 -6.58718 2.4105 -5.01266 -1.86067 -7.35247 -11.2315 -5.69544 4.04046 2.20601 5.54648 -4.85218 1.00748 6.68916 -0.476994 2.50845 5.43792 3.19927 3.85072 4.37677 3.62605 2.115 7.14635
probB -0.0502793 -0.889599 0.21964 6.4485 6.35985 7.29732 5.86896 -0.19176 3.39011 1.60609 6.02563 10.1658 5.02425 -0.960916 -1.54395 -3.79033 3.84983 -0.856416 -2.74723 0.204449 -1.87172 -4.23969 -0.502134 -2.0153 -3.05558 -1.22332 -1.02659 -1.45537
nr_sv 4 4 4 4 4 4 4 4
SV
1 1 1 0.818315298499786 0 0 0.4631679539115846 3:0.0001 4:0.0001 7:0.0001 12:0.0001 18:0.0001 21:0.0001 32:0.0001 34:0.0001 50:0.0001 73:0.0001 123:0.0001 127:0.0001 
1 1 0.9054624954650716 0 0 0 0 0:0.0001 10:0.0001 47:0.0001 51:0.0001 54:0.0001 63:0.0001 67:0.0001 73:0.0001 74:0.0001 84:0.0001 104:0.0001 108:0.0001 119:0.0001 127:0.0001 
1 1 0 0 0.1751312188408362 0 0 0:0.0001 19:0.0001 30:0.0001 37:0.0001 61:0.0001 70:0.0001 72:0.0001 81:0.0001 104:0.0001 109:0.0001 
1 1 1 1 1 0.6118852676400921 0 1:0.0001 10:0.0001 17:0.0001 21:0.0001 31:0.0001 33:0.0001 41:0.0001 77:0.0001 78:0.0001 80:0.0001 86:0.0001 98:0.0001 99:0.0001 122:0.0001 124:0.0001 
-1 1 1 0.5911312229900895 0.3390785301140423 0.2313288981545535 0.07418298526403148 16:0.1263555 28:0.12607968 39:0.12661627 51:0.12622132 59:0.12511364 61:0.1257036 72:0.12653739 73:0.12648799 82:0.12660489 126:0.12526793 
-1 1 1 0.350104437053929 0.3414074646871142 0.01256040611949268 0.2336259400011498 8:0.12549146 11:0.1260738 18:0.12656834 27:0.12610551 80:0.12606737 118:0.12550673 127:0.1262787 
-1 1 0.5717755443950183 0.5392837795582247 0.1505915114840476 0.4241897358813748 0.05770724197417843 7:0.1262026 8:0.12534711 9:0.12644219 40:0.12651607 45:0.12551177 59:0.12567862 65:0.12568356 66:0.12562748 83:0.12688645 121:0.12701414 
-1 1 0.3634631058795809 0.4281810608541226 0.3588033172663627 0 0.1115473066633164 9:0.12553396 24:0.12689918 29:0.1265684 33:0.12604231 38:0.12557106 48:0.12652527 51:0.12594883 56:0.12576879 63:0.12544478 93:0.12669231 97:0.12637977 116:0.12688679 119:0.12695934 120:0.12631081 
-1 -1 0.3545788063001435 0.6392403945906396 0.2090135816265497 0.1371275025353182 0.2479976393312947 13:0.26013063 19:0.25632524 23:0.26075378 33:0.2601991 34:0.25770546 52:0.26507841 53:0.26115498 66:0.26379407 68:0.25976885 71:0.26164361 74:0.26259436 89:0.26320195 91:0.2587091 97:0.25890601 100:0.26180319 108:0.25299539 113:0.25843074 117:0.25913234 119:0.25816916 
-1 -1 0.7756725767401119 0.2152923320807215 0.4291234579900994 0.1572606968674966 0 2:0.26061556 8:0.26004942 12:0.26006901 18:0.25604935 20:0.25584691 26:0.26220938 32:0.26096597 47:0.25172582 80:0.25591649 88:0.26259757 100:0.25642237 108:0.25830813 109:0.26377282 
-1 -1 1 0.9033697445644175 0.3159682526040626 0.1467797891849595 0.2055247425499918 4:0.25022234 12:0.26057732 14:0.2527028 39:0.26218069 48:0.26247706 55:0.25559982 62:0.26100083 118:0.25045148 
-1 -1 0.8787723551845329 0.2440941208449202 0.3220836753740269 0.2132386383881913 0.08811049957616676 5:0.26509955 15:0.26003628 19:0.26562979 23:0.25961537 36:0.25794733 40:0.26006158 41:0.26377396 67:0.26054086 73:0.2515226 80:0.25032463 84:0.25930814 96:0.26568926 97:0.25611114 101:0.25147032 108:0.25455177 113:0.26341407 
-0.3868133267197048 -0.4172216001617461 -0.4856317975835275 0.1745326569534441 0.2297937786070491 0.09819799221188624 0.1208108331003349 6:0.42575624 9:0.41854099 12:0.37603135 16:0.42142529 22:0.39956835 36:0.39032178 37:0.38996708 43:0.42754486 45:0.42628794 47:0.42774893 61:0.4136282 64:0.3906398 98:0.41758065 101:0.3791011 103:0.40422615 108:0.40095572 110:0.41614228 112:0.4169625 113:0.41102778 123:0.42451272 
-0.5186491687453668 -0.518017050112853 -0.5233919406412609 0.3927174670320028 0.1559307819006734 0.2199934792253932 0.05849073333999469 3:0.42667263 10:0.39008616 12:0.37649653 18:0.4151063 22:0.38014556 28:0.41932249 35:0.39288804 37:0.40080492 43:0.37641115 52:0.4228777 64:0.37533415 67:0.40328463 68:0.38603259 77:0.39364563 96:0.41679714 106:0.38225545 124:0.37663795 
-1 -1 -1 0.6208343851333804 0.2860128937292635 0.1708838117844607 0.2476902684565634 4:0.40890867 18:0.424514 19:0.41538794 44:0.40471337 73:0.4178949 78:0.38586116 92:0.38565404 98:0.4007669 106:0.37697698 117:0.3824279 
-1 -1 -1 0.6152288756286831 0.3502843366352741 0.1632595917745458 0.1172162111970869 4:0.37588424 5:0.40686736 25:0.37824577 32:0.39886626 60:0.41933179 101:0.37994785 114:0.37990632 118:0.39922748 126:0.4158488 
-0.7217435544754621 -0.7467474400291951 -0.7323568535985161 -0.6934984463582277 0.4048825623444574 0.1884167829951258 0.2724635941994322 4:0.57217896 7:0.53915206 10:0.55758178 24:0.58565642 31:0.53356366 34:0.5572311 46:0.56726481 60:0.56734557 95:0.51034673 
-0.3358818411117304 -0.3752144914814403 -0.4083121305287671 -0.316822533899736 0.2874586640304047 0.2126250369792867 0.1033680525878375 0:0.54923567 28:0.61520039 51:0.62120717 52:0.59052929 66:0.59370123 78:0.54428213 82:0.62399694 85:0.60840383 86:0.57707438 89:0.58477002 108:0.60406421 110:0.61228198 112:0.54387975 113:0.58998621 122:0.59984236 
-0.3394438256592658 -0.3536668859197393 -0.4661802059757941 -0.3950746896169937 0.1671616158343091 0.151078979505433 0.07249409987333742 13:0.50535031 21:0.58508972 23:0.58554021 35:0.5100709 53:0.56949476 55:0.50276144 62:0.61521369 68:0.51724449 73:0.51009615 75:0.55301728 78:0.5841149 106:0.52637799 107:0.59747367 118:0.52601544 124:0.51077373 127:0.57452076 
-0.4212460772533279 -0.4330716830259912 -0.3951474019776215 -0.3979177148725533 0.2359979395246567 0.215641590480277 0.09906403184740654 20:0.57161396 21:0.5570288 37:0.55449575 41:0.54084766 42:0.5316257 44:0.61818484 45:0.55644917 54:0.56035331 56:0.55565877 70:0.60493124 88:0.50936402 89:0.53384875 106:0.52104034 
-0.4083637360297297 -0.4122636686043481 -0.4175879658762483 -0.364513459803417 -0.2566949970401647 0.179370406092273 0.1370458528234975 15:0.65541616 30:0.86085964 47:0.78850595 76:0.62629672 93:0.76167318 99:0.67659194 101:0.70786478 105:0.76207138 
-0.2025033954169289 -0.2110870028645956 -0.2551258117714152 -0.2000964705068738 -0.2661590118581361 0.1127537857764349 0.1310285973196625 8:0.85772391 12:0.84991727 46:0.74369939 55:0.63868688 71:0.63427037 82:0.86035368 86:0.77531661 88:0.83409497 90:0.69960702 95:0.71507762 106:0.76754084 110:0.62755436 111:0.86608809 113:0.83345767 
-0.2462582385521677 -0.2466736532718259 -0.3070256749740373 -0.1965131904859588 -0.2628436366217431 0.1654985573811158 0.04745328157147376 13:0.63690929 15:0.68321224 23:0.82030144 26:0.76275988 49:0.67362557 61:0.68686708 86:0.73225459 89:0.85657328 94:0.79283314 99:0.78920077 108:0.67172921 
-0.3180058488420098 -0.319856498810797 -0.2964495149730379 -0.2608986700760105 -0.309803136213784 0.1720034661825092 0.1789372903914349 10:0.86606461 50:0.76636098 63:0.75773683 70:0.85878318 81:0.84907825 85:0.80633061 92:0.7165902 95:0.79964574 125:0.86682038 
-0.1981053715438873 -0.2169736847064696 -0.1948575073099478 -0.1764925110187251 -0.2441717027513637 -0.2169906662441262 0.08910818008720307 7:0.98520844 21:0.89285316 62:1.0019736 72:0.91975805 83:0.98608655 85:1.1419873 86:0.91183884 90:1.1545934 99:0.85145319 
-0.1443606503571684 -0.1502751754388693 -0.1601406377787505 -0.1780326130915773 -0.2158711524369124 -0.1648167106380181 0.1013611454024715 15:0.88671377 18:1.1053954 27:0.7780886 28:0.86517488 43:1.0472114 44:1.1492271 49:0.85484862 70:1.0891577 75:1.0971541 84:0.80986921 89:1.1381184 106:0.81984953 113:0.80487236 122:1.0455164 
-0.1283666670901019 -0.1455648972511456 -0.1388424917034387 -0.1488004589941347 -0.1520818675171639 -0.1132939601859496 0.07585773437778631 0:0.7700533 25:1.0038574 28:0.76773888 32:0.81319129 45:1.0137705 50:1.078971 59:1.0332894 67:0.93571892 68:0.95886944 72:0.83329252 94:0.93178705 97:0.84224375 110:1.0675823 116:0.80380222 127:0.80285989 
-0.1410525786489344 -0.1552652827589364 -0.1605659901838286 -0.1490092918918488 -0.1556376672546825 -0.1345248783642391 0.09130513439373396 7:1.1598067 10:1.0992558 16:0.83312159 41:1.1587374 47:0.95921346 65:1.0105396 68:0.98996182 79:0.99539106 80:1.0215414 91:1.0623533 105:1.0168043 
-0.1085094882746719 -0.1137960656269604 -0.1234684760277437 -0.1309536197284319 -0.1339078433594052 -0.1069158580687317 -0.09809581616510225 0:0.93216341 7:1.2983312 11:1.3814013 19:1.279444 28:0.99324248 44:0.94766217 57:1.170098 58:1.4513581 66:1.0743969 95:1.3498673 98:0.89447758 101:1.0210722 
-0.1160985079844162 -0.1198214332491577 -0.1487312679486994 -0.1229161551055276 -0.1455115755058101 -0.1052293502810085 -0.09010570125706778 4:1.0098661 13:1.4336899 33:1.481249 34:1.4321588 41:1.322253 53:1.5025893 67:1.0216511 70:1.2953002 120:1.5056863 
-0.1561169410551523 -0.1613101521163776 -0.18016500428336 -0.174421213841083 -0.155223955652788 -0.1834122198560206 -0.1182885136899542 12:1.2416302 27:1.2428642 39:0.89850501 81:1.3909339 92:0.92186761 105:1.1419459 113:1.4883505 115:0.8886462 124:1.1734588 
-0.08244301659734431 -0.0821358229101804 -0.08926813319765024 -0.1159170574189374 -0.1127464039900105 -0.09890759390030789 -0.05114216314907059 3:0.93090758 4:1.2643989 6:1.4175006 32:1.0904758 46:1.475075 54:0.90289855 74:1.5049743 92:0.90890261 95:1.2749375 98:1.2349272 110:1.500999 
