svm_type nu_svr
kernel_type polynomial
degree 3
gamma 0.00787402
coef0 0
nr_class 2
total_sv 16
rho -3.49971
probA 2.07812
SV
-1 3:0.0001 4:0.0001 7:0.0001 12:0.0001 18:0.0001 21:0.0001 32:0.0001 34:0.0001 50:0.0001 73:0.0001 123:0.0001 127:0.0001 
-1 0:0.0001 10:0.0001 47:0.0001 51:0.0001 54:0.0001 63:0.0001 67:0.0001 73:0.0001 74:0.0001 84:0.0001 104:0.0001 108:0.0001 119:0.0001 127:0.0001 
-1 0:0.0001 19:0.0001 30:0.0001 37:0.0001 61:0.0001 70:0.0001 72:0.0001 81:0.0001 104:0.0001 109:0.0001 
-1 1:0.0001 10:0.0001 17:0.0001 21:0.0001 31:0.0001 33:0.0001 41:0.0001 77:0.0001 78:0.0001 80:0.0001 86:0.0001 98:0.0001 99:0.0001 122:0.0001 124:0.0001 
-1 16:0.1263555 28:0.12607968 39:0.12661627 51:0.12622132 59:0.12511364 61:0.1257036 72:0.12653739 73:0.12648799 82:0.12660489 126:0.12526793 
-1 8:0.12549146 11:0.1260738 18:0.12656834 27:0.12610551 80:0.12606737 118:0.12550673 127:0.1262787 
-1 7:0.1262026 8:0.12534711 9:0.12644219 40:0.12651607 45:0.12551177 59:0.12567862 65:0.12568356 66:0.12562748 83:0.12688645 121:0.12701414 
-1 9:0.12553396 24:0.12689918 29:0.1265684 33:0.12604231 38:0.12557106 48:0.12652527 51:0.12594883 56:0.12576879 63:0.12544478 93:0.12669231 97:0.12637977 116:0.12688679 119:0.12695934 120:0.12631081 
1 7:0.98520844 21:0.89285316 62:1.0019736 72:0.91975805 83:0.98608655 85:1.1419873 86:0.91183884 90:1.1545934 99:0.85145319 
1 15:0.88671377 18:1.1053954 27:0.7780886 28:0.86517488 43:1.0472114 44:1.1492271 49:0.85484862 70:1.0891577 75:1.0971541 84:0.80986921 89:1.1381184 106:0.81984953 113:0.80487236 122:1.0455164 
1 0:0.7700533 25:1.0038574 28:0.76773888 32:0.81319129 45:1.0137705 50:1.078971 59:1.0332894 67:0.93571892 68:0.95886944 72:0.83329252 94:0.93178705 97:0.84224375 110:1.0675823 116:0.80380222 127:0.80285989 
1 7:1.1598067 10:1.0992558 16:0.83312159 41:1.1587374 47:0.95921346 65:1.0105396 68:0.98996182 79:0.99539106 80:1.0215414 91:1.0623533 105:1.0168043 
1 0:0.93216341 7:1.2983312 11:1.3814013 19:1.279444 28:0.99324248 44:0.94766217 57:1.170098 58:1.4513581 66:1.0743969 95:1.3498673 98:0.89447758 101:1.0210722 
1 4:1.0098661 13:1.4336899 33:1.481249 34:1.4321588 41:1.322253 53:1.5025893 67:1.0216511 70:1.2953002 120:1.5056863 
1 12:1.2416302 27:1.2428642 39:0.89850501 81:1.3909339 92:0.92186761 105:1.1419459 113:1.4883505 115:0.8886462 124:1.1734588 
1 3:0.93090758 4:1.2643989 6:1.4175006 32:1.0904758 46:1.475075 54:0.90289855 74:1.5049743 92:0.90890261 95:1.2749375 98:1.2349272 110:1.500999 
