svm_type nu_svc
kernel_type sigmoid
gamma 0.00787402
coef0 0
nr_class 8
total_sv 32
rho -1.0005 -1.00023 -1.00013 -1.0002 -1.0001 -1.00009 -1.00007 -0.811259 -0.96016 -1.00344 -0.983884 -1.07094 -1.01843 -0.621758 -0.801752 -0.897906 -0.967088 -1.05734 -0.408285 -0.525753 -0.831687 -0.983517 -0.356839 -0.801488 -0.882324 -0.490884 -0.598398 -0.178391
label 0 1 2 3 4 5 6 7
probA -7.62666 -8.30613 -6.2015 -7.2763 -7.51188 -8.32442 -6.54595 0.501436 -5.22211 -2.20838 -7.32648 -11.211 -5.67668 4.33188 2.1869 5.76731 -4.76017 1.11098 6.69738 -0.781634 2.53009 5.37647 3.21734 3.8466 4.34913 3.62713 2.08932 7.12797
probB 6.38992 7.47586 5.10426 6.46158 6.41012 7.23 5.8256 -0.268793 3.74604 1.90671 6.00617 10.0567 5.00428 -1.37573 -1.52925 -3.92579 3.77721 -0.937638 -2.72371 0.33393 -1.88498 -4.18454 -0.503452 -2.01136 -3.03704 -1.22032 -1.00944 -1.44808
nr_sv 4 4 4 4 4 4 4 4
SV
2527.559254507324 473.6908916396478 201.89425855173 115.7597788577237 0 38.96231710316981 29.56393869759746 3:0.0001 4:0.0001 7:0.0001 12:0.0001 18:0.0001 21:0.0001 32:0.0001 34:0.0001 50:0.0001 73:0.0001 123:0.0001 127:0.0001 
2527.559254507324 473.6908916396478 201.89425855173 115.7597788577237 74.77837698999542 0 0 0:0.0001 10:0.0001 47:0.0001 51:0.0001 54:0.0001 63:0.0001 67:0.0001 73:0.0001 74:0.0001 84:0.0001 104:0.0001 108:0.0001 119:0.0001 127:0.0001 
0 0 0 0 74.77837698999542 0 0 0:0.0001 19:0.0001 30:0.0001 37:0.0001 61:0.0001 70:0.0001 72:0.0001 81:0.0001 104:0.0001 109:0.0001 
0 0 0 0 0 38.96231710316981 29.56393869759746 1:0.0001 10:0.0001 17:0.0001 21:0.0001 31:0.0001 33:0.0001 41:0.0001 77:0.0001 78:0.0001 80:0.0001 86:0.0001 98:0.0001 99:0.0001 122:0.0001 124:0.0001 
-1495.152397668256 263.3593381125572 215.6943812168089 68.05474968572069 37.10636302252042 42.6350611350145 10.07560633580073 16:0.1263555 28:0.12607968 39:0.12661627 51:0.12622132 59:0.12511364 61:0.1257036 72:0.12653739 73:0.12648799 82:0.12660489 126:0.12526793 
-2527.559254507324 497.7278615503116 215.6943812168089 58.07875887267458 50.41295738670188 0.1116618721231745 30.45299318654887 8:0.12549146 11:0.1260738 18:0.12656834 27:0.12610551 80:0.12606737 118:0.12550673 127:0.1262787 
-0 0 0 52.44958814640474 25.21577018559147 42.52339926289133 5.929137867947444 7:0.1262026 8:0.12534711 9:0.12644219 40:0.12651607 45:0.12551177 59:0.12567862 65:0.12568356 66:0.12562748 83:0.12688645 121:0.12701414 
-1032.406856839068 234.3685234377544 0 62.42557895945085 38.52236454977294 0 14.4482489828007 9:0.12553396 24:0.12689918 29:0.1265684 33:0.12604231 38:0.12557106 48:0.12652527 51:0.12594883 56:0.12576879 63:0.12544478 93:0.12669231 97:0.12637977 116:0.12688679 119:0.12695934 120:0.12631081 
-121.1093215773983 -109.4970035769143 35.77236480028031 86.90457106609838 26.90126766403808 16.07214562094529 31.43542196585911 13:0.26013063 19:0.25632524 23:0.26075378 33:0.2601991 34:0.25770546 52:0.26507841 53:0.26115498 66:0.26379407 68:0.25976885 71:0.26164361 74:0.26259436 89:0.26320195 91:0.2587091 97:0.25890601 100:0.26180319 108:0.25299539 113:0.25843074 117:0.25913234 119:0.25816916 
-191.2780058396779 -225.5068628107283 101.5497083565574 30.53236767382634 49.41462392758479 21.80360939070831 0 2:0.26061556 8:0.26004942 12:0.26006901 18:0.25604935 20:0.25584691 26:0.26220938 32:0.26096597 47:0.25172582 80:0.25591649 88:0.26259757 100:0.25642237 108:0.25830813 109:0.26377282 
-427.0632924579582 -449.1461665016786 185.7476802222528 109.0765831709662 39.34250627932384 19.82264390253994 25.74695970396557 4:0.25022234 12:0.26057732 14:0.2527028 39:0.26218069 48:0.26247706 55:0.25559982 62:0.26100083 118:0.25045148 
-207.9311634042612 -211.305690211302 119.9703366659757 26.89817461459484 46.21194704296249 25.55410767230297 11.87386722800364 5:0.26509955 15:0.26003628 19:0.26562979 23:0.25961537 36:0.25794733 40:0.26006158 41:0.26377396 67:0.26054086 73:0.2515226 80:0.25032463 84:0.25930814 96:0.26568926 97:0.25611114 101:0.25147032 108:0.25455177 113:0.26341407 
-43.90757333992131 -47.06863700335728 -61.66161987060296 22.44501545422955 29.84905519166603 12.85100507637744 15.27234156433107 6:0.42575624 9:0.41854099 12:0.37603135 16:0.42142529 22:0.39956835 36:0.39032178 37:0.38996708 43:0.42754486 45:0.42628794 47:0.42774893 61:0.4136282 64:0.3906398 98:0.41758065 101:0.3791011 103:0.40422615 108:0.40095572 110:0.41614228 112:0.4169625 113:0.41102778 123:0.42451272 
-68.58990993586562 -73.32323310881115 -68.35246981355057 50.12946258092433 20.04752710179531 28.22080873693207 7.526812834540173 3:0.42667263 10:0.39008616 12:0.37649653 18:0.4151063 22:0.38014556 28:0.41932249 35:0.39288804 37:0.40080492 43:0.37641115 52:0.4228777 64:0.37533415 67:0.40328463 68:0.38603259 77:0.39364563 96:0.41679714 106:0.38225545 124:0.37663795 
-126.7187786040718 -135.4817345526612 -136.9916285432879 78.89580512437487 35.06671676080642 22.03823170373538 31.35591698946841 4:0.40890867 18:0.424514 19:0.41538794 44:0.40471337 73:0.4178949 78:0.38586116 92:0.38565404 98:0.4007669 106:0.37697698 117:0.3824279 
-164.5722552236012 -175.5151577687882 -176.0343718176248 77.87709185298019 44.86824485067715 19.95300411706716 15.24950468089019 4:0.37588424 5:0.40686736 25:0.37824577 32:0.39886626 60:0.41933179 101:0.37994785 114:0.37990632 118:0.39922748 126:0.4158488 
-92.31507984133511 -92.66651749745529 -90.63510870819839 -89.22218999524129 51.09465089141212 24.35715468041713 35.00008093987602 4:0.57217896 7:0.53915206 10:0.55758178 24:0.58565642 31:0.53356366 34:0.5572311 46:0.56726481 60:0.56734557 95:0.51034673 
-42.12464468204686 -48.23150196895907 -52.35627525997882 -40.54261031518763 37.68689320658772 26.81785683995565 13.41901529090397 0:0.54923567 28:0.61520039 51:0.62120717 52:0.59052929 66:0.59370123 78:0.54428213 82:0.62399694 85:0.60840383 86:0.57707438 89:0.58477002 108:0.60406421 110:0.61228198 112:0.54387975 113:0.58998621 122:0.59984236 
-42.44963076164222 -46.43030663031279 -59.01560572582828 -49.77565866950183 20.81570825444606 19.40069095614473 8.702121606942089 13:0.50535031 21:0.58508972 23:0.58554021 35:0.5100709 53:0.56949476 55:0.50276144 62:0.61521369 68:0.51724449 73:0.51009615 75:0.55301728 78:0.5841149 106:0.52637799 107:0.59747367 118:0.52601544 124:0.51077373 127:0.57452076 
-54.63020243042315 -53.68034956752371 -51.40470683148033 -49.80691603257817 29.73522405248819 27.23696109151001 12.87894404202997 20:0.57161396 21:0.5570288 37:0.55449575 41:0.54084766 42:0.5316257 44:0.61818484 45:0.55644917 54:0.56035331 56:0.55565877 70:0.60493124 88:0.50936402 89:0.53384875 106:0.52104034 
-52.27993164606221 -52.48981478141441 -53.07435448202392 -46.38831016126395 -33.31226225729266 22.48412834853828 17.4794851085896 15:0.65541616 30:0.86085964 47:0.78850595 76:0.62629672 93:0.76167318 99:0.67659194 101:0.70786478 105:0.76207138 
-25.51579256284918 -26.75042632995636 -32.44462516644002 -25.58033917321691 -34.08146022334942 14.44341830324429 16.94728670919498 8:0.85772391 12:0.84991727 46:0.74369939 55:0.63868688 71:0.63427037 82:0.86035368 86:0.77531661 88:0.83409497 90:0.69960702 95:0.71507762 106:0.76754084 110:0.62755436 111:0.86608809 113:0.83345767 
-31.28758438258554 -31.360653517281 -38.96676322196156 -24.6712161473114 -32.5679706600387 21.31498789255312 5.981662342949828 13:0.63690929 15:0.68321224 23:0.82030144 26:0.76275988 49:0.67362557 61:0.68686708 86:0.73225459 89:0.85657328 94:0.79283314 99:0.78920077 108:0.67172921 
-40.47344538849391 -40.65656051593494 -37.3846020434837 -33.19167842315265 -39.37078326425332 22.00085013834805 22.65104338069645 10:0.86606461 50:0.76636098 63:0.75773683 70:0.85878318 81:0.84907825 85:0.80633061 92:0.7165902 95:0.79964574 125:0.86682038 
-25.25717311399039 -27.47665718601731 -24.66721912941182 -22.38659599929749 -31.12748486578813 -27.72745053396889 11.30403188572492 7:0.98520844 21:0.89285316 62:1.0019736 72:0.91975805 83:0.98608655 85:1.1419873 86:0.91183884 90:1.1545934 99:0.85145319 
-18.5104560167828 -19.12186569924188 -20.23965589791228 -22.68419995648072 -27.45552571814521 -21.22476382522292 12.94417952866817 15:0.88671377 18:1.1053954 27:0.7780886 28:0.86517488 43:1.0472114 44:1.1492271 49:0.85484862 70:1.0891577 75:1.0971541 84:0.80986921 89:1.1381184 106:0.81984953 113:0.80487236 122:1.0455164 
-16.27156077230109 -18.85885773945255 -17.74613815959603 -18.84732486057531 -19.32895079859669 -14.30614404042695 9.711650721795939 0:0.7700533 25:1.0038574 28:0.76773888 32:0.81319129 45:1.0137705 50:1.078971 59:1.0332894 67:0.93571892 68:0.95886944 72:0.83329252 94:0.93178705 97:0.84224375 110:1.0675823 116:0.80380222 127:0.80285989 
-17.88544430326534 -19.81274164531727 -20.59949339957639 -19.14492881775854 -19.9007021854975 -16.98502628306498 11.69541945906205 7:1.1598067 10:1.0992558 16:0.83312159 41:1.1587374 47:0.95921346 65:1.0105396 68:0.98996182 79:0.99539106 80:1.0215414 91:1.0623533 105:1.0168043 
-13.81316074740057 -14.5076714972346 -15.81895372422142 -16.64490878177839 -17.16441791367505 -13.78361872343386 -12.55739552595 0:0.93216341 7:1.2983312 11:1.3814013 19:1.279444 28:0.99324248 44:0.94766217 57:1.170098 58:1.4513581 66:1.0743969 95:1.3498673 98:0.89447758 101:1.0210722 
-14.88316904580408 -15.19626947233882 -18.99858639720821 -15.77491435185731 -18.61917155713334 -13.33825124783853 -11.41371800116553 4:1.0098661 13:1.4336899 33:1.481249 34:1.4321588 41:1.322253 53:1.5025893 67:1.0216511 70:1.2953002 120:1.5056863 
-19.96569291575094 -20.71795571785529 -22.82505134619993 -22.10364204275884 -19.73693178154499 -23.34088866682403 -15.16351267306309 12:1.2416302 27:1.2428642 39:0.89850501 81:1.3909339 92:0.92186761 105:1.1419459 113:1.4883505 115:0.8886462 124:1.1734588 
-10.46585468623933 -10.48408968566903 -11.41365743019875 -14.88111089283529 -14.47964062739867 -12.59671890333443 -6.520655395072455 3:0.93090758 4:1.2643989 6:1.4175006 32:1.0904758 46:1.475075 54:0.90289855 74:1.5049743 92:0.90890261 95:1.2749375 98:1.2349272 110:1.500999 
