svm_type nu_svc
kernel_type linear
nr_class 8
total_sv 32
rho -1.00049 -1.00022 -1.00013 -1.00018 -1.0001 -1.00009 -1.00007 -0.879942 -0.967255 -1.00165 -0.982335 -1.05804 -1.0182 -0.630326 -0.809213 -0.902164 -0.962859 -1.05808 -0.412061 -0.528504 -0.834928 -0.982765 -0.363077 -0.800345 -0.880145 -0.49228 -0.600756 -0.179974
label 0 1 2 3 4 5 6 7
probA -7.82286 -8.3064 -6.10179 -7.26148 -7.46381 -8.39473 -6.58412 1.57833 -5.02175 -2.07083 -7.34591 -11.1231 -5.72192 4.51374 2.1828 5.54376 -4.85806 1.12416 6.69024 -0.479052 2.50721 5.43918 3.19925 3.85118 4.37734 3.62504 2.11501 7.14539
probB 6.58922 7.47555 5.01119 6.44659 6.36484 7.29558 5.86667 -0.81048 3.50363 1.79169 6.02097 9.98729 5.04507 -1.41291 -1.52926 -3.78819 3.85497 -0.949643 -2.74785 0.205387 -1.87096 -4.24137 -0.502098 -2.0157 -3.05639 -1.22315 -1.02663 -1.45516
nr_sv 4 4 4 4 4 4 4 4
SV
22.14818123306903 3.805403882268296 1.578588347471297 0.9092748754826661 0 0.3059912012858055 0.2316698412608626 3:0.0001 4:0.0001 7:0.0001 12:0.0001 18:0.0001 21:0.0001 32:0.0001 34:0.0001 50:0.0001 73:0.0001 123:0.0001 127:0.0001 
22.14818123306903 3.805403882268296 0 0 0 0 0 0:0.0001 10:0.0001 47:0.0001 51:0.0001 54:0.0001 63:0.0001 67:0.0001 73:0.0001 74:0.0001 84:0.0001 104:0.0001 108:0.0001 119:0.0001 127:0.0001 
0 0 0 0 0.5877270143257242 0 0 0:0.0001 19:0.0001 30:0.0001 37:0.0001 61:0.0001 70:0.0001 72:0.0001 81:0.0001 104:0.0001 109:0.0001 
0 0 1.578588347471297 0.9092748754826661 0.5877270143257242 0.3059912012858055 0.2316698412608626 1:0.0001 10:0.0001 17:0.0001 21:0.0001 31:0.0001 33:0.0001 41:0.0001 77:0.0001 78:0.0001 80:0.0001 86:0.0001 98:0.0001 99:0.0001 122:0.0001 124:0.0001 
-10.94141046008686 1.563186648914385 1.418312021156913 0.59204687607777 0.3390868969286144 0.2672658130174276 0.07374578469341816 16:0.1263555 28:0.12607968 39:0.12661627 51:0.12622132 59:0.12511364 61:0.1257036 72:0.12653739 73:0.12648799 82:0.12660489 126:0.12526793 
-16.72824370589643 4.10019369210749 1.653483978529311 0.3500768035157162 0.3413215663681751 0.06512152978997958 0.2339028326550938 8:0.12549146 11:0.1260738 18:0.12656834 27:0.12610551 80:0.12606737 118:0.12550673 127:0.1262787 
-9.098115897138525 0.9481409858785599 0.1583349208382132 0.5388068402003948 0.1508029697035143 0.3323873428074072 0.05799946104787186 7:0.1262026 8:0.12534711 9:0.12644219 40:0.12651607 45:0.12551177 59:0.12567862 65:0.12568356 66:0.12562748 83:0.12688645 121:0.12701414 
-7.528592403016241 1.588866057314545 0.1299042003513809 0.4281499669841601 0.358947656016361 0 0.1114804818831664 9:0.12553396 24:0.12689918 29:0.1265684 33:0.12604231 38:0.12557106 48:0.12652527 51:0.12594883 56:0.12576879 63:0.12544478 93:0.12669231 97:0.12637977 116:0.12688679 119:0.12695934 120:0.12631081 
-1.036945193495523 -1.030655579528196 0.3076410631853522 0.6389918151597223 0.2089544014631793 0.1374996854773426 0.247876651599067 13:0.26013063 19:0.25632524 23:0.26075378 33:0.2601991 34:0.25770546 52:0.26507841 53:0.26115498 66:0.26379407 68:0.25976885 71:0.26164361 74:0.26259436 89:0.26320195 91:0.2587091 97:0.25890601 100:0.26180319 108:0.25299539 113:0.25843074 117:0.25913234 119:0.25816916 
-1.661798322826543 -1.99305415676193 0.7214347834455013 0.2152823499992216 0.4291302958255681 0.1570918788631593 0 2:0.26061556 8:0.26004942 12:0.26006901 18:0.25604935 20:0.25584691 26:0.26220938 32:0.26096597 47:0.25172582 80:0.25591649 88:0.26259757 100:0.25642237 108:0.25830813 109:0.26377282 
-3.572574599174264 -3.746417007966014 1.51326795582143 0.9037933946076565 0.3161262627553131 0.1464642661948027 0.2055675841216558 4:0.25022234 12:0.26057732 14:0.2527028 39:0.26218069 48:0.26247706 55:0.25559982 62:0.26100083 118:0.25045148 
-1.339489649040262 -1.430260639958839 0.9297146012438861 0.2443292022192659 0.3222933316360492 0.2133268888912805 0.08828213295701996 5:0.26509955 15:0.26003628 19:0.26562979 23:0.25961537 36:0.25794733 40:0.26006158 41:0.26377396 67:0.26054086 73:0.2515226 80:0.25032463 84:0.25930814 96:0.26568926 97:0.25611114 101:0.25147032 108:0.25455177 113:0.26341407 
-0.374608009384767 -0.4025595392315211 -0.4923543068609911 0.1745790133082312 0.2297164334462883 0.0981810379564412 0.1207782846159997 6:0.42575624 9:0.41854099 12:0.37603135 16:0.42142529 22:0.39956835 36:0.39032178 37:0.38996708 43:0.42754486 45:0.42628794 47:0.42774893 61:0.4136282 64:0.3906398 98:0.41758065 101:0.3791011 103:0.40422615 108:0.40095572 110:0.41614228 112:0.4169625 113:0.41102778 123:0.42451272 
-0.5245829623305714 -0.5569424007388952 -0.5571693151429504 0.3925568019875763 0.1559107621518648 0.2200332931957772 0.05845554173277585 3:0.42667263 10:0.39008616 12:0.37649653 18:0.4151063 22:0.38014556 28:0.41932249 35:0.39288804 37:0.40080492 43:0.37641115 52:0.4228777 64:0.37533415 67:0.40328463 68:0.38603259 77:0.39364563 96:0.41679714 106:0.38225545 124:0.37663795 
-0.9805631775620163 -1.045255849638235 -1.029063390760852 0.6209550427549599 0.2861402117651547 0.1710023199270393 0.2478798270994554 4:0.40890867 18:0.424514 19:0.41538794 44:0.40471337 73:0.4178949 78:0.38586116 92:0.38565404 98:0.4007669 106:0.37697698 117:0.3824279 
-1.277422545665238 -1.355277331267167 -1.393471390931375 0.6148983297747654 0.3502903416203398 0.1632045604353795 0.1172020335703917 4:0.37588424 5:0.40686736 25:0.37824577 32:0.39886626 60:0.41933179 101:0.37994785 114:0.37990632 118:0.39922748 126:0.4158488 
-0.7218296662017455 -0.747012755482051 -0.7326169187621028 -0.6933063825282163 0.4049695778359205 0.1883914001832948 0.2725651096760624 4:0.57217896 7:0.53915206 10:0.55758178 24:0.58565642 31:0.53356366 34:0.5572311 46:0.56726481 60:0.56734557 95:0.51034673 
-0.3359472988284556 -0.3752031469479512 -0.4083192123326906 -0.3168379945189455 0.2875206034386967 0.2126500114138847 0.1033354290824169 0:0.54923567 28:0.61520039 51:0.62120717 52:0.59052929 66:0.59370123 78:0.54428213 82:0.62399694 85:0.60840383 86:0.57707438 89:0.58477002 108:0.60406421 110:0.61228198 112:0.54387975 113:0.58998621 122:0.59984236 
-0.3395346723416342 -0.3537589637310924 -0.4662576104554152 -0.3949624549534831 0.1671513015672106 0.1510529665562514 0.07254912991462505 13:0.50535031 21:0.58508972 23:0.58554021 35:0.5100709 53:0.56949476 55:0.50276144 62:0.61521369 68:0.51724449 73:0.51009615 75:0.55301728 78:0.5841149 106:0.52637799 107:0.59747367 118:0.52601544 124:0.51077373 127:0.57452076 
-0.4212381135934967 -0.4331056206169465 -0.395203020435658 -0.397882355824888 0.235937399372304 0.2157914253484714 0.09901686257989434 20:0.57161396 21:0.5570288 37:0.55449575 41:0.54084766 42:0.5316257 44:0.61818484 45:0.55644917 54:0.56035331 56:0.55565877 70:0.60493124 88:0.50936402 89:0.53384875 106:0.52104034 
-0.4085214965508632 -0.4122996015918578 -0.4177231630412319 -0.3644946993439166 -0.2566543686887132 0.1793660744966268 0.1369214280681697 15:0.65541616 30:0.86085964 47:0.78850595 76:0.62629672 93:0.76167318 99:0.67659194 101:0.70786478 105:0.76207138 
-0.2025421902134661 -0.2110572427475113 -0.2551988399645787 -0.2001001162634158 -0.2662038225026314 0.1127298473354067 0.1310433295545157 8:0.85772391 12:0.84991727 46:0.74369939 55:0.63868688 71:0.63427037 82:0.86035368 86:0.77531661 88:0.83409497 90:0.69960702 95:0.71507762 106:0.76754084 110:0.62755436 111:0.86608809 113:0.83345767 
-0.246319623885053 -0.2468073692588481 -0.3070967828420944 -0.1965406922854689 -0.2629649411830747 0.1655255900569312 0.04756191275111121 13:0.63690929 15:0.68321224 23:0.82030144 26:0.76275988 49:0.67362557 61:0.68686708 86:0.73225459 89:0.85657328 94:0.79283314 99:0.78920077 108:0.67172921 
-0.318070718002066 -0.3199948754184476 -0.2964855058322048 -0.2609222410908465 -0.3097557498397124 0.1719874695462661 0.1788624003849402 10:0.86606461 50:0.76636098 63:0.75773683 70:0.85878318 81:0.84907825 85:0.80633061 92:0.7165902 95:0.79964574 125:0.86682038 
-0.1981681305347402 -0.2145969036144679 -0.194838863487412 -0.176521882015595 -0.2441931778993831 -0.2169735575147382 0.08913532557629412 7:0.98520844 21:0.89285316 62:1.0019736 72:0.91975805 83:0.98608655 85:1.1419873 86:0.91183884 90:1.1545934 99:0.85145319 
-0.1443630628818907 -0.1512683920116694 -0.160145788465677 -0.1780520982527144 -0.2159129514840009 -0.1647757729796973 0.1013174529712527 15:0.88671377 18:1.1053954 27:0.7780886 28:0.86517488 43:1.0472114 44:1.1492271 49:0.85484862 70:1.0891577 75:1.0971541 84:0.80986921 89:1.1381184 106:0.81984953 113:0.80487236 122:1.0455164 
-0.1283597308189108 -0.1449574679882886 -0.1388112370047483 -0.1487989260264598 -0.1520968575163702 -0.1133330173929435 0.07586075431053443 0:0.7700533 25:1.0038574 28:0.76773888 32:0.81319129 45:1.0137705 50:1.078971 59:1.0332894 67:0.93571892 68:0.95886944 72:0.83329252 94:0.93178705 97:0.84224375 110:1.0675823 116:0.80380222 127:0.80285989 
-0.1410914783360693 -0.1539519220003883 -0.1605868304687479 -0.1490483052198679 -0.1556828166021481 -0.1345266335478519 0.0913218352302053 7:1.1598067 10:1.0992558 16:0.83312159 41:1.1587374 47:0.95921346 65:1.0105396 68:0.98996182 79:0.99539106 80:1.0215414 91:1.0623533 105:1.0168043 
-0.1085499041868141 -0.1138562341134687 -0.1234637539511902 -0.1310045089574438 -0.1339159437842157 -0.1068757064461467 -0.09807619544439447 0:0.93216341 7:1.2983312 11:1.3814013 19:1.279444 28:0.99324248 44:0.94766217 57:1.170098 58:1.4513581 66:1.0743969 95:1.3498673 98:0.89447758 101:1.0210722 
-0.1161403804136333 -0.1198518032131079 -0.1487672934279315 -0.1229341130856367 -0.1455227045110015 -0.1052310950785424 -0.09009821609403437 4:1.0098661 13:1.4336899 33:1.481249 34:1.4321588 41:1.322253 53:1.5025893 67:1.0216511 70:1.2953002 120:1.5056863 
-0.1561801318973203 -0.1612996398110506 -0.1802024396174005 -0.1744756116634741 -0.155280187947664 -0.1833738490058026 -0.1182932151187611 12:1.2416302 27:1.2428642 39:0.89850501 81:1.3909339 92:0.92186761 105:1.1419459 113:1.4883505 115:0.8886462 124:1.1734588 
-0.08246926602395745 -0.08212088314192315 -0.08929288168122061 -0.1159014533120682 -0.1127476950101175 -0.09890842022824523 -0.05116774143109658 3:0.93090758 4:1.2643989 6:1.4175006 32:1.0904758 46:1.475075 54:0.90289855 74:1.5049743 92:0.90890261 95:1.2749375 98:1.2349272 110:1.500999 
