svm_type nu_svc
kernel_type polynomial
degree 3
gamma 0.00787402
coef0 0
nr_class 8
total_sv 20
rho -1 -1 -1 -1 -1 -1 -1 -0.997108 -0.999921 -0.999993 -0.999995 -1.00003 -1.00001 -0.896725 -0.977153 -0.992955 -0.998108 -0.999629 -0.587661 -0.877806 -0.961988 -0.98254 -0.607345 -0.870242 -0.926549 -0.544683 -0.74086 -0.260478
label 0 1 2 3 4 5 6 7
nr_sv 2 2 2 2 2 2 4 4
SV
2035863087.459186 3858552.946807398 215597.9786025226 56888.26551889329 14393.09879002214 4303.738497439711 2242.040571842514 3:0.0001 4:0.0001 7:0.0001 12:0.0001 18:0.0001 21:0.0001 32:0.0001 34:0.0001 50:0.0001 73:0.0001 123:0.0001 127:0.0001 
2035863087.459186 3858552.946807398 215597.9786025226 56888.26551889329 14393.09879002214 4303.738497439711 2242.040571842514 0:0.0001 10:0.0001 47:0.0001 51:0.0001 54:0.0001 63:0.0001 67:0.0001 73:0.0001 74:0.0001 84:0.0001 104:0.0001 108:0.0001 119:0.0001 127:0.0001 
-2035863087.459186 3853096.154026012 215597.5440442207 56893.67898435521 14393.12524071136 4303.834239294889 2242.054014353227 16:0.1263555 28:0.12607968 39:0.12661627 51:0.12622132 59:0.12511364 61:0.1257036 72:0.12653739 73:0.12648799 82:0.12660489 126:0.12526793 
-2035863087.459186 3853096.154026012 215597.5440442207 56893.67898435521 14393.12524071136 4303.834239294889 2242.054014353227 8:0.12549146 11:0.1260738 18:0.12656834 27:0.12610551 80:0.12606737 118:0.12550673 127:0.1262787 
-3858552.946807398 -3853096.154026012 204678.2885937573 56491.5320868929 14351.14893768936 4300.693328644499 2242.41598171784 13:0.26013063 19:0.25632524 23:0.26075378 33:0.2601991 34:0.25770546 52:0.26507841 53:0.26115498 66:0.26379407 68:0.25976885 71:0.26164361 74:0.26259436 89:0.26320195 91:0.2587091 97:0.25890601 100:0.26180319 108:0.25299539 113:0.25843074 117:0.25913234 119:0.25816916 
-3858552.946807398 -3853096.154026012 204678.2885937573 56491.5320868929 14351.14893768936 4300.693328644499 2242.41598171784 2:0.26061556 8:0.26004942 12:0.26006901 18:0.25604935 20:0.25584691 26:0.26220938 32:0.26096597 47:0.25172582 80:0.25591649 88:0.26259757 100:0.25642237 108:0.25830813 109:0.26377282 
-215597.9786025226 -215597.5440442207 -204678.2885937573 45644.93564276474 13538.85220952946 4231.842074795065 2225.004809175863 6:0.42575624 9:0.41854099 12:0.37603135 16:0.42142529 22:0.39956835 36:0.39032178 37:0.38996708 43:0.42754486 45:0.42628794 47:0.42774893 61:0.4136282 64:0.3906398 98:0.41758065 101:0.3791011 103:0.40422615 108:0.40095572 110:0.41614228 112:0.4169625 113:0.41102778 123:0.42451272 
-215597.9786025226 -215597.5440442207 -204678.2885937573 45644.93564276474 13538.85220952946 4231.842074795065 2225.004809175863 3:0.42667263 10:0.39008616 12:0.37649653 18:0.4151063 22:0.38014556 28:0.41932249 35:0.39288804 37:0.40080492 43:0.37641115 52:0.4228777 64:0.37533415 67:0.40328463 68:0.38603259 77:0.39364563 96:0.41679714 106:0.38225545 124:0.37663795 
-56888.26551889329 -56893.67898435521 -56491.5320868929 -45644.93564276474 11739.13218560029 4050.392483930243 2166.213654317878 4:0.57217896 7:0.53915206 10:0.55758178 24:0.58565642 31:0.53356366 34:0.5572311 46:0.56726481 60:0.56734557 95:0.51034673 
-56888.26551889329 -56893.67898435521 -56491.5320868929 -45644.93564276474 11739.13218560029 4050.392483930243 2166.213654317878 0:0.54923567 28:0.61520039 51:0.62120717 52:0.59052929 66:0.59370123 78:0.54428213 82:0.62399694 85:0.60840383 86:0.57707438 89:0.58477002 108:0.60406421 110:0.61228198 112:0.54387975 113:0.58998621 122:0.59984236 
-14393.09879002214 -14393.12524071136 -14351.14893768936 -13538.85220952946 -11739.13218560029 3334.825803479521 1963.042375875438 15:0.65541616 30:0.86085964 47:0.78850595 76:0.62629672 93:0.76167318 99:0.67659194 101:0.70786478 105:0.76207138 
-14393.09879002214 -14393.12524071136 -14351.14893768936 -13538.85220952946 -11739.13218560029 3334.825803479521 1963.042375875438 8:0.85772391 12:0.84991727 46:0.74369939 55:0.63868688 71:0.63427037 82:0.86035368 86:0.77531661 88:0.83409497 90:0.69960702 95:0.71507762 106:0.76754084 110:0.62755436 111:0.86608809 113:0.83345767 
-4303.738497439711 -4303.834239294889 -4300.693328644499 -4231.842074795065 -4050.392483930243 -3334.825803479521 1417.996851727448 7:0.98520844 21:0.89285316 62:1.0019736 72:0.91975805 83:0.98608655 85:1.1419873 86:0.91183884 90:1.1545934 99:0.85145319 
-1755.352918039276 -1755.404513347552 -1753.975156863733 -1729.330527917251 -1662.577243896696 -1359.152495759003 656.2119454151542 15:0.88671377 18:1.1053954 27:0.7780886 28:0.86517488 43:1.0472114 44:1.1492271 49:0.85484862 70:1.0891577 75:1.0971541 84:0.80986921 89:1.1381184 106:0.81984953 113:0.80487236 122:1.0455164 
-0 -0 -0 -0 -0 -0 761.7849063122936 0:0.7700533 25:1.0038574 28:0.76773888 32:0.81319129 45:1.0137705 50:1.078971 59:1.0332894 67:0.93571892 68:0.95886944 72:0.83329252 94:0.93178705 97:0.84224375 110:1.0675823 116:0.80380222 127:0.80285989 
-2548.385579400435 -2548.429725947337 -2546.718171780766 -2502.511546877814 -2387.815240033548 -1975.673307720518 0 7:1.1598067 10:1.0992558 16:0.83312159 41:1.1587374 47:0.95921346 65:1.0105396 68:0.98996182 79:0.99539106 80:1.0215414 91:1.0623533 105:1.0168043 
-1209.084512763779 -1209.093506271151 -1209.321774144753 -1198.737844647309 -1167.391747668934 -1053.480158984363 -766.1400308867619 0:0.93216341 7:1.2983312 11:1.3814013 19:1.279444 28:0.99324248 44:0.94766217 57:1.170098 58:1.4513581 66:1.0743969 95:1.3498673 98:0.89447758 101:1.0210722 
-679.8818380483965 -679.8839998541863 -681.2261347060611 -674.024347863771 -657.5577589177167 -591.2594502669873 -428.3270379592783 4:1.0098661 13:1.4336899 33:1.481249 34:1.4321588 41:1.322253 53:1.5025893 67:1.0216511 70:1.2953002 120:1.5056863 
-1562.158733794118 -1562.170014499041 -1561.189847011779 -1550.980461312092 -1508.655895400161 -1371.782925608451 -989.6698137681695 12:1.2416302 27:1.2428642 39:0.89850501 81:1.3909339 92:0.92186761 105:1.1419459 113:1.4883505 115:0.8886462 124:1.1734588 
-1032.956059078735 -1032.960508082076 -1033.094207573087 -1026.266964528553 -998.8219066489431 -909.5622168910749 -651.8568208406859 3:0.93090758 4:1.2643989 6:1.4175006 32:1.0904758 46:1.475075 54:0.90289855 74:1.5049743 92:0.90890261 95:1.2749375 98:1.2349272 110:1.500999 
