svm_type nu_svc
kernel_type rbf
gamma 0.00787402
nr_class 8
total_sv 32
rho 2.37101 2.04493 1.97218 2.4177 2.23681 2.15409 2.09752 1.78435 1.96551 2.45098 2.21053 2.29687 2.12937 1.30973 2.20276 2.12244 2.14641 2.28019 1.3238 1.30908 1.94754 2.14364 0.757116 1.71295 1.90581 1.06708 1.37139 0.397957
label 0 1 2 3 4 5 6 7
nr_sv 4 4 4 4 4 4 4 4
SV
1371.857139248151 245.6905088792642 99.83838785742533 56.72913240714075 0 18.55374734212287 13.82034400235351 3:0.0001 4:0.0001 7:0.0001 12:0.0001 18:0.0001 21:0.0001 32:0.0001 34:0.0001 50:0.0001 73:0.0001 123:0.0001 127:0.0001 
1371.857139248151 245.6905088792642 0 0 0 0 0 0:0.0001 10:0.0001 47:0.0001 51:0.0001 54:0.0001 63:0.0001 67:0.0001 73:0.0001 74:0.0001 84:0.0001 104:0.0001 108:0.0001 119:0.0001 127:0.0001 
0 0 0 0 36.47474771439787 0 0 0:0.0001 19:0.0001 30:0.0001 37:0.0001 61:0.0001 70:0.0001 72:0.0001 81:0.0001 104:0.0001 109:0.0001 
0 0 99.83838785742533 56.72913240714075 36.47474771439787 18.55374734212287 13.82034400235351 1:0.0001 10:0.0001 17:0.0001 21:0.0001 31:0.0001 33:0.0001 41:0.0001 77:0.0001 78:0.0001 80:0.0001 86:0.0001 98:0.0001 99:0.0001 122:0.0001 124:0.0001 
-811.5926068266343 88.89247903680963 87.03083800757037 37.2573536370823 17.7305601124993 15.92370104910433 4.92561196254234 16:0.1263555 28:0.12607968 39:0.12661627 51:0.12622132 59:0.12511364 61:0.1257036 72:0.12653739 73:0.12648799 82:0.12660489 126:0.12526793 
-914.2900538297864 257.3892775416302 106.3204335927018 22.05948565524522 24.30555134824522 4.058673591581979 13.26328639711495 8:0.12549146 11:0.1260738 18:0.12656834 27:0.12610551 80:0.12606737 118:0.12550673 127:0.1262787 
-457.5670854183646 47.21881167125413 7.010633842028888 32.60563207440349 12.64754157024157 19.98237464068631 3.552582214940525 7:0.1262026 8:0.12534711 9:0.12644219 40:0.12651607 45:0.12551177 59:0.12567862 65:0.12568356 66:0.12562748 83:0.12688645 121:0.12701414 
-560.2645324215167 121.2779868335664 12.27896174310257 26.98644018271203 19.22253280598749 0 6.642474472257882 9:0.12553396 24:0.12689918 29:0.1265684 33:0.12604231 38:0.12557106 48:0.12652527 51:0.12594883 56:0.12576879 63:0.12544478 93:0.12669231 97:0.12637977 116:0.12688679 119:0.12695934 120:0.12631081 
-62.59140863019561 -70.58829278827405 18.54949187665346 40.19200008643771 13.75157363104061 8.748396472235846 13.90810879760478 13:0.26013063 19:0.25632524 23:0.26075378 33:0.2601991 34:0.25770546 52:0.26507841 53:0.26115498 66:0.26379407 68:0.25976885 71:0.26164361 74:0.26259436 89:0.26320195 91:0.2587091 97:0.25890601 100:0.26180319 108:0.25299539 113:0.25843074 117:0.25913234 119:0.25816916 
-113.5206072434097 -116.718870943592 46.73576633962892 13.94863909200003 26.50230722630715 9.570045578759117 0 2:0.26061556 8:0.26004942 12:0.26006901 18:0.25604935 20:0.25584691 26:0.26220938 32:0.26096597 47:0.25172582 80:0.25591649 88:0.26259757 100:0.25642237 108:0.25830813 109:0.26377282 
-237.83741680415 -232.3058602005828 97.2581748167717 54.9706031055037 19.13881691087369 9.030664293876157 12.15192167900528 4:0.25022234 12:0.26057732 14:0.2527028 39:0.26218069 48:0.26247706 55:0.25559982 62:0.26100083 118:0.25045148 
-77.43158508077308 -95.16553115081153 60.27063592853467 16.30199208102136 20.32881119402269 12.50393657672316 5.802676055734741 5:0.26509955 15:0.26003628 19:0.26562979 23:0.25961537 36:0.25794733 40:0.26006158 41:0.26377396 67:0.26054086 73:0.2515226 80:0.25032463 84:0.25930814 96:0.26568926 97:0.25611114 101:0.25147032 108:0.25455177 113:0.26341407 
-23.07999624906219 -24.68461319002801 -31.04533234311484 11.82605416556128 15.26588855151691 6.576801628901836 7.54731002040139 6:0.42575624 9:0.41854099 12:0.37603135 16:0.42142529 22:0.39956835 36:0.39032178 37:0.38996708 43:0.42754486 45:0.42628794 47:0.42774893 61:0.4136282 64:0.3906398 98:0.41758065 101:0.3791011 103:0.40422615 108:0.40095572 110:0.41614228 112:0.4169625 113:0.41102778 123:0.42451272 
-33.85917082117694 -36.08317100845544 -34.53107523395621 25.17072348573915 10.29642859130705 13.1900855626597 4.185737172179195 3:0.42667263 10:0.39008616 12:0.37649653 18:0.4151063 22:0.38014556 28:0.41932249 35:0.39288804 37:0.40080492 43:0.37641115 52:0.4228777 64:0.37533415 67:0.40328463 68:0.38603259 77:0.39364563 96:0.41679714 106:0.38225545 124:0.37663795 
-61.30943255257456 -65.31935147250947 -68.89131316955211 39.35932454858032 17.52753925247873 10.33143359167041 13.88576222311296 4:0.40890867 18:0.424514 19:0.41538794 44:0.40471337 73:0.4178949 78:0.38586116 92:0.38565404 98:0.4007669 106:0.37697698 117:0.3824279 
-81.42817609203696 -86.55373151441071 -88.3463482149656 39.02323057023719 22.49699921268859 10.27269478730857 7.00350439158283 4:0.37588424 5:0.40686736 25:0.37824577 32:0.39886626 60:0.41933179 101:0.37994785 114:0.37990632 118:0.39922748 126:0.4158488 
-45.39837280568694 -46.70759189371841 -45.77521675880729 -44.79292972806729 25.65949922114232 11.95248051787882 15.62543262942208 4:0.57217896 7:0.53915206 10:0.55758178 24:0.58565642 31:0.53356366 34:0.5572311 46:0.56726481 60:0.56734557 95:0.51034673 
-20.48457822675217 -23.17673521255917 -25.77128410973606 -20.41707214693719 18.70835593977824 13.22177052832668 6.730847775778438 0:0.54923567 28:0.61520039 51:0.62120717 52:0.59052929 66:0.59370123 78:0.54428213 82:0.62399694 85:0.60840383 86:0.57707438 89:0.58477002 108:0.60406421 110:0.61228198 112:0.54387975 113:0.58998621 122:0.59984236 
-20.74357722535552 -22.01132720133407 -29.03997976829568 -24.99335272437544 11.28980389390422 9.794227226695272 4.987187978266123 13:0.50535031 21:0.58508972 23:0.58554021 35:0.5100709 53:0.56949476 55:0.50276144 62:0.61521369 68:0.51724449 73:0.51009615 75:0.55301728 78:0.5841149 106:0.52637799 107:0.59747367 118:0.52601544 124:0.51077373 127:0.57452076 
-26.83173655648688 -27.0132572418314 -24.82675372812378 -25.175978170738 15.22267408199005 13.16974339386803 6.247393319181046 20:0.57161396 21:0.5570288 37:0.55449575 41:0.54084766 42:0.5316257 44:0.61818484 45:0.55644917 54:0.56035331 56:0.55565877 70:0.60493124 88:0.50936402 89:0.53384875 106:0.52104034 
-25.69708221771709 -25.84339699310816 -26.26707426737609 -23.32285558554763 -16.65450412230002 11.41846872071971 8.477735160831575 15:0.65541616 30:0.86085964 47:0.78850595 76:0.62629672 93:0.76167318 99:0.67659194 101:0.70786478 105:0.76207138 
-12.24001583608614 -12.85771263707415 -15.77492250051429 -12.89208306782295 -17.25737969164228 7.618385695288227 8.523337622943091 8:0.85772391 12:0.84991727 46:0.74369939 55:0.63868688 71:0.63427037 82:0.86035368 86:0.77531661 88:0.83409497 90:0.69960702 95:0.71507762 106:0.76754084 110:0.62755436 111:0.86608809 113:0.83345767 
-15.30088191455947 -15.36041749264102 -19.27931649311377 -12.57644063295221 -16.99867390613911 10.76478571620985 3.551257869936128 13:0.63690929 15:0.68321224 23:0.82030144 26:0.76275988 49:0.67362557 61:0.68686708 86:0.73225459 89:0.85657328 94:0.79283314 99:0.78920077 108:0.67172921 
-19.71151546043304 -19.84465871415025 -18.40019570123999 -16.7954763216685 -19.96977541673342 11.16996176413813 11.15859619623229 10:0.86606461 50:0.76636098 63:0.75773683 70:0.85878318 81:0.84907825 85:0.80633061 92:0.7165902 95:0.79964574 125:0.86682038 
-12.22306669342006 -13.12005098115032 -12.01525536081871 -11.0785211474772 -15.38632613527185 -14.10759707132461 6.066000945683508 7:0.98520844 21:0.89285316 62:1.0019736 72:0.91975805 83:0.98608655 85:1.1419873 86:0.91183884 90:1.1545934 99:0.85145319 
-8.644110426017638 -8.929767702341577 -9.6379200124153 -10.81606119596452 -13.36433383104161 -10.61828200696818 6.892236466779127 15:0.88671377 18:1.1053954 27:0.7780886 28:0.86517488 43:1.0472114 44:1.1492271 49:0.85484862 70:1.0891577 75:1.0971541 84:0.80986921 89:1.1381184 106:0.81984953 113:0.80487236 122:1.0455164 
-7.730543480761827 -8.682924257525151 -8.38267556010029 -9.185664771920891 -9.61248742419356 -7.467976334542327 5.343383160455337 0:0.7700533 25:1.0038574 28:0.76773888 32:0.81319129 45:1.0137705 50:1.078971 59:1.0332894 67:0.93571892 68:0.95886944 72:0.83329252 94:0.93178705 97:0.84224375 110:1.0675823 116:0.80380222 127:0.80285989 
-8.509774084046212 -9.232006340355577 -9.817191988259976 -9.290768455177908 -9.775074276261789 -8.777746483520804 6.22778025978891 7:1.1598067 10:1.0992558 16:0.83312159 41:1.1587374 47:0.95921346 65:1.0105396 68:0.98996182 79:0.99539106 80:1.0215414 91:1.0623533 105:1.0168043 
-6.408262175354356 -6.707384897076929 -7.22648023491046 -7.792030030080412 -8.18777682621945 -6.858894756702898 -6.646914656600924 0:0.93216341 7:1.2983312 11:1.3814013 19:1.279444 28:0.99324248 44:0.94766217 57:1.170098 58:1.4513581 66:1.0743969 95:1.3498673 98:0.89447758 101:1.0210722 
-6.86078804129412 -7.044129938241757 -8.63946200147595 -7.289854712046243 -8.816551856556602 -6.74828924619846 -6.140239298424281 4:1.0098661 13:1.4336899 33:1.481249 34:1.4321588 41:1.322253 53:1.5025893 67:1.0216511 70:1.2953002 120:1.5056863 
-9.414733807037116 -9.674425700385045 -10.71339712394276 -10.56419146723256 -9.644770170178548 -11.67862553098013 -7.962344179887516 12:1.2416302 27:1.2428642 39:0.89850501 81:1.3909339 92:0.92186761 105:1.1419459 113:1.4883505 115:0.8886462 124:1.1734588 
-4.956903981021431 -4.95801451115197 -5.283367172015623 -6.976237597917158 -6.941762849693085 -6.425117316061596 -3.779902697794164 3:0.93090758 4:1.2643989 6:1.4175006 32:1.0904758 46:1.475075 54:0.90289855 74:1.5049743 92:0.90890261 95:1.2749375 98:1.2349272 110:1.500999 
