svm_type c_svc
kernel_type rbf
gamma 1
nr_class 2
total_sv 2
rho -2.90877
label 0 1
nr_sv 1 1
SV
256 0:0.3093766 1:0 2:0 3:0 4:0 5:0.1764706 6:0 7:0 8:1 9:0.1137485 
-256 0:0.3332312 1:0 2:0 3:0 4:0.09657142 5:1 6:0 7:0 8:1 9:0.09917226 
